! ||| ! ||| 0.848649 0.005405 0.145946 0.967568 0.005405 0.027027 
! ||| . ||| 0.724138 0.034483 0.241379 0.931034 0.034483 0.034483 
! ||| computer ! ||| 0.200000 0.200000 0.600000 0.600000 0.200000 0.200000 
! ||| to you ! ||| 0.714286 0.142857 0.142857 0.714286 0.142857 0.142857 
! ||| you ! ||| 0.142857 0.142857 0.714286 0.714286 0.142857 0.142857 
? ! ||| ? ! ||| 0.636364 0.090909 0.272727 0.818182 0.090909 0.090909 
? ||| ? ||| 0.923754 0.002933 0.073314 0.970674 0.014663 0.014663 
? ||| you ? ||| 0.600000 0.200000 0.200000 0.600000 0.200000 0.200000 
Chaque personne ||| Every person ||| 0.600000 0.200000 0.200000 0.600000 0.200000 0.200000 
Chaque ||| Every ||| 0.714286 0.142857 0.142857 0.714286 0.142857 0.142857 
De ||| What ||| 0.846154 0.076923 0.076923 0.846154 0.076923 0.076923 
En ||| Despite ||| 0.600000 0.200000 0.200000 0.600000 0.200000 0.200000 
En ||| In ||| 0.600000 0.200000 0.200000 0.600000 0.200000 0.200000 
En ||| When ||| 0.600000 0.200000 0.200000 0.600000 0.200000 0.200000 
Est-ce que tu ||| Are you ||| 0.777778 0.111111 0.111111 0.555556 0.111111 0.333333 
Est-ce que tu ||| Could you ||| 0.600000 0.200000 0.200000 0.600000 0.200000 0.200000 
Est-ce que tu ||| Do you ||| 0.818182 0.090909 0.090909 0.818182 0.090909 0.090909 
Est-ce que ||| Is ||| 0.600000 0.200000 0.200000 0.600000 0.200000 0.200000 
Est-ce ||| Are ||| 0.818182 0.090909 0.090909 0.818182 0.090909 0.090909 
Est-ce ||| Could ||| 0.600000 0.200000 0.200000 0.600000 0.200000 0.200000 
Est-ce ||| Do ||| 0.818182 0.090909 0.090909 0.818182 0.090909 0.090909 
Est-ce ||| Is ||| 0.818182 0.090909 0.090909 0.090909 0.090909 0.818182 
Il fait ||| It &apos;s ||| 0.777778 0.111111 0.111111 0.777778 0.111111 0.111111 
Il fait ||| It is ||| 0.600000 0.200000 0.200000 0.600000 0.200000 0.200000 
Il ||| He ||| 0.945946 0.027027 0.027027 0.783784 0.027027 0.189189 
Il ||| I ||| 0.714286 0.142857 0.142857 0.428571 0.142857 0.428571 
Il ||| It ||| 0.939394 0.030303 0.030303 0.757576 0.030303 0.212121 
Il ||| Sometimes ||| 0.600000 0.200000 0.200000 0.200000 0.200000 0.600000 
Il ||| There ||| 0.714286 0.142857 0.142857 0.428571 0.142857 0.428571 
Il ||| This ||| 0.600000 0.200000 0.200000 0.200000 0.200000 0.600000 
Il ||| To be ||| 0.600000 0.200000 0.200000 0.600000 0.200000 0.200000 
Il ||| To ||| 0.714286 0.142857 0.142857 0.142857 0.142857 0.714286 
Je ne sais pas ||| I cannot ||| 0.600000 0.200000 0.200000 0.600000 0.200000 0.200000 
Je ne sais pas ||| I don &apos;t know ||| 0.846154 0.076923 0.076923 0.846154 0.076923 0.076923 
Je ne sais ||| I cannot ||| 0.600000 0.200000 0.200000 0.200000 0.200000 0.600000 
Je ne sais ||| I don &apos;t know ||| 0.600000 0.200000 0.200000 0.200000 0.200000 0.600000 
Je ne ||| I can ||| 0.777778 0.111111 0.111111 0.111111 0.111111 0.777778 
Je ne ||| I don ||| 0.957447 0.021277 0.021277 0.106383 0.021277 0.872340 
Je ne ||| I won ||| 0.714286 0.142857 0.142857 0.142857 0.142857 0.714286 
Je suis fou de ||| I &apos;m beside myself ||| 0.600000 0.200000 0.200000 0.600000 0.200000 0.200000 
Je suis fou ||| I &apos;m beside ||| 0.600000 0.200000 0.200000 0.600000 0.200000 0.200000 
Je suis ||| I &apos;m ||| 0.894737 0.052632 0.052632 0.894737 0.052632 0.052632 
Je suis ||| I am ||| 0.866667 0.066667 0.066667 0.866667 0.066667 0.066667 
Je suppose que ||| I suppose that ||| 0.600000 0.200000 0.200000 0.600000 0.200000 0.200000 
Je suppose que ||| I suppose ||| 0.714286 0.142857 0.142857 0.714286 0.142857 0.142857 
Je suppose ||| I suppose ||| 0.600000 0.200000 0.200000 0.600000 0.200000 0.200000 
Je vais ||| I ||| 0.714286 0.142857 0.142857 0.428571 0.142857 0.428571 
Je veux un ||| I want a ||| 0.777778 0.111111 0.111111 0.777778 0.111111 0.111111 
Je veux ||| I want to ||| 0.600000 0.200000 0.200000 0.600000 0.200000 0.200000 
Je veux ||| I want ||| 0.818182 0.090909 0.090909 0.636364 0.090909 0.272727 
Je ||| I need ||| 0.600000 0.200000 0.200000 0.600000 0.200000 0.200000 
Je ||| I ||| 0.987138 0.009646 0.003215 0.884244 0.003215 0.112540 
La vie ||| Life ||| 0.894737 0.052632 0.052632 0.894737 0.052632 0.052632 
La ||| Class ||| 0.600000 0.200000 0.200000 0.200000 0.200000 0.600000 
La ||| Liberty ||| 0.600000 0.200000 0.200000 0.600000 0.200000 0.200000 
La ||| Spenser &apos;s ||| 0.600000 0.200000 0.200000 0.600000 0.200000 0.200000 
La ||| Spenser ||| 0.600000 0.200000 0.200000 0.200000 0.200000 0.600000 
La ||| The ||| 0.925926 0.037037 0.037037 0.925926 0.037037 0.037037 
Les ||| Classes ||| 0.600000 0.200000 0.200000 0.600000 0.200000 0.200000 
Les ||| I ||| 0.600000 0.200000 0.200000 0.200000 0.200000 0.600000 
Les ||| Teachers ||| 0.600000 0.200000 0.200000 0.600000 0.200000 0.200000 
Les ||| The ||| 0.913043 0.043478 0.043478 0.913043 0.043478 0.043478 
Mon ||| My ||| 0.894737 0.052632 0.052632 0.894737 0.052632 0.052632 
Où est ||| Where is ||| 0.600000 0.200000 0.200000 0.600000 0.200000 0.200000 
Où sont les ||| Where are the ||| 0.600000 0.200000 0.200000 0.600000 0.200000 0.200000 
Où sont ||| Where are ||| 0.600000 0.200000 0.200000 0.600000 0.200000 0.200000 
Où ||| Where ||| 0.818182 0.090909 0.090909 0.818182 0.090909 0.090909 
Pourquoi ne ||| Why don ||| 0.777778 0.111111 0.111111 0.111111 0.111111 0.777778 
Pourquoi ||| Why ||| 0.925926 0.037037 0.037037 0.703704 0.037037 0.259259 
Quelles ||| What ||| 0.600000 0.200000 0.200000 0.600000 0.200000 0.200000 
Qui ||| Silence ||| 0.600000 0.200000 0.200000 0.600000 0.200000 0.200000 
Qui ||| Who ||| 0.777778 0.111111 0.111111 0.777778 0.111111 0.111111 
Si vous ||| If you ||| 0.777778 0.111111 0.111111 0.777778 0.111111 0.111111 
Si ||| If ||| 0.955556 0.022222 0.022222 0.911111 0.022222 0.066667 
Son ||| His ||| 0.714286 0.142857 0.142857 0.714286 0.142857 0.142857 
Tu as déjà ||| Have you ever ||| 0.600000 0.200000 0.200000 0.600000 0.200000 0.200000 
Tu as ||| Have you ||| 0.600000 0.200000 0.200000 0.600000 0.200000 0.200000 
Tu ne ||| I don ||| 0.600000 0.200000 0.200000 0.200000 0.200000 0.600000 
Tu ne ||| You didn &apos;t ||| 0.600000 0.200000 0.200000 0.600000 0.200000 0.200000 
Tu ne ||| You didn ||| 0.600000 0.200000 0.200000 0.200000 0.200000 0.600000 
Tu ||| Are ||| 0.600000 0.200000 0.200000 0.200000 0.200000 0.600000 
Tu ||| Have ||| 0.600000 0.200000 0.200000 0.600000 0.200000 0.200000 
Tu ||| I ||| 0.714286 0.142857 0.142857 0.714286 0.142857 0.142857 
Tu ||| It ||| 0.600000 0.200000 0.200000 0.600000 0.200000 0.200000 
Tu ||| You ||| 0.974026 0.012987 0.012987 0.896104 0.012987 0.090909 
a une ||| is a ||| 0.600000 0.200000 0.200000 0.600000 0.200000 0.200000 
a ||| are ||| 0.600000 0.200000 0.200000 0.600000 0.200000 0.200000 
a ||| doesn ||| 0.200000 0.200000 0.600000 0.600000 0.200000 0.200000 
a ||| has ||| 0.739130 0.130435 0.130435 0.913043 0.043478 0.043478 
a ||| is ||| 0.692308 0.076923 0.230769 0.846154 0.076923 0.076923 
a ||| off ||| 0.600000 0.200000 0.200000 0.600000 0.200000 0.200000 
achète ||| would buy ||| 0.600000 0.200000 0.200000 0.600000 0.200000 0.200000 
ai ||| &apos;m ||| 0.818182 0.090909 0.090909 0.818182 0.090909 0.090909 
ai ||| &apos;t have ||| 0.600000 0.200000 0.200000 0.600000 0.200000 0.200000 
ai ||| &apos;ve ||| 0.714286 0.142857 0.142857 0.714286 0.142857 0.142857 
ai ||| I have ||| 0.200000 0.200000 0.600000 0.600000 0.200000 0.200000 
ai ||| feel ||| 0.714286 0.142857 0.142857 0.428571 0.142857 0.428571 
ai ||| got ||| 0.600000 0.200000 0.200000 0.600000 0.200000 0.200000 
ai ||| have ||| 0.490196 0.215686 0.294118 0.803922 0.019608 0.176471 
ai ||| learned ||| 0.714286 0.142857 0.142857 0.142857 0.142857 0.714286 
ai ||| liked ||| 0.142857 0.428571 0.428571 0.142857 0.142857 0.714286 
ai ||| slept ||| 0.600000 0.200000 0.200000 0.600000 0.200000 0.200000 
aimé ||| like it ||| 0.600000 0.200000 0.200000 0.600000 0.200000 0.200000 
as déjà ||| you ever ||| 0.600000 0.200000 0.200000 0.600000 0.200000 0.200000 
as ||| &apos;ve ||| 0.200000 0.200000 0.600000 0.600000 0.200000 0.200000 
as ||| do have ||| 0.600000 0.200000 0.200000 0.600000 0.200000 0.200000 
as ||| have ||| 0.428571 0.238095 0.333333 0.619048 0.047619 0.333333 
as ||| look ||| 0.600000 0.200000 0.200000 0.600000 0.200000 0.200000 
as ||| this ||| 0.600000 0.200000 0.200000 0.600000 0.200000 0.200000 
as ||| you ||| 0.600000 0.200000 0.200000 0.600000 0.200000 0.200000 
as-tu besoin ? ||| you want ? ||| 0.600000 0.200000 0.200000 0.600000 0.200000 0.200000 
as-tu besoin ||| you want ||| 0.600000 0.200000 0.200000 0.600000 0.200000 0.200000 
as-tu ||| did you ||| 0.714286 0.142857 0.142857 0.714286 0.142857 0.142857 
as-tu ||| you ||| 0.600000 0.200000 0.200000 0.600000 0.200000 0.200000 
assez ||| French ||| 0.200000 0.200000 0.600000 0.600000 0.200000 0.200000 
assez ||| discerning ||| 0.600000 0.200000 0.200000 0.600000 0.200000 0.200000 
assez ||| fast ||| 0.600000 0.200000 0.200000 0.600000 0.200000 0.200000 
assez ||| quite ||| 0.428571 0.428571 0.142857 0.428571 0.142857 0.428571 
assez ||| rather ||| 0.600000 0.200000 0.200000 0.600000 0.200000 0.200000 
assez ||| sick ||| 0.600000 0.200000 0.200000 0.600000 0.200000 0.200000 
assez ||| tired ||| 0.600000 0.200000 0.200000 0.600000 0.200000 0.200000 
au ||| at ||| 0.600000 0.200000 0.200000 0.600000 0.200000 0.200000 
au ||| in ||| 0.777778 0.111111 0.111111 0.777778 0.111111 0.111111 
au ||| the ||| 0.600000 0.200000 0.200000 0.600000 0.200000 0.200000 
au ||| to the ||| 0.600000 0.200000 0.200000 0.600000 0.200000 0.200000 
au ||| to ||| 0.714286 0.142857 0.142857 0.714286 0.142857 0.142857 
avant ||| before ||| 0.692308 0.076923 0.230769 0.846154 0.076923 0.076923 
avant ||| for ||| 0.600000 0.200000 0.200000 0.200000 0.200000 0.600000 
avoir ||| be ||| 0.200000 0.200000 0.600000 0.200000 0.200000 0.600000 
avoir ||| have ||| 0.866667 0.066667 0.066667 0.600000 0.066667 0.333333 
beauté ||| good looks ||| 0.600000 0.200000 0.200000 0.600000 0.200000 0.200000 
besoin ? ||| want ? ||| 0.600000 0.200000 0.200000 0.600000 0.200000 0.200000 
besoin ||| need to ||| 0.600000 0.200000 0.200000 0.200000 0.200000 0.600000 
besoin ||| need ||| 0.789474 0.052632 0.157895 0.684211 0.052632 0.263158 
besoin ||| want ||| 0.600000 0.200000 0.200000 0.600000 0.200000 0.200000 
ce que ||| are than ||| 0.200000 0.200000 0.600000 0.600000 0.200000 0.200000 
ce que ||| than ||| 0.200000 0.200000 0.600000 0.600000 0.200000 0.200000 
ce que ||| what ||| 0.777778 0.037037 0.185185 0.925926 0.037037 0.037037 
ce qui est ||| that which is ||| 0.600000 0.200000 0.200000 0.600000 0.200000 0.200000 
ce qui ||| that which ||| 0.600000 0.200000 0.200000 0.600000 0.200000 0.200000 
ce qui ||| what happens ||| 0.200000 0.200000 0.600000 0.200000 0.200000 0.600000 
ce soit ||| anything ||| 0.600000 0.200000 0.200000 0.600000 0.200000 0.200000 
ce ||| &apos;m ||| 0.200000 0.200000 0.600000 0.600000 0.200000 0.200000 
ce ||| I &apos;m ||| 0.200000 0.200000 0.600000 0.600000 0.200000 0.200000 
ce ||| it ||| 0.600000 0.200000 0.200000 0.600000 0.200000 0.200000 
ce ||| that ||| 0.333333 0.066667 0.600000 0.733333 0.066667 0.200000 
ce ||| this ||| 0.714286 0.047619 0.238095 0.904762 0.047619 0.047619 
ce ||| what ||| 0.703704 0.037037 0.259259 0.777778 0.037037 0.185185 
celui qui ||| the one who ||| 0.714286 0.142857 0.142857 0.714286 0.142857 0.142857 
celui ||| the one ||| 0.714286 0.142857 0.142857 0.714286 0.142857 0.142857 
cette ||| crazy ||| 0.200000 0.200000 0.600000 0.600000 0.200000 0.200000 
cette ||| this crazy ||| 0.200000 0.200000 0.600000 0.600000 0.200000 0.200000 
cette ||| with this crazy ||| 0.600000 0.200000 0.200000 0.600000 0.200000 0.200000 
chocolat ||| chocolate ||| 0.600000 0.200000 0.200000 0.600000 0.200000 0.200000 
chocolat ||| some ||| 0.200000 0.200000 0.600000 0.600000 0.200000 0.200000 
combien ||| do ||| 0.600000 0.200000 0.200000 0.200000 0.200000 0.600000 
combien ||| how ||| 0.600000 0.200000 0.200000 0.600000 0.200000 0.200000 
dans les ||| in the ||| 0.555556 0.111111 0.333333 0.777778 0.111111 0.111111 
dans ||| in ||| 0.932203 0.016949 0.050847 0.966102 0.016949 0.016949 
dans ||| on ||| 0.555556 0.111111 0.333333 0.777778 0.111111 0.111111 
dans ||| over and ||| 0.600000 0.200000 0.200000 0.600000 0.200000 0.200000 
dans ||| over ||| 0.600000 0.200000 0.200000 0.200000 0.200000 0.600000 
de faire ||| of making ||| 0.600000 0.200000 0.200000 0.600000 0.200000 0.200000 
de faire ||| to do ||| 0.600000 0.200000 0.200000 0.600000 0.200000 0.200000 
de faire ||| to make ||| 0.600000 0.200000 0.200000 0.200000 0.200000 0.600000 
de faire ||| to ||| 0.600000 0.200000 0.200000 0.600000 0.200000 0.200000 
de la ||| from life &apos;s ||| 0.200000 0.200000 0.600000 0.600000 0.200000 0.200000 
de la ||| from life ||| 0.200000 0.200000 0.600000 0.200000 0.200000 0.600000 
de la ||| in the ||| 0.600000 0.200000 0.200000 0.600000 0.200000 0.200000 
de la ||| of the ||| 0.714286 0.142857 0.142857 0.714286 0.142857 0.142857 
de la ||| poetry ||| 0.600000 0.200000 0.200000 0.600000 0.200000 0.200000 
de la ||| the ||| 0.714286 0.142857 0.142857 0.714286 0.142857 0.142857 
de sommeil ||| loss ||| 0.600000 0.200000 0.200000 0.600000 0.200000 0.200000 
de ||| &apos; ||| 0.600000 0.200000 0.200000 0.600000 0.200000 0.200000 
de ||| any ||| 0.200000 0.200000 0.600000 0.200000 0.200000 0.600000 
de ||| for ||| 0.714286 0.142857 0.142857 0.714286 0.142857 0.142857 
de ||| from ||| 0.142857 0.142857 0.714286 0.428571 0.142857 0.428571 
de ||| get ||| 0.142857 0.428571 0.428571 0.428571 0.142857 0.428571 
de ||| in ||| 0.777778 0.111111 0.111111 0.777778 0.111111 0.111111 
de ||| many ||| 0.818182 0.090909 0.090909 0.818182 0.090909 0.090909 
de ||| much ||| 0.600000 0.200000 0.200000 0.600000 0.200000 0.200000 
de ||| myself ||| 0.600000 0.200000 0.200000 0.600000 0.200000 0.200000 
de ||| new ||| 0.600000 0.200000 0.200000 0.600000 0.200000 0.200000 
de ||| of ||| 0.952000 0.008000 0.040000 0.968000 0.024000 0.008000 
de ||| than ||| 0.600000 0.200000 0.200000 0.600000 0.200000 0.200000 
de ||| to be ||| 0.200000 0.200000 0.600000 0.200000 0.200000 0.600000 
de ||| to get ||| 0.600000 0.200000 0.200000 0.600000 0.200000 0.200000 
de ||| to spending money on ||| 0.600000 0.200000 0.200000 0.600000 0.200000 0.200000 
de ||| to spending money ||| 0.600000 0.200000 0.200000 0.200000 0.200000 0.600000 
de ||| to spending ||| 0.600000 0.200000 0.200000 0.200000 0.200000 0.600000 
de ||| to ||| 0.770115 0.057471 0.172414 0.701149 0.057471 0.241379 
des ||| be ||| 0.600000 0.200000 0.200000 0.600000 0.200000 0.200000 
des ||| many ||| 0.600000 0.200000 0.200000 0.600000 0.200000 0.200000 
des ||| of ||| 0.846154 0.076923 0.076923 0.846154 0.076923 0.076923 
deux ||| two ||| 0.733333 0.066667 0.200000 0.866667 0.066667 0.066667 
du ||| of ||| 0.600000 0.200000 0.200000 0.600000 0.200000 0.200000 
du ||| the ||| 0.200000 0.200000 0.600000 0.200000 0.200000 0.600000 
déjà ||| already ||| 0.714286 0.142857 0.142857 0.714286 0.142857 0.142857 
déjà ||| ever ||| 0.714286 0.142857 0.142857 0.714286 0.142857 0.142857 
déjà ||| light ||| 0.600000 0.200000 0.200000 0.600000 0.200000 0.200000 
en ||| &apos;t take it ||| 0.200000 0.200000 0.600000 0.200000 0.200000 0.600000 
en ||| &apos;t take ||| 0.200000 0.200000 0.600000 0.200000 0.200000 0.600000 
en ||| as ||| 0.600000 0.200000 0.200000 0.600000 0.200000 0.200000 
en ||| been ||| 0.600000 0.200000 0.200000 0.600000 0.200000 0.200000 
en ||| by ||| 0.600000 0.200000 0.200000 0.600000 0.200000 0.200000 
en ||| in ||| 0.837838 0.027027 0.135135 0.945946 0.027027 0.027027 
en ||| needed ||| 0.600000 0.200000 0.200000 0.600000 0.200000 0.200000 
en ||| on ||| 0.600000 0.200000 0.200000 0.600000 0.200000 0.200000 
en ||| to ||| 0.777778 0.111111 0.111111 0.777778 0.111111 0.111111 
en ||| while ||| 0.600000 0.200000 0.200000 0.600000 0.200000 0.200000 
en ||| you ||| 0.714286 0.142857 0.142857 0.714286 0.142857 0.142857 
entendre ||| hear ||| 0.428571 0.428571 0.142857 0.428571 0.142857 0.428571 
es-tu ||| are you ||| 0.600000 0.200000 0.200000 0.600000 0.200000 0.200000 
es-tu ||| did you ||| 0.714286 0.142857 0.142857 0.714286 0.142857 0.142857 
est assez ||| &apos;s quite ||| 0.600000 0.200000 0.200000 0.600000 0.200000 0.200000 
est assez ||| is rather ||| 0.600000 0.200000 0.200000 0.600000 0.200000 0.200000 
est la ||| &apos;s the ||| 0.714286 0.142857 0.142857 0.714286 0.142857 0.142857 
est la ||| is the only socially ||| 0.600000 0.200000 0.200000 0.600000 0.200000 0.200000 
est la ||| is the ||| 0.846154 0.076923 0.076923 0.846154 0.076923 0.076923 
est le ||| &apos;s the ||| 0.600000 0.200000 0.200000 0.600000 0.200000 0.200000 
est le ||| is the ||| 0.714286 0.142857 0.142857 0.714286 0.142857 0.142857 
est très ||| &apos;s very ||| 0.777778 0.111111 0.111111 0.777778 0.111111 0.111111 
est très ||| is quite ||| 0.600000 0.200000 0.200000 0.600000 0.200000 0.200000 
est un ||| &apos;s a ||| 0.600000 0.200000 0.200000 0.600000 0.200000 0.200000 
est un ||| a ||| 0.200000 0.200000 0.600000 0.600000 0.200000 0.200000 
est un ||| is a ||| 0.862069 0.034483 0.103448 0.931034 0.034483 0.034483 
est ||| &apos;s ||| 0.815126 0.008403 0.176471 0.865546 0.008403 0.126050 
est ||| That &apos;s ||| 0.200000 0.200000 0.600000 0.600000 0.200000 0.200000 
est ||| are here ||| 0.200000 0.200000 0.600000 0.600000 0.200000 0.200000 
est ||| are on ||| 0.600000 0.200000 0.200000 0.600000 0.200000 0.200000 
est ||| are ||| 0.555556 0.111111 0.333333 0.333333 0.111111 0.555556 
est ||| can ||| 0.600000 0.200000 0.200000 0.600000 0.200000 0.200000 
est ||| is Muiriel ||| 0.714286 0.142857 0.142857 0.142857 0.142857 0.714286 
est ||| is up ||| 0.600000 0.200000 0.200000 0.600000 0.200000 0.200000 
est ||| is ||| 0.849057 0.003774 0.147170 0.879245 0.011321 0.109434 
est ||| it is ||| 0.600000 0.200000 0.200000 0.600000 0.200000 0.200000 
est ||| you are here ||| 0.200000 0.200000 0.600000 0.600000 0.200000 0.200000 
est ||| you are ||| 0.200000 0.200000 0.600000 0.200000 0.200000 0.600000 
et ||| and ||| 0.922330 0.009709 0.067961 0.805825 0.009709 0.184466 
et ||| point and ||| 0.600000 0.200000 0.200000 0.200000 0.200000 0.600000 
eu ||| &apos;re ||| 0.200000 0.200000 0.600000 0.200000 0.200000 0.600000 
eu ||| had ||| 0.600000 0.200000 0.200000 0.200000 0.200000 0.600000 
faire ||| do them ||| 0.200000 0.200000 0.600000 0.600000 0.200000 0.200000 
faire ||| do ||| 0.793103 0.034483 0.172414 0.862069 0.034483 0.103448 
faire ||| making ||| 0.600000 0.200000 0.200000 0.600000 0.200000 0.200000 
faire ||| order to do ||| 0.600000 0.200000 0.200000 0.600000 0.200000 0.200000 
faire ||| to do ||| 0.904762 0.047619 0.047619 0.809524 0.047619 0.142857 
faire ||| to make ||| 0.600000 0.200000 0.200000 0.600000 0.200000 0.200000 
faire ||| to ||| 0.200000 0.200000 0.600000 0.600000 0.200000 0.200000 
fais ||| &apos;m doing ||| 0.600000 0.200000 0.200000 0.600000 0.200000 0.200000 
fais ||| &apos;m ||| 0.600000 0.200000 0.200000 0.600000 0.200000 0.200000 
fait ||| &apos;s ||| 0.818182 0.090909 0.090909 0.818182 0.090909 0.090909 
fait ||| a ||| 0.600000 0.200000 0.200000 0.600000 0.200000 0.200000 
fait ||| has been ||| 0.600000 0.200000 0.200000 0.600000 0.200000 0.200000 
fait ||| has ||| 0.600000 0.200000 0.200000 0.200000 0.200000 0.600000 
fait ||| is ||| 0.600000 0.200000 0.200000 0.600000 0.200000 0.200000 
fera ||| will get ||| 0.200000 0.200000 0.600000 0.200000 0.600000 0.200000 
fera ||| will ||| 0.200000 0.200000 0.600000 0.200000 0.200000 0.600000 
fin ||| astute ||| 0.600000 0.200000 0.200000 0.600000 0.200000 0.200000 
fin ||| end ||| 0.600000 0.200000 0.200000 0.600000 0.200000 0.200000 
finir ||| end ||| 0.200000 0.200000 0.600000 0.600000 0.200000 0.200000 
finir ||| finish ||| 0.600000 0.200000 0.200000 0.600000 0.200000 0.200000 
finir ||| to end ||| 0.200000 0.200000 0.600000 0.600000 0.200000 0.200000 
fois ||| once ||| 0.600000 0.200000 0.200000 0.600000 0.200000 0.200000 
fois ||| time ||| 0.600000 0.200000 0.200000 0.200000 0.200000 0.600000 
fou de ||| beside myself ||| 0.600000 0.200000 0.200000 0.600000 0.200000 0.200000 
fou ||| beside ||| 0.600000 0.200000 0.200000 0.600000 0.200000 0.200000 
fou ||| crazy ||| 0.555556 0.111111 0.333333 0.777778 0.111111 0.111111 
frère ||| brother ||| 0.714286 0.142857 0.142857 0.714286 0.142857 0.142857 
genre ||| sort ||| 0.600000 0.200000 0.200000 0.600000 0.200000 0.200000 
histoire ||| story ||| 0.777778 0.111111 0.111111 0.555556 0.111111 0.333333 
il y a une ||| there &apos;s a ||| 0.714286 0.142857 0.142857 0.714286 0.142857 0.142857 
il y a une ||| there a ||| 0.200000 0.200000 0.600000 0.600000 0.200000 0.200000 
il y a ||| there &apos;s ||| 0.866667 0.066667 0.066667 0.866667 0.066667 0.066667 
il y a ||| there are a ||| 0.600000 0.200000 0.200000 0.600000 0.200000 0.200000 
il y a ||| there is ||| 0.777778 0.111111 0.111111 0.777778 0.111111 0.111111 
il y a ||| there ||| 0.200000 0.200000 0.600000 0.600000 0.200000 0.200000 
il y ||| there ||| 0.600000 0.200000 0.200000 0.200000 0.200000 0.600000 
il ||| he ||| 0.830986 0.014085 0.154930 0.802817 0.014085 0.183099 
il ||| it ||| 0.846154 0.076923 0.076923 0.692308 0.076923 0.230769 
il ||| needed to ||| 0.200000 0.200000 0.600000 0.200000 0.200000 0.600000 
il ||| needed ||| 0.200000 0.200000 0.600000 0.200000 0.200000 0.600000 
il ||| out he ||| 0.200000 0.200000 0.600000 0.600000 0.200000 0.200000 
il ||| there ||| 0.555556 0.111111 0.333333 0.333333 0.111111 0.555556 
intéressante ||| interesting ||| 0.600000 0.200000 0.200000 0.600000 0.200000 0.200000 
jamais ||| ever ||| 0.714286 0.142857 0.142857 0.714286 0.142857 0.142857 
jamais ||| never ||| 0.600000 0.066667 0.333333 0.466667 0.466667 0.066667 
je ne peux pas ||| I can &apos;t ||| 0.714286 0.142857 0.142857 0.714286 0.142857 0.142857 
je ne peux ||| I can ||| 0.714286 0.142857 0.142857 0.714286 0.142857 0.142857 
je ne ||| I don ||| 0.529412 0.058824 0.411765 0.058824 0.058824 0.882353 
je ne ||| I wouldn ||| 0.600000 0.200000 0.200000 0.200000 0.200000 0.600000 
je suis ||| I &apos;m ||| 0.894737 0.052632 0.052632 0.894737 0.052632 0.052632 
je suis ||| I am ||| 0.882353 0.058824 0.058824 0.882353 0.058824 0.058824 
je ||| I &apos;ve wanted ||| 0.200000 0.200000 0.600000 0.200000 0.200000 0.600000 
je ||| I &apos;ve ||| 0.200000 0.200000 0.600000 0.200000 0.200000 0.600000 
je ||| I ||| 0.870270 0.016216 0.113514 0.848649 0.005405 0.145946 
je ||| some ||| 0.200000 0.200000 0.600000 0.200000 0.200000 0.600000 
je ||| then I ||| 0.600000 0.200000 0.200000 0.600000 0.200000 0.200000 
jour ||| day ||| 0.866667 0.066667 0.066667 0.466667 0.066667 0.466667 
jour ||| fall out ||| 0.200000 0.200000 0.600000 0.600000 0.200000 0.200000 
jour ||| out ||| 0.428571 0.142857 0.428571 0.714286 0.142857 0.142857 
la fin ||| the end ||| 0.600000 0.200000 0.200000 0.600000 0.200000 0.200000 
la lune ||| the moon ||| 0.600000 0.200000 0.200000 0.600000 0.200000 0.200000 
la nuit ||| the night ||| 0.600000 0.200000 0.200000 0.600000 0.200000 0.200000 
la vie ||| life &apos;s problems ||| 0.600000 0.200000 0.200000 0.600000 0.200000 0.200000 
la vie ||| life ||| 0.692308 0.230769 0.076923 0.538462 0.076923 0.384615 
la ||| I use the computer ||| 0.200000 0.200000 0.600000 0.200000 0.200000 0.600000 
la ||| I use the ||| 0.200000 0.200000 0.600000 0.200000 0.200000 0.600000 
la ||| last ||| 0.600000 0.200000 0.200000 0.600000 0.200000 0.200000 
la ||| life &apos;s ||| 0.600000 0.200000 0.200000 0.600000 0.200000 0.200000 
la ||| life ||| 0.600000 0.200000 0.200000 0.200000 0.200000 0.600000 
la ||| my ||| 0.714286 0.142857 0.142857 0.714286 0.142857 0.142857 
la ||| the computer ||| 0.200000 0.200000 0.600000 0.200000 0.200000 0.600000 
la ||| the only socially ||| 0.600000 0.200000 0.200000 0.600000 0.200000 0.200000 
la ||| the ||| 0.868263 0.005988 0.125749 0.952096 0.005988 0.041916 
la ||| urban ||| 0.600000 0.200000 0.200000 0.600000 0.200000 0.200000 
la ||| use the computer ||| 0.200000 0.200000 0.600000 0.200000 0.200000 0.600000 
la ||| use the ||| 0.200000 0.200000 0.600000 0.200000 0.200000 0.600000 
la ||| use ||| 0.600000 0.200000 0.200000 0.600000 0.200000 0.200000 
la ||| your ||| 0.777778 0.111111 0.111111 0.777778 0.111111 0.111111 
laisser ||| a ||| 0.600000 0.200000 0.200000 0.600000 0.200000 0.200000 
le ||| ask what the ||| 0.200000 0.200000 0.600000 0.600000 0.200000 0.200000 
le ||| it ||| 0.142857 0.142857 0.714286 0.142857 0.142857 0.714286 
le ||| the ||| 0.911504 0.026549 0.061947 0.964602 0.008850 0.026549 
le ||| what the ||| 0.200000 0.200000 0.600000 0.600000 0.200000 0.200000 
lecteur ||| reader ||| 0.600000 0.200000 0.200000 0.600000 0.200000 0.200000 
les hommes ||| men ||| 0.600000 0.200000 0.200000 0.600000 0.200000 0.200000 
les ||| &apos;ll ||| 0.600000 0.200000 0.200000 0.600000 0.200000 0.200000 
les ||| be the ||| 0.200000 0.200000 0.600000 0.600000 0.200000 0.200000 
les ||| have the ||| 0.600000 0.200000 0.200000 0.600000 0.200000 0.200000 
les ||| important ||| 0.714286 0.142857 0.142857 0.714286 0.142857 0.142857 
les ||| music ||| 0.200000 0.200000 0.600000 0.200000 0.200000 0.600000 
les ||| people ||| 0.200000 0.600000 0.200000 0.200000 0.200000 0.600000 
les ||| sent ||| 0.600000 0.200000 0.200000 0.600000 0.200000 0.200000 
les ||| summer ||| 0.600000 0.200000 0.200000 0.600000 0.200000 0.200000 
les ||| the United ||| 0.600000 0.200000 0.200000 0.600000 0.200000 0.200000 
les ||| the ||| 0.898734 0.012658 0.088608 0.949367 0.012658 0.037975 
les ||| to be the ||| 0.600000 0.200000 0.200000 0.600000 0.200000 0.200000 
lune ||| moon ||| 0.600000 0.200000 0.200000 0.600000 0.200000 0.200000 
lunettes ||| glasses ||| 0.600000 0.200000 0.200000 0.600000 0.200000 0.200000 
mais je suis ||| but I am ||| 0.714286 0.142857 0.142857 0.714286 0.142857 0.142857 
mais je ||| but I ||| 0.846154 0.076923 0.076923 0.846154 0.076923 0.076923 
mais je ||| but then I ||| 0.600000 0.200000 0.200000 0.600000 0.200000 0.200000 
mais ||| but then ||| 0.600000 0.200000 0.200000 0.600000 0.200000 0.200000 
mais ||| but ||| 0.894737 0.017544 0.087719 0.859649 0.017544 0.122807 
mal ||| a hard time ||| 0.200000 0.200000 0.600000 0.200000 0.200000 0.600000 
mal ||| a hard ||| 0.200000 0.200000 0.600000 0.200000 0.200000 0.600000 
mal ||| a ||| 0.555556 0.111111 0.333333 0.555556 0.111111 0.333333 
mal ||| bad ||| 0.600000 0.200000 0.200000 0.600000 0.200000 0.200000 
mangeant ||| eating ||| 0.600000 0.200000 0.200000 0.600000 0.200000 0.200000 
manger ||| eat ||| 0.600000 0.200000 0.200000 0.600000 0.200000 0.200000 
manger ||| eating ||| 0.600000 0.200000 0.200000 0.600000 0.200000 0.200000 
mangé ||| eaten ||| 0.600000 0.200000 0.200000 0.600000 0.200000 0.200000 
me ||| &apos;m ||| 0.600000 0.200000 0.200000 0.600000 0.200000 0.200000 
me ||| &apos;ve ||| 0.600000 0.200000 0.200000 0.200000 0.200000 0.600000 
me ||| got ||| 0.600000 0.200000 0.200000 0.600000 0.200000 0.200000 
me ||| me ||| 0.172414 0.448276 0.379310 0.172414 0.034483 0.793103 
mes ||| machines over my ||| 0.600000 0.200000 0.200000 0.600000 0.200000 0.200000 
mes ||| my ||| 0.647059 0.058824 0.294118 0.882353 0.058824 0.058824 
mes ||| over my ||| 0.200000 0.200000 0.600000 0.600000 0.200000 0.200000 
moins ||| least ||| 0.714286 0.142857 0.142857 0.714286 0.142857 0.142857 
mon ||| my ||| 0.754386 0.017544 0.228070 0.964912 0.017544 0.017544 
ne peux pas ||| can &apos;t ||| 0.894737 0.052632 0.052632 0.894737 0.052632 0.052632 
ne peux ||| can ||| 0.913043 0.043478 0.043478 0.826087 0.043478 0.130435 
ne sais pas ||| cannot ||| 0.600000 0.200000 0.200000 0.600000 0.200000 0.200000 
ne sais pas ||| don &apos;t know ||| 0.866667 0.066667 0.066667 0.866667 0.066667 0.066667 
ne sais ||| cannot ||| 0.600000 0.200000 0.200000 0.200000 0.200000 0.600000 
ne sais ||| don &apos;t know ||| 0.600000 0.200000 0.200000 0.200000 0.200000 0.600000 
ne ||| aren ||| 0.200000 0.200000 0.600000 0.200000 0.200000 0.600000 
ne ||| can ||| 0.777778 0.111111 0.111111 0.111111 0.111111 0.777778 
ne ||| did ||| 0.600000 0.200000 0.200000 0.200000 0.200000 0.600000 
ne ||| didn &apos;t ||| 0.600000 0.200000 0.200000 0.600000 0.200000 0.200000 
ne ||| didn ||| 0.600000 0.200000 0.200000 0.200000 0.200000 0.600000 
ne ||| doesn ||| 0.764706 0.058824 0.176471 0.058824 0.058824 0.882353 
ne ||| don ||| 0.858268 0.023622 0.118110 0.039370 0.007874 0.952756 
ne ||| not tell anyone ||| 0.200000 0.600000 0.200000 0.200000 0.200000 0.600000 
ne ||| not tell ||| 0.200000 0.600000 0.200000 0.200000 0.200000 0.600000 
ne ||| not ||| 0.142857 0.714286 0.142857 0.142857 0.142857 0.714286 
ne ||| one ||| 0.714286 0.142857 0.142857 0.714286 0.142857 0.142857 
ne ||| only ||| 0.555556 0.333333 0.111111 0.555556 0.111111 0.333333 
ne ||| things aren ||| 0.600000 0.200000 0.200000 0.200000 0.200000 0.600000 
ne ||| won ||| 0.777778 0.111111 0.111111 0.111111 0.111111 0.777778 
ne ||| wouldn ||| 0.600000 0.200000 0.200000 0.200000 0.200000 0.600000 
notre vie ||| our lives ||| 0.600000 0.200000 0.200000 0.600000 0.200000 0.200000 
notre ||| our ||| 0.866667 0.066667 0.066667 0.866667 0.066667 0.066667 
nous ||| us ||| 0.272727 0.454545 0.272727 0.636364 0.090909 0.272727 
nous ||| we will have to ||| 0.200000 0.200000 0.600000 0.600000 0.200000 0.200000 
nous ||| we will have ||| 0.200000 0.200000 0.600000 0.200000 0.200000 0.600000 
nous ||| we will ||| 0.200000 0.200000 0.600000 0.200000 0.200000 0.600000 
nous ||| we ||| 0.548387 0.096774 0.354839 0.741935 0.032258 0.225806 
nouvel ||| new ||| 0.600000 0.200000 0.200000 0.600000 0.200000 0.200000 
nuit ||| night ||| 0.777778 0.111111 0.111111 0.777778 0.111111 0.111111 
on ne ||| you don ||| 0.600000 0.200000 0.200000 0.200000 0.200000 0.600000 
on ||| we ||| 0.333333 0.047619 0.619048 0.619048 0.047619 0.333333 
on ||| who you ||| 0.200000 0.200000 0.600000 0.600000 0.200000 0.200000 
on ||| you will be ||| 0.200000 0.200000 0.600000 0.200000 0.200000 0.600000 
on ||| you will ||| 0.200000 0.200000 0.600000 0.200000 0.200000 0.600000 
on ||| you ||| 0.796610 0.050847 0.152542 0.864407 0.016949 0.118644 
parce que ||| because ||| 0.904762 0.047619 0.047619 0.904762 0.047619 0.047619 
parce ||| because ||| 0.600000 0.200000 0.200000 0.600000 0.200000 0.200000 
partir ||| go on a ||| 0.600000 0.200000 0.200000 0.600000 0.200000 0.200000 
pas de ||| &apos;t ||| 0.200000 0.200000 0.600000 0.200000 0.600000 0.200000 
pas de ||| Don &apos;t ||| 0.200000 0.200000 0.600000 0.200000 0.600000 0.200000 
pas ||| &apos;t have ||| 0.200000 0.200000 0.600000 0.600000 0.200000 0.200000 
pas ||| &apos;t know ||| 0.200000 0.200000 0.600000 0.600000 0.200000 0.200000 
pas ||| &apos;t you ||| 0.200000 0.200000 0.600000 0.200000 0.600000 0.200000 
pas ||| &apos;t ||| 0.363322 0.003460 0.633218 0.231834 0.591696 0.176471 
pas ||| Don &apos;t ||| 0.200000 0.200000 0.600000 0.200000 0.600000 0.200000 
pas ||| don &apos;t have ||| 0.600000 0.200000 0.200000 0.600000 0.200000 0.200000 
pas ||| don &apos;t ||| 0.600000 0.200000 0.200000 0.200000 0.200000 0.600000 
pas ||| no ||| 0.600000 0.200000 0.200000 0.200000 0.200000 0.600000 
pas ||| not changed ||| 0.600000 0.200000 0.200000 0.200000 0.200000 0.600000 
pas ||| not much of ||| 0.600000 0.200000 0.200000 0.600000 0.200000 0.200000 
pas ||| not much ||| 0.600000 0.200000 0.200000 0.200000 0.200000 0.600000 
pas ||| not to ||| 0.714286 0.142857 0.142857 0.714286 0.142857 0.142857 
pas ||| not ||| 0.858824 0.011765 0.129412 0.670588 0.152941 0.176471 
pense ||| think ||| 0.200000 0.600000 0.200000 0.200000 0.200000 0.600000 
penses ||| think ||| 0.200000 0.200000 0.600000 0.200000 0.200000 0.600000 
personne ||| anyone ||| 0.600000 0.200000 0.200000 0.600000 0.200000 0.200000 
personne ||| no ||| 0.600000 0.200000 0.200000 0.600000 0.200000 0.200000 
personne ||| person whom ||| 0.600000 0.200000 0.200000 0.200000 0.200000 0.600000 
personne ||| person ||| 0.600000 0.200000 0.200000 0.600000 0.200000 0.200000 
peux pas ||| can &apos;t ||| 0.600000 0.200000 0.200000 0.600000 0.200000 0.200000 
peux ||| can ||| 0.760000 0.040000 0.200000 0.600000 0.200000 0.200000 
peux ||| could ||| 0.600000 0.200000 0.200000 0.600000 0.200000 0.200000 
pire ||| worst ||| 0.714286 0.142857 0.142857 0.714286 0.142857 0.142857 
plus ||| anymore ||| 0.111111 0.111111 0.777778 0.555556 0.111111 0.333333 
plus ||| greater ||| 0.200000 0.200000 0.600000 0.600000 0.200000 0.200000 
plus ||| is greater ||| 0.600000 0.200000 0.200000 0.600000 0.200000 0.200000 
plus ||| it anymore ||| 0.200000 0.200000 0.600000 0.600000 0.200000 0.200000 
plus ||| more ||| 0.760000 0.040000 0.200000 0.680000 0.120000 0.200000 
plus ||| most ||| 0.714286 0.142857 0.142857 0.714286 0.142857 0.142857 
plus ||| one more ||| 0.200000 0.200000 0.600000 0.200000 0.200000 0.600000 
plus ||| you anymore ||| 0.600000 0.200000 0.200000 0.600000 0.200000 0.200000 
point ||| foolish ||| 0.600000 0.200000 0.200000 0.600000 0.200000 0.200000 
pour ||| care for ||| 0.200000 0.200000 0.600000 0.600000 0.200000 0.200000 
pour ||| for who ||| 0.200000 0.200000 0.600000 0.200000 0.200000 0.600000 
pour ||| for ||| 0.818182 0.038961 0.142857 0.922078 0.038961 0.038961 
pour ||| here to ||| 0.600000 0.200000 0.200000 0.600000 0.200000 0.200000 
pour ||| to ||| 0.803279 0.016393 0.180328 0.836066 0.016393 0.147541 
pourquoi ||| why ||| 0.200000 0.200000 0.600000 0.600000 0.200000 0.200000 
probablement ||| probably ||| 0.714286 0.142857 0.142857 0.428571 0.428571 0.142857 
quand on ||| when we ||| 0.600000 0.200000 0.200000 0.600000 0.200000 0.200000 
quand on ||| when you ||| 0.714286 0.142857 0.142857 0.714286 0.142857 0.142857 
quand ||| it when ||| 0.200000 0.200000 0.600000 0.600000 0.200000 0.200000 
quand ||| me when ||| 0.200000 0.200000 0.600000 0.600000 0.200000 0.200000 
quand ||| when ||| 0.783784 0.027027 0.189189 0.945946 0.027027 0.027027 
que je ||| I ||| 0.529412 0.176471 0.294118 0.647059 0.058824 0.294118 
que je ||| that I ||| 0.809524 0.047619 0.142857 0.809524 0.047619 0.142857 
que la ||| just the ||| 0.600000 0.200000 0.200000 0.600000 0.200000 0.200000 
que la ||| than the ||| 0.714286 0.142857 0.142857 0.714286 0.142857 0.142857 
que la ||| that the ||| 0.600000 0.200000 0.200000 0.600000 0.200000 0.200000 
que la ||| the ||| 0.600000 0.200000 0.200000 0.600000 0.200000 0.200000 
que mon ||| my ||| 0.600000 0.200000 0.200000 0.600000 0.200000 0.200000 
que notre ||| that our ||| 0.600000 0.200000 0.200000 0.600000 0.200000 0.200000 
que tu ||| that you ||| 0.714286 0.142857 0.142857 0.714286 0.142857 0.142857 
que tu ||| you ||| 0.872340 0.021277 0.106383 0.829787 0.063830 0.106383 
que vous ||| you ||| 0.846154 0.076923 0.076923 0.846154 0.076923 0.076923 
que ||| , since ||| 0.200000 0.200000 0.600000 0.600000 0.200000 0.200000 
que ||| are than ||| 0.200000 0.200000 0.600000 0.600000 0.200000 0.200000 
que ||| at understanding &quot; ||| 0.200000 0.200000 0.600000 0.600000 0.200000 0.200000 
que ||| at understanding ||| 0.200000 0.200000 0.600000 0.200000 0.200000 0.600000 
que ||| good at understanding &quot; ||| 0.200000 0.200000 0.600000 0.600000 0.200000 0.200000 
que ||| good at understanding ||| 0.200000 0.200000 0.600000 0.200000 0.200000 0.600000 
que ||| it , since ||| 0.600000 0.200000 0.200000 0.600000 0.200000 0.200000 
que ||| just ||| 0.600000 0.200000 0.200000 0.600000 0.200000 0.200000 
que ||| only be ||| 0.600000 0.200000 0.200000 0.600000 0.200000 0.200000 
que ||| only ||| 0.714286 0.142857 0.142857 0.428571 0.142857 0.428571 
que ||| since ||| 0.200000 0.200000 0.600000 0.600000 0.200000 0.200000 
que ||| than ||| 0.789474 0.052632 0.157895 0.894737 0.052632 0.052632 
que ||| that ||| 0.922078 0.012987 0.064935 0.896104 0.012987 0.090909 
que ||| understanding &quot; ||| 0.200000 0.200000 0.600000 0.600000 0.200000 0.200000 
que ||| understanding ||| 0.200000 0.200000 0.600000 0.200000 0.200000 0.600000 
que ||| what ||| 0.600000 0.200000 0.200000 0.600000 0.200000 0.200000 
que ||| you are ||| 0.200000 0.200000 0.600000 0.200000 0.200000 0.600000 
que ||| you ||| 0.200000 0.200000 0.600000 0.200000 0.200000 0.600000 
quel est ||| is ||| 0.200000 0.200000 0.600000 0.200000 0.200000 0.600000 
qui est ||| that is ||| 0.714286 0.142857 0.142857 0.428571 0.142857 0.428571 
qui est ||| which is ||| 0.600000 0.200000 0.200000 0.600000 0.200000 0.200000 
qui est ||| who is ||| 0.600000 0.200000 0.200000 0.600000 0.200000 0.200000 
qui ||| happens ||| 0.600000 0.200000 0.200000 0.200000 0.200000 0.600000 
qui ||| that ||| 0.866667 0.066667 0.066667 0.866667 0.066667 0.066667 
qui ||| which ||| 0.777778 0.111111 0.111111 0.555556 0.111111 0.333333 
qui ||| who ||| 0.924528 0.018868 0.056604 0.924528 0.018868 0.056604 
quoi ||| are ||| 0.818182 0.090909 0.090909 0.818182 0.090909 0.090909 
quoi ||| do ||| 0.600000 0.200000 0.200000 0.600000 0.200000 0.200000 
quoi ||| what to ||| 0.142857 0.142857 0.714286 0.714286 0.142857 0.142857 
quoi ||| what ||| 0.333333 0.066667 0.600000 0.600000 0.066667 0.333333 
quoi ||| whatever ||| 0.600000 0.200000 0.200000 0.600000 0.200000 0.200000 
rien ||| &apos;t ||| 0.200000 0.200000 0.600000 0.600000 0.200000 0.200000 
rien ||| nothing more than ||| 0.600000 0.200000 0.200000 0.200000 0.200000 0.600000 
rien ||| nothing more ||| 0.600000 0.200000 0.200000 0.200000 0.200000 0.600000 
rien ||| nothing ||| 0.692308 0.076923 0.230769 0.692308 0.076923 0.230769 
réponse ||| answer ||| 0.818182 0.090909 0.090909 0.818182 0.090909 0.090909 
sa ||| his ||| 0.684211 0.052632 0.263158 0.684211 0.052632 0.263158 
sa ||| loud ||| 0.600000 0.200000 0.200000 0.600000 0.200000 0.200000 
sais pas ||| &apos;t know ||| 0.866667 0.066667 0.066667 0.866667 0.066667 0.066667 
sais ||| &apos;t know ||| 0.600000 0.200000 0.200000 0.200000 0.200000 0.600000 
sais ||| knew ||| 0.600000 0.200000 0.200000 0.600000 0.200000 0.200000 
sais ||| know ||| 0.052632 0.684211 0.263158 0.052632 0.052632 0.894737 
sans ||| be without ||| 0.600000 0.200000 0.200000 0.600000 0.200000 0.200000 
sans ||| without ||| 0.741935 0.032258 0.225806 0.870968 0.032258 0.096774 
serait ||| would be ||| 0.600000 0.200000 0.200000 0.600000 0.200000 0.200000 
serait ||| would ||| 0.846154 0.076923 0.076923 0.692308 0.076923 0.230769 
ses ||| anyone his ||| 0.200000 0.200000 0.600000 0.600000 0.200000 0.200000 
ses ||| dreams ||| 0.600000 0.200000 0.200000 0.600000 0.200000 0.200000 
ses ||| her ||| 0.714286 0.142857 0.142857 0.714286 0.142857 0.142857 
ses ||| his ||| 0.696970 0.030303 0.272727 0.939394 0.030303 0.030303 
ses ||| tell anyone his ||| 0.200000 0.200000 0.600000 0.600000 0.200000 0.200000 
ses ||| the ||| 0.600000 0.200000 0.200000 0.600000 0.200000 0.200000 
soit ||| may ||| 0.600000 0.200000 0.200000 0.200000 0.200000 0.600000 
sommeil ||| loss ||| 0.200000 0.200000 0.600000 0.600000 0.200000 0.200000 
sommeil ||| sleep ||| 0.714286 0.142857 0.142857 0.714286 0.142857 0.142857 
son ||| his ||| 0.684211 0.157895 0.157895 0.894737 0.052632 0.052632 
son ||| its ||| 0.714286 0.142857 0.142857 0.714286 0.142857 0.142857 
son ||| your ||| 0.714286 0.142857 0.142857 0.714286 0.142857 0.142857 
sont les ||| are the ||| 0.428571 0.142857 0.428571 0.428571 0.142857 0.428571 
sont ||| are ||| 0.829787 0.021277 0.148936 0.872340 0.021277 0.106383 
sont ||| is ||| 0.200000 0.200000 0.600000 0.200000 0.200000 0.600000 
suis fou de ||| &apos;m beside myself ||| 0.600000 0.200000 0.200000 0.600000 0.200000 0.200000 
suis fou ||| &apos;m beside ||| 0.600000 0.200000 0.200000 0.600000 0.200000 0.200000 
suis fou ||| &apos;m crazy ||| 0.600000 0.200000 0.200000 0.600000 0.200000 0.200000 
suis ||| &apos;m ||| 0.891892 0.027027 0.081081 0.891892 0.081081 0.027027 
suis ||| am ||| 0.931034 0.034483 0.034483 0.931034 0.034483 0.034483 
suite ||| soon ||| 0.600000 0.200000 0.200000 0.600000 0.200000 0.200000 
suppose que ||| suppose that ||| 0.600000 0.200000 0.200000 0.600000 0.200000 0.200000 
suppose que ||| suppose ||| 0.714286 0.142857 0.142857 0.714286 0.142857 0.142857 
suppose ||| suppose ||| 0.600000 0.200000 0.200000 0.600000 0.200000 0.200000 
sur le ||| about the ||| 0.600000 0.200000 0.200000 0.600000 0.200000 0.200000 
sur le ||| on the ||| 0.600000 0.200000 0.200000 0.600000 0.200000 0.200000 
sur ||| about ||| 0.636364 0.090909 0.272727 0.636364 0.090909 0.272727 
sur ||| in ||| 0.714286 0.142857 0.142857 0.714286 0.142857 0.142857 
sur ||| on ||| 0.904762 0.047619 0.047619 0.809524 0.047619 0.142857 
te ||| correct ||| 0.200000 0.200000 0.600000 0.600000 0.200000 0.200000 
te ||| tell you ||| 0.200000 0.600000 0.200000 0.200000 0.200000 0.600000 
te ||| to ||| 0.428571 0.142857 0.428571 0.428571 0.428571 0.142857 
te ||| you ||| 0.111111 0.333333 0.555556 0.333333 0.111111 0.555556 
toujours ||| always ||| 0.600000 0.022222 0.377778 0.511111 0.244444 0.244444 
toujours ||| still ||| 0.142857 0.142857 0.714286 0.428571 0.428571 0.142857 
toujours ||| you still ||| 0.200000 0.200000 0.600000 0.600000 0.200000 0.200000 
trop ||| lot ||| 0.600000 0.200000 0.200000 0.600000 0.200000 0.200000 
trop ||| so ||| 0.777778 0.111111 0.111111 0.777778 0.111111 0.111111 
trop ||| too much ||| 0.600000 0.200000 0.200000 0.600000 0.200000 0.200000 
trop ||| too ||| 0.854545 0.018182 0.127273 0.927273 0.018182 0.054545 
très ||| It is very ||| 0.200000 0.200000 0.600000 0.200000 0.200000 0.600000 
très ||| is very ||| 0.200000 0.200000 0.600000 0.200000 0.200000 0.600000 
très ||| pretty ||| 0.600000 0.200000 0.200000 0.600000 0.200000 0.200000 
très ||| quite ||| 0.714286 0.142857 0.142857 0.714286 0.142857 0.142857 
très ||| very ||| 0.714286 0.047619 0.238095 0.809524 0.047619 0.142857 
tu peux ||| you can ||| 0.600000 0.200000 0.200000 0.600000 0.200000 0.200000 
tu peux ||| you could ||| 0.600000 0.200000 0.200000 0.600000 0.200000 0.200000 
tu ||| you sent to me ||| 0.200000 0.200000 0.600000 0.200000 0.200000 0.600000 
tu ||| you sent to ||| 0.200000 0.200000 0.600000 0.200000 0.200000 0.600000 
tu ||| you sent ||| 0.200000 0.200000 0.600000 0.200000 0.200000 0.600000 
tu ||| you think ||| 0.600000 0.200000 0.200000 0.200000 0.200000 0.600000 
tu ||| you ||| 0.870130 0.038961 0.090909 0.792208 0.038961 0.168831 
tête ||| mind ||| 0.714286 0.142857 0.142857 0.714286 0.142857 0.142857 
un nouvel ||| a new ||| 0.600000 0.200000 0.200000 0.600000 0.200000 0.200000 
un ||| a lot ||| 0.200000 0.200000 0.600000 0.200000 0.200000 0.600000 
un ||| a ||| 0.843575 0.016760 0.139665 0.944134 0.005587 0.050279 
un ||| an ||| 0.925926 0.037037 0.037037 0.703704 0.111111 0.185185 
un ||| more than a ||| 0.200000 0.200000 0.600000 0.200000 0.200000 0.600000 
un ||| much of a ||| 0.600000 0.200000 0.200000 0.600000 0.200000 0.200000 
un ||| of a ||| 0.200000 0.200000 0.600000 0.600000 0.200000 0.200000 
un ||| one ||| 0.200000 0.200000 0.600000 0.600000 0.200000 0.200000 
un ||| prison ||| 0.200000 0.600000 0.200000 0.200000 0.200000 0.600000 
un ||| than a ||| 0.200000 0.200000 0.600000 0.200000 0.200000 0.600000 
un ||| to a ||| 0.600000 0.200000 0.200000 0.600000 0.200000 0.200000 
un ||| wrong ||| 0.200000 0.200000 0.600000 0.600000 0.200000 0.200000 
une ||| a whole ||| 0.600000 0.200000 0.200000 0.600000 0.200000 0.200000 
une ||| a ||| 0.853211 0.045872 0.100917 0.944954 0.009174 0.045872 
une ||| an ||| 0.882353 0.058824 0.058824 0.882353 0.058824 0.058824 
une ||| any ||| 0.200000 0.200000 0.600000 0.600000 0.200000 0.200000 
une ||| have any ||| 0.600000 0.200000 0.200000 0.600000 0.200000 0.200000 
une ||| musical ||| 0.600000 0.200000 0.200000 0.600000 0.200000 0.200000 
une ||| one ||| 0.600000 0.200000 0.200000 0.600000 0.200000 0.200000 
une ||| such a ||| 0.200000 0.600000 0.200000 0.600000 0.200000 0.200000 
vais ||| &apos;m going to ||| 0.600000 0.200000 0.200000 0.600000 0.200000 0.200000 
vais ||| &apos;m going ||| 0.714286 0.142857 0.142857 0.428571 0.142857 0.428571 
vais ||| &apos;m gonna ||| 0.818182 0.090909 0.090909 0.818182 0.090909 0.090909 
vais ||| &apos;m out ||| 0.200000 0.200000 0.600000 0.600000 0.200000 0.200000 
vais ||| go ||| 0.600000 0.200000 0.200000 0.200000 0.200000 0.600000 
veux un ||| want a ||| 0.777778 0.111111 0.111111 0.777778 0.111111 0.111111 
veux ||| want to ||| 0.310345 0.655172 0.034483 0.310345 0.034483 0.655172 
veux ||| want ||| 0.361702 0.574468 0.063830 0.191489 0.021277 0.787234 
vie ||| &apos;s problems ||| 0.600000 0.200000 0.200000 0.600000 0.200000 0.200000 
vie ||| life ||| 0.707317 0.170732 0.121951 0.658537 0.024390 0.317073 
vie ||| lives ||| 0.714286 0.142857 0.142857 0.714286 0.142857 0.142857 
vie ||| problems ||| 0.200000 0.200000 0.600000 0.600000 0.200000 0.200000 
vient de ||| comes from ||| 0.600000 0.200000 0.200000 0.600000 0.200000 0.200000 
vous fera ||| will get you to ||| 0.600000 0.200000 0.200000 0.600000 0.200000 0.200000 
vous fera ||| will get you ||| 0.600000 0.200000 0.200000 0.200000 0.200000 0.600000 
vous ne ||| you don ||| 0.866667 0.066667 0.066667 0.066667 0.066667 0.866667 
vous ||| get you to ||| 0.200000 0.600000 0.200000 0.200000 0.200000 0.600000 
vous ||| get you ||| 0.200000 0.600000 0.200000 0.200000 0.200000 0.600000 
vous ||| you think about ||| 0.600000 0.200000 0.200000 0.200000 0.200000 0.600000 
vous ||| you think ||| 0.600000 0.200000 0.200000 0.200000 0.200000 0.600000 
vous ||| you to ||| 0.200000 0.200000 0.600000 0.200000 0.200000 0.600000 
vous ||| you ||| 0.878788 0.030303 0.090909 0.818182 0.030303 0.151515 
vraiment ||| much ||| 0.600000 0.200000 0.200000 0.600000 0.200000 0.200000 
vraiment ||| really ||| 0.789474 0.052632 0.157895 0.789474 0.052632 0.157895 
y a ||| &apos;s ||| 0.142857 0.142857 0.714286 0.428571 0.428571 0.142857 
y a ||| are ||| 0.200000 0.200000 0.600000 0.200000 0.200000 0.600000 
y ||| &apos;s ||| 0.142857 0.142857 0.714286 0.142857 0.428571 0.428571 
y ||| about ||| 0.200000 0.200000 0.600000 0.600000 0.200000 0.200000 
y ||| are ||| 0.200000 0.200000 0.600000 0.200000 0.200000 0.600000 
y ||| do ||| 0.714286 0.142857 0.142857 0.714286 0.142857 0.142857 
y ||| gonna ||| 0.600000 0.200000 0.200000 0.600000 0.200000 0.200000 
y ||| including ||| 0.600000 0.200000 0.200000 0.600000 0.200000 0.200000 
y ||| there ||| 0.142857 0.428571 0.428571 0.142857 0.142857 0.714286 
yeux ||| eyes ||| 0.600000 0.200000 0.200000 0.600000 0.200000 0.200000 
À ||| At ||| 0.600000 0.200000 0.200000 0.200000 0.200000 0.600000 
à un ||| , at a ||| 0.600000 0.200000 0.200000 0.600000 0.200000 0.200000 
à un ||| at a ||| 0.200000 0.200000 0.600000 0.600000 0.200000 0.200000 
à ||| , at ||| 0.600000 0.200000 0.200000 0.600000 0.200000 0.200000 
à ||| at ||| 0.636364 0.090909 0.272727 0.818182 0.090909 0.090909 
à ||| be charged for ||| 0.200000 0.200000 0.600000 0.600000 0.200000 0.200000 
à ||| be charged ||| 0.200000 0.200000 0.600000 0.200000 0.200000 0.600000 
à ||| by ||| 0.600000 0.200000 0.200000 0.600000 0.200000 0.200000 
à ||| candy ||| 0.600000 0.200000 0.200000 0.600000 0.200000 0.200000 
à ||| charged for ||| 0.200000 0.200000 0.600000 0.600000 0.200000 0.200000 
à ||| charged ||| 0.200000 0.200000 0.600000 0.200000 0.200000 0.600000 
à ||| drug ||| 0.600000 0.200000 0.200000 0.600000 0.200000 0.200000 
à ||| lottery machines over ||| 0.200000 0.200000 0.600000 0.600000 0.200000 0.200000 
à ||| lottery machines ||| 0.200000 0.200000 0.600000 0.200000 0.200000 0.600000 
à ||| lottery ||| 0.200000 0.200000 0.600000 0.200000 0.200000 0.600000 
à ||| making her ||| 0.200000 0.200000 0.600000 0.200000 0.200000 0.600000 
à ||| making ||| 0.200000 0.200000 0.600000 0.200000 0.200000 0.600000 
à ||| of ||| 0.200000 0.200000 0.600000 0.600000 0.200000 0.200000 
à ||| to ||| 0.886179 0.008130 0.105691 0.869919 0.040650 0.089431 
à ||| told ||| 0.600000 0.200000 0.200000 0.600000 0.200000 0.200000 
à ||| up to ||| 0.600000 0.200000 0.200000 0.600000 0.200000 0.200000 
à ||| up with this ||| 0.600000 0.200000 0.200000 0.600000 0.200000 0.200000 
à ||| up with ||| 0.600000 0.200000 0.200000 0.200000 0.200000 0.600000 
à ||| up ||| 0.600000 0.200000 0.200000 0.200000 0.200000 0.600000 
à ||| will be charged for ||| 0.200000 0.200000 0.600000 0.600000 0.200000 0.200000 
à ||| will be charged ||| 0.200000 0.200000 0.600000 0.200000 0.200000 0.600000 
ça ||| do you mean ||| 0.600000 0.200000 0.200000 0.600000 0.200000 0.200000 
ça ||| it ||| 0.828571 0.028571 0.142857 0.714286 0.028571 0.257143 
ça ||| that ||| 0.777778 0.111111 0.111111 0.777778 0.111111 0.111111 
ça ||| this to ||| 0.600000 0.200000 0.200000 0.600000 0.200000 0.200000 
ça ||| this ||| 0.777778 0.111111 0.111111 0.555556 0.111111 0.333333 
était ||| was ||| 0.906977 0.023256 0.069767 0.906977 0.023256 0.069767 
était ||| wasn ||| 0.600000 0.200000 0.200000 0.600000 0.200000 0.200000 
êtes-vous ||| did you ||| 0.818182 0.090909 0.090909 0.818182 0.090909 0.090909 
