est-ce does 0.7500000
est-ce do 0.0746269
est-ce did 0.0434783
est-ce NULL 0.0073710
est-ce she 0.0666667
est-ce made 0.0769231
est-ce are 0.0465116
est-ce is 0.0056818
est-ce it 0.0192308
est-ce happened 0.2000000
est-ce eat 0.1428571
est-ce keeps 0.1666667
est-ce What 0.0810811
est-ce isn 0.3333333
est-ce &apos;s 0.0227273
est-ce Who 0.2222222
bavard verbose 1.0000000
pertinente the 0.0035088
veuille &apos;d 0.1111111
passeport passport 1.0000000
joueur altruistic 0.5000000
quelle which 0.1176471
vous please 0.1875000
vous trust 0.1250000
vous NULL 0.0024570
vous meet 0.1428571
vous love 0.0476190
vous talk 0.1250000
vous you 0.0802676
vous tell 0.0625000
vous admit 0.5000000
neuf new 0.0909091
neuf were 0.0588235
neuf And 0.1666667
neuf they 0.0294118
Ouvrez Open 0.5000000
universités universities 0.3333333
plaindre complaining 0.6666667
plaindre your 0.0384615
plaindre any 0.1428571
plaindre of 0.0076923
plaindre more 0.0625000
parlé spoken 0.5000000
opinions views 1.0000000
soutirent out 0.0833333
soutirent their 0.0476190
soutirent swindle 1.0000000
terre floor 0.5000000
terre potatoes 0.2500000
Lewinsky Lewinsky 1.0000000
continuer continue 1.0000000
continuer keep 0.2857143
continuer on 0.0243902
continuer continuing 1.0000000
continuer strength 0.5000000
station station 0.3333333
journaux papers 0.5000000
insupportable unbearable 1.0000000
héritier heirless 0.2500000
croire believe 0.4166667
manquez miss 0.1000000
manquez you 0.0033445
vertige heights 1.0000000
vertige scared 0.2500000
vertige am 0.0800000
vertige of 0.0153846
fasse just 0.0400000
fasse Whatever 0.5000000
fasse do 0.0149254
confiance one 0.0434783
confiance trust 0.2500000
confiance Trust 0.5000000
confiance me 0.0125000
confiance another 0.3333333
réveillait tomorrow 0.2000000
réveillait woke 0.2500000
manière acted 0.5000000
manière way 0.0833333
manière drastically 0.2500000
passage secret 0.6666667
éphémère transient 1.0000000
La The 0.1935484
La Liberty 1.0000000
La Democracy 0.5000000
La Class 1.0000000
La Blindness 0.5000000
La Spenser 0.1428571
La Passion 0.5000000
La Life 0.4074074
La Most 0.3333333
La Justice 0.3333333
annoncèrent girls 0.5000000
sa renounce 0.5000000
sa his 0.2580645
sa beliefs 0.2500000
sa caring 0.5000000
sa loud 1.0000000
tenez &apos;t 0.0062893
tenez any 0.1428571
tenez take 0.0625000
avais had 0.0526316
avais swore 0.5000000
avais gave 0.1666667
avais brought 0.3333333
avais was 0.0181818
Sauf Except 1.0000000
temps NULL 0.0024570
temps weather 0.3333333
temps schedule 0.2857143
temps arrive 0.2500000
temps time 0.6296296
temps long 0.3030303
soirée dress 0.3333333
juste to 0.0122324
juste just 0.2800000
comporter behaving 0.5000000
mais Just 0.5000000
mais but 0.8709677
obscures Sherlock 0.3333333
obscures Holmes 0.5000000
tendu lame 0.5000000
tendu ; 0.0384615
sera be 0.0625000
sera exactly 1.0000000
sera will 0.1136364
dirent girls 0.5000000
dirent told 0.0588235
maître teacher 0.2500000
banane pie 1.0000000
musicaux experts 1.0000000
empêcher help 0.5000000
expliqué explained 0.5000000
expliqué at 0.0434783
ma my 0.3484848
ma MY 1.0000000
peuvent dreams 0.2000000
peuvent that 0.0119048
peuvent can 0.0400000
peuvent easily 0.3333333
solution solution 0.5000000
solution no 0.0454545
connait know 0.0344828
règles for 0.0156250
règles rules 1.0000000
pires worst 0.3333333
pires the 0.0035088
inquiet worry 0.5000000
ici here 0.7000000
tiens about 0.0270270
tiens care 0.1111111
Appelle Call 0.5000000
viagra Viagra 1.0000000
lancé launched 1.0000000
réelles visions 1.0000000
réelles real 0.1666667
vivre it 0.0096154
vivre live 0.7692308
vivre place 0.3333333
vivre kind 0.3333333
vivre be 0.0125000
vivre that 0.0119048
pays country 0.5000000
faux testimony 0.3333333
faux false 1.0000000
chemin way 0.2500000
machines the 0.0035088
machines selection 0.2500000
pelouse NULL 0.0024570
bée speechless 1.0000000
déplacé inappropriate 1.0000000
précédente statement 1.0000000
réduite reduced 0.5000000
experts among 0.5000000
Dans When 0.0526316
Dans In 0.6000000
essentielle essential 0.3333333
prononces do 0.0149254
prononces pronounce 0.5000000
phrase phrase 1.0000000
et rectifying 0.2500000
et light 0.1666667
et eight-thirty 0.2500000
et NULL 0.0024570
et self-indulgent 0.3333333
et siblings 0.2500000
et and 0.8928571
sûr you 0.0133779
sûr sure 0.4166667
Jeanne Joan 1.0000000
toujours always 0.9166667
toujours promise 0.5000000
toujours still 0.2307692
Soyons Let 0.1250000
vendeur convicted 0.2000000
On NULL 0.0024570
On past 0.3333333
On Being 0.5000000
On One 0.6000000
On It 0.0476190
On They 0.1666667
On We 0.2857143
On bone 0.3333333
On You 0.0169492
passion creates 0.3333333
passion Passion 0.5000000
miracles miracles 1.0000000
soldats soldiers 1.0000000
Allez Come 1.0000000
Allez on 0.0487805
ressemble is 0.0056818
ressemble like 0.0238095
bague ring 1.0000000
révisions studying 0.3333333
11 eleven 0.5000000
11 September 1.0000000
parfaite just 0.0400000
parfaite defect 0.2000000
parfaite one 0.0434783
vénèrent venerate 1.0000000
Paris Paris 1.0000000
Paris in 0.0114943
Paris study 0.1428571
trouver find 0.3636364
mot fridge 0.2000000
mot word 0.7500000
mot consent 0.5000000
mot password 0.3333333
demanda asked 0.4000000
souvent often 0.8750000
écoutez us 0.1428571
écoutez listen 1.0000000
écoutez to 0.0030581
bruit noise 0.7500000
vif keen 1.0000000
ami boyfriend 0.5000000
rarement rarely 1.0000000
allais show 0.3333333
allais were 0.0588235
crée creates 0.6666667
cœur heart 1.0000000
monarques monarchs 1.0000000
uns contentious 0.3333333
uns with 0.0270270
uns each 0.3333333
bonne right 0.3333333
bonne solution 0.2500000
bonne good 0.0833333
malheureux be 0.0125000
malheureux unhappy 1.0000000
prend takes 0.5000000
prend requires 0.3333333
prend NULL 0.0024570
esthétique aesthetics 1.0000000
esthétique in 0.0114943
avoir be 0.0250000
avoir have 0.0800000
avoir practical 0.3333333
avoir whenever 0.3333333
avoir pranking 0.2000000
avoir resort 0.3333333
avoir educated 0.2500000
avoir having 0.2500000
avoir should 0.0588235
a are 0.0930233
a speaker 0.2500000
a bone 0.3333333
a increased 0.5000000
a influenced 0.2500000
a took 0.3333333
a ran 0.3333333
a NULL 0.0196560
a there 0.0816327
a mention 0.2500000
a told 0.0588235
a sent 0.2500000
a bought 0.5000000
a stole 0.5000000
a &apos;s 0.0833333
a tried 0.2000000
a bite 0.5000000
a is 0.0511364
a disappeared 0.5000000
a has 0.7142857
a almost 0.2500000
a pointless 0.2500000
a audience 0.2500000
a archer 0.3333333
a off 0.3333333
a a 0.0106383
a change 0.2000000
a flawed 0.2500000
a looks 0.2000000
a few 0.3333333
a water 0.3333333
a doesn 0.1818182
a asked 0.3000000
enfin finally 1.0000000
pop thrive 0.3333333
pop artists 0.2500000
apathie apathy 1.0000000
arriver happen 0.1666667
arriver get 0.0588235
arriver make 0.0555556
arriver it 0.0288462
arriver though 0.1250000
ingénieux crafty 1.0000000
as-tu did 0.0869565
as-tu you 0.0100334
investisseurs inexperienced 1.0000000
haut high 0.2000000
sortes types 1.0000000
dit-elle said 0.0769231
dit-elle she 0.0666667
charmant place 0.3333333
charmant lovely 0.3333333
demanda-t-il inquired 1.0000000
brasserie brewery 1.0000000
intentionnellement intentionally 0.4000000
intentionnellement concealing 1.0000000
intentionnellement hide 1.0000000
pour interest 0.3333333
pour defect 0.2000000
pour for 0.5781250
pour enough 0.1666667
pour else 0.1250000
pour wearing 0.2000000
pour to 0.0948012
pour why 0.1666667
pour elected 0.1666667
pour best 0.1250000
pour grades 0.3333333
pour lovely 0.3333333
première wearing 0.2000000
marrant fun 0.5000000
marrant be 0.0125000
levé out 0.0833333
conviennent to 0.0030581
conviennent please 0.0312500
conviennent us 0.1428571
inventé invented 1.0000000
inventé , 0.0044843
rendre realize 0.1666667
cheveux far-fetched 0.2000000
discours speech 0.2000000
réveillerai up 0.0400000
réveillerai will 0.0227273
réveillerai wake 0.2500000
préfère prefers 1.0000000
apparaître except 0.1428571
là there 0.0612245
là here 0.2000000
là lies 0.2500000
là now 0.0833333
là stand 0.2000000
imaginé have 0.0100000
imaginé thought 0.1428571
frapper hit 0.5000000
frapper knock 0.3333333
appétit appetite 1.0000000
réputation notorious 0.3333333
réputation for 0.0156250
réputation reputation 0.3333333
réel real 0.1666667
ou or 0.8181818
transmissible disease 1.0000000
souhaitait wished 1.0000000
marier marry 0.1818182
marier would 0.0277778
marier you 0.0033445
matins morning 0.1666667
envie NULL 0.0024570
envie want 0.1136364
fonctionne that 0.0119048
fonctionne &apos;s 0.0075758
fonctionne working 0.5000000
dépend depends 0.3636364
dépend all 0.0909091
dépend on 0.0731707
Noël Christmas 1.0000000
robots Robots 0.5000000
brièveté brevity 0.5000000
cage den 1.0000000
cage of 0.0076923
traduire a 0.0053191
traduire translating 0.5000000
traduire translate 0.3333333
passe on 0.0487805
passe happens 0.2727273
passe you 0.0100334
passe password 0.3333333
paie pay 1.0000000
mangez-vous you 0.0033445
mangez-vous eat 0.1428571
sciences science 0.5000000
suite sleep 0.0769231
suite soon 0.1428571
devint naturally 0.5000000
contribuables taxpayers 0.5000000
contributeurs contributors 1.0000000
maladie fatal 1.0000000
Malgré Despite 0.5000000
semblerait seems 0.1666667
électronique email 0.1250000
gagnant winner 0.5000000
gagnant the 0.0035088
disaient said 0.0769231
dur harder 0.2500000
anglais English 1.0000000
son your 0.0769231
son sycophants 0.1428571
son his 0.2580645
son its 1.0000000
réalistes face 0.3333333
réalistes it 0.0096154
réalistes &apos;s 0.0075758
Jimmy Jimmy 1.0000000
dix ten 1.0000000
reclus recluse 1.0000000
seras &apos;ll 0.0833333
seras be 0.0125000
consiste being 0.0909091
consiste of 0.0076923
consiste consists 0.5000000
mouchoir tissue 1.0000000
était NULL 0.0024570
était wasn 0.4000000
était pants 0.3333333
était was 0.3818182
était unconvinced 0.3333333
était gone 0.3333333
était weren 0.5000000
draguer hit 0.5000000
draguer on 0.0243902
devraient should 0.1764706
politiciens politicians 0.3333333
politiciens Politicians 0.5000000
NULL much 0.0454545
NULL take 0.0625000
NULL be 0.1125000
NULL have 0.0300000
NULL , 0.0134529
NULL then 0.0909091
NULL &apos;t 0.0125786
NULL in 0.0114943
NULL That 0.0526316
NULL over 0.0666667
NULL money 0.0555556
NULL computer 0.2000000
NULL There 0.0322581
NULL wanted 0.1250000
NULL ask 0.0909091
NULL of 0.0076923
NULL use 0.2500000
NULL find 0.1818182
NULL about 0.0270270
NULL behavior 0.2500000
NULL than 0.0625000
NULL care 0.1111111
NULL a 0.0053191
NULL anyone 0.1111111
NULL go 0.0526316
NULL &apos;ve 0.0833333
NULL sent 0.2500000
NULL who 0.0344828
NULL when 0.0400000
NULL machines 1.0000000
NULL &apos;s 0.0303030
NULL hard 0.3333333
NULL The 0.0161290
NULL . 0.0049140
NULL lot 0.1250000
NULL don 0.0125000
NULL anything 0.0714286
NULL been 0.1666667
NULL out 0.0833333
NULL need 0.0666667
NULL them 0.0476190
NULL are 0.0232558
NULL and 0.0535714
NULL the 0.0105263
NULL to 0.1681957
NULL time 0.0740741
NULL You 0.0338983
NULL fall 0.5000000
NULL there 0.0204082
NULL changed 0.1000000
NULL Don 0.0666667
NULL you 0.0468227
NULL good 0.0833333
NULL on 0.0487805
NULL at 0.0217391
NULL tell 0.1250000
NULL what 0.0156250
NULL single 1.0000000
NULL up 0.0800000
NULL was 0.0181818
NULL think 0.0625000
NULL Muiriel 0.4000000
NULL one 0.0434783
NULL way 0.0833333
NULL get 0.1176471
NULL &quot; 0.0119760
NULL more 0.0625000
NULL things 0.0400000
NULL I 0.0135501
NULL me 0.0500000
NULL all 0.0454545
NULL read 0.2000000
NULL point 0.4000000
NULL never 0.0227273
NULL with 0.0270270
NULL this 0.1000000
NULL is 0.0113636
NULL it 0.0673077
NULL know 0.0344828
NULL for 0.0156250
NULL here 0.1000000
NULL will 0.0454545
NULL her 0.1428571
NULL It 0.0238095
NULL &apos;re 0.0500000
NULL only 0.1000000
NULL spending 1.0000000
mots NULL 0.0024570
mots for 0.0156250
mots words 0.6666667
mots pun 0.3333333
retenir remember 1.0000000
Aller-retour trip 0.2000000
Aller-retour Round 1.0000000
journal article 0.5000000
moment then 0.0909091
moment point 0.2000000
moment certain 0.5000000
moment there 0.0204082
moment moment 0.5000000
notes discordant 0.2500000
notes grades 0.3333333
personnages mysterious 0.4000000
personnages characters 0.2500000
frappé struck 0.5000000
Veux-tu like 0.0238095
Veux-tu Would 0.5000000
Veux-tu you 0.0033445
très pretty 0.2500000
très very 0.5625000
très away 0.1250000
très quite 0.5000000
très NULL 0.0024570
période time 0.0370370
utilisation Internet 0.3333333
hôte host 0.5000000
question silly 1.0000000
question question 0.5714286
question key 0.5000000
Remettre into 0.0714286
Remettre Pull 1.0000000
connaît knows 0.5000000
connaît know 0.0344828
Sois Be 1.0000000
diminution diminution 0.3333333
mignon cute 1.0000000
Depuis From 0.3333333
Depuis moment 0.5000000
Depuis the 0.0035088
dernière last 0.2857143
dernière week 0.2000000
dernière year 0.3333333
Mike Mike 1.0000000
voulons expect 0.1250000
achèterai will 0.0227273
achèterai buy 0.2000000
divers various 0.5000000
églises Church 1.0000000
poètes poets 0.5000000
quel of 0.0076923
quel how 0.1000000
quel suitor 0.5000000
quel NULL 0.0024570
quel regardless 0.3333333
doit have 0.0100000
- - 1.0000000
- — 0.6666667
hommage commemorates 0.5000000
hommage Man 0.3333333
addition check 0.1428571
jeunesse hostel 0.5000000
accident accident 0.6666667
servir get 0.0588235
servir yourself 0.2000000
servir age 0.5000000
problèmes running 0.3333333
problèmes poor 0.5000000
remplie full 0.3333333
C This 0.0909091
C That 0.1578947
C It 0.0119048
demander wonder 0.2222222
demander propose 0.3333333
demander for 0.0156250
demander to 0.0061162
source source 1.0000000
Hiroshi Hiroshi 0.6666667
Hiroshi says 0.0769231
faim hunger 0.5000000
faim starving 0.5000000
faim hungry 0.5000000
parce because 0.4687500
Parce Because 0.7500000
Il There 0.5161290
Il pants 0.3333333
Il NULL 0.0073710
Il Better 0.3333333
Il This 0.0454545
Il Sometimes 0.2500000
Il mention 0.2500000
Il I 0.0054201
Il It 0.1785714
Il He 0.8500000
Il may 0.1538462
Il To 0.2500000
conversation conversation 1.0000000
visions no 0.0454545
visions real 0.1666667
petite short 1.0000000
t&apos; &apos;t 0.0125786
t&apos; won 0.1000000
t&apos; you 0.0367893
t&apos; love 0.1428571
t&apos; change 0.2000000
t&apos; Did 0.0769231
t&apos; didn 0.1111111
t&apos; explain 0.1818182
t&apos; send 0.2500000
affronter meet 0.1428571
sommes-nous Haven 0.5000000
longues long 0.0303030
pommes potatoes 0.2500000
froid cold 1.0000000
secret path 1.0000000
secret on 0.0243902
secret secret 0.3333333
Johnson Johnson 1.0000000
flatteries of 0.0076923
flatteries tired 0.1000000
louper to 0.0030581
louper fail 1.0000000
inspirée anymore 0.1250000
inspirée inspired 1.0000000
refusa Arc 0.5000000
refusa refused 0.3333333
proposition unfair 1.0000000
proposition such 0.1428571
debout there 0.0204082
debout stand 0.1000000
minute soon 0.0714286
Antigua Antigua 1.0000000
avaler into 0.0714286
avaler buy 0.2000000
grain grain 1.0000000
importantes things 0.0800000
inquiéter care 0.1111111
inquiéter about 0.0270270
films them 0.0476190
films buys 0.3333333
français French 0.5000000
français enough 0.1666667
copies again 0.3333333
copies over 0.0666667
vagabondent drift 0.1428571
déteste utterly 1.0000000
déteste hate 1.0000000
sœurs siblings 0.2500000
hôpital hospital 1.0000000
idiots fools 0.2500000
gens People 0.4285714
gens people 0.5365854
langage ambiguous 0.5000000
régions areas 0.5000000
lorsque if 0.0384615
lorsque shocking 0.5000000
lorsque when 0.0800000
me undressing 0.5000000
me realized 0.3333333
me &apos;m 0.0370370
me cut 0.5000000
me kill 0.2500000
me miss 0.2000000
me disappoints 0.5000000
me take 0.1250000
me wake 0.2500000
me kicking 0.2500000
me me 0.2500000
me NULL 0.0024570
me relax 0.5000000
me feel 0.1818182
me woke 0.2500000
me like 0.0714286
me off 0.3333333
me getting 0.2500000
me concentrate 0.3333333
me &apos;ve 0.0833333
me driving 0.4000000
me wonder 0.3333333
me wondering 0.5000000
me got 0.2857143
me seems 0.1666667
bois table 0.3333333
objectif means 0.3333333
objectif Being 0.5000000
objectif not 0.0140845
objectif objective 0.3333333
Désolée Sorry 1.0000000
solaire sunscreen 0.5000000
inévitable inevitable 1.0000000
d adding 0.3333333
d prom 0.5000000
d tyrant 0.1250000
d of 0.0230769
d breaks 0.2500000
d being 0.1818182
d expecting 0.1428571
d NULL 0.0024570
d length 0.3333333
d full 0.3333333
d reputation 0.3333333
d age 0.5000000
d juice 0.2500000
d money 0.0555556
Mais So 0.2000000
Mais But 1.0000000
Mais Seriously 1.0000000
erreur mistakes 0.1666667
erreur mistake 0.3333333
ongles nails 0.5000000
donnait would 0.0277778
donnait gave 0.1666667
armée army 1.0000000
différence difference 0.5000000
différence no 0.0454545
franc truth 0.1000000
franc the 0.0035088
franc you 0.0033445
mes grades 0.3333333
mes for 0.0156250
mes mine 0.3333333
mes my 0.1212121
mes loss 0.1428571
mes study 0.1428571
musulmans Muslims 1.0000000
stupides stupid 0.2857143
drogue convicted 0.2000000
nous June 0.2500000
nous seems 0.1666667
nous we 0.5600000
nous Rachel 0.3333333
nous NULL 0.0024570
nous us 0.7142857
Freud insights 0.5000000
Freud &apos;s 0.0075758
témoignage of 0.0076923
témoignage testimony 0.3333333
défauts flaws 1.0000000
défauts flawed 0.2500000
servile servile 1.0000000
perte loss 0.1428571
porte door 0.6000000
venu came 0.1250000
venu come 0.1428571
approuvé sanction 1.0000000
corps body 1.0000000
Mon My 0.4000000
te see 0.0833333
te tells 0.5000000
te to 0.0091743
te freaking 0.5000000
te explain 0.0909091
te feel 0.1818182
te bother 0.5000000
te scare 0.3333333
te NULL 0.0024570
te you 0.0568562
te complaining 0.3333333
te tell 0.1250000
te keeps 0.1666667
te please 0.0625000
te meet 0.1428571
te yourself 0.4000000
te correct 0.3333333
te give 0.3333333
te talk 0.1250000
stricte strict 1.0000000
essayées been 0.1666667
essayées have 0.0100000
essayées tried 0.2000000
reviendras-tu be 0.0250000
reviendras-tu will 0.0454545
reviendras-tu back 0.1333333
croyance prevalent 1.0000000
masquaient belied 0.5000000
serais be 0.0125000
serais will 0.0227273
serais &apos;d 0.2222222
meurs die 0.3333333
meurs &apos;m 0.0185185
mangé eaten 0.6666667
mange eating 0.2500000
mange eat 0.1428571
toi you 0.0367893
toi are 0.0116279
nouveau new 0.1818182
resté stay 0.1538462
Parlez-vous speak 0.1111111
Parlez-vous Do 0.0833333
sont spiders 0.2500000
sont Mathematics 0.1428571
sont definitions 0.2500000
sont mine 0.3333333
sont are 0.2558140
sont resorted 0.2500000
sont fell 0.3333333
sont is 0.0227273
sont Math 0.3333333
sont NULL 0.0024570
sont vacation 0.3333333
réveillé woke 0.2500000
réveillé , 0.0044843
réveillé up 0.0400000
tape &apos;s 0.0075758
tape getting 0.2500000
rends realized 0.3333333
reposer rest 0.3333333
au change 0.2000000
au must 0.1428571
au skills 0.2500000
au NULL 0.0024570
au to 0.0122324
au the 0.0350877
au 21st 0.5000000
au linked 0.5000000
au bed 0.1428571
au messages 0.3333333
au Japan 0.5000000
au dared 0.3333333
au seriously 0.5000000
au headache 0.1250000
au instead 0.2857143
au in 0.0574713
au at 0.0869565
au consider 0.2500000
au zoo 0.5000000
Ray Ray 1.0000000
aux the 0.0105263
aux to 0.0061162
aux Sherlock 0.3333333
aux ask 0.0909091
aux passengers 0.5000000
aux cards 0.2500000
aux commemorates 0.5000000
aux poll 0.5000000
aux items 0.3333333
essayent trying 0.1000000
quelques-uns some 0.1250000
bienveillant who 0.0344828
permettez-moi me 0.0250000
permettez-moi ; 0.0384615
permettez-moi allow 0.3333333
connaître know 0.1034483
connaître known 0.2500000
Trop Too 1.0000000
Trop So 0.1000000
faute mistake 0.3333333
faute fault 1.0000000
as look 0.1250000
as really 0.1250000
as made 0.0769231
as NULL 0.0024570
as do 0.0149254
as opened 0.3333333
as &apos;ve 0.0833333
as did 0.0869565
as met 0.2500000
as you 0.0033445
as have 0.1000000
as done 0.1666667
as letters 0.2000000
as this 0.0500000
as found 0.1111111
as anything 0.0714286
le allowed 0.2500000
le cleaning 0.5000000
le &apos;m 0.0185185
le scrutinizes 0.3333333
le price 0.5000000
le lunch 0.2500000
le high 0.2000000
le turn 0.5000000
le &apos;ll 0.0833333
le sentences 0.1666667
le destroy 0.5000000
le breakfast 0.5000000
le Chinese 0.5000000
le nevertheless 0.3333333
le mess 0.3333333
le Japanese 0.2500000
le most 0.1000000
le would 0.0833333
le surely 0.5000000
le movement 0.5000000
le known 0.2500000
le see 0.0833333
le sycophants 0.1428571
le understand 0.1000000
le everybody 0.5000000
le into 0.2142857
le it 0.0673077
le Everyone 0.3333333
le laundry 0.1250000
le master 0.5000000
le kill 0.2500000
le done 0.1666667
le dial 0.5000000
le binary 0.5000000
le scared 0.2500000
le decorum 0.2500000
le voting 0.5000000
le June 0.5000000
le misunderstood 0.3333333
le NULL 0.0245700
le the 0.2000000
le time 0.0740741
le demonstrate 0.3333333
le they 0.0294118
danger danger 1.0000000
minutes minutes 1.0000000
dispute heated 1.0000000
Es-tu you 0.0033445
Es-tu Are 0.2173913
nommant saying 0.0769231
paume palms 0.5000000
Tous All 0.3333333
égalité equality 0.5000000
Où Where 0.4444444
Demain Tomorrow 1.0000000
explication explanation 1.0000000
essaie try 0.2500000
essaie trying 0.1000000
essaie &apos;m 0.0185185
adore love 0.0952381
Jean John 0.3333333
soir decorum 0.2500000
soir Tonight 0.5000000
restée stay 0.1538462
L Winter 0.3333333
L ascendancy 0.3333333
L The 0.0161290
demande &apos;s 0.0151515
demande curious 0.2500000
demande asking 0.5000000
demande NULL 0.0024570
demande wonder 0.2222222
demande for 0.0156250
réponses useful 0.3333333
sculpture sculpture 0.5000000
massage massage 1.0000000
Pour In 0.2000000
Pour For 0.4000000
Pour To 0.5000000
lit bed 0.4285714
lit NULL 0.0024570
Madrilènes weird 0.5000000
volontaire NULL 0.0024570
énorme huge 1.0000000
Va Go 1.0000000
attiré drawn 0.5000000
légumes eat 0.1428571
légumes vegetables 0.5000000
fois once 0.3333333
fois times 0.5000000
fois went 0.1111111
fois NULL 0.0024570
fois wearing 0.2000000
fois time 0.0370370
fois Once 0.5000000
fois Whenever 0.3333333
Place Place 1.0000000
beau but 0.0322581
beau beautiful 0.2857143
beau best 0.1250000
apprend late 0.0909091
apprend is 0.0056818
perpétuité life 0.0303030
perpétuité sentence 0.5000000
perpétuité a 0.0053191
j&apos; so 0.0344828
j&apos; living 0.2000000
j&apos; I 0.1111111
j&apos; married 0.3333333
compliqué complicated 0.3333333
endorphine endorphins 0.3333333
religieuses as 0.0416667
religieuses beliefs 0.2500000
religieuses their 0.0476190
vas-tu why 0.1666667
vas-tu you 0.0133779
vas-tu will 0.0227273
vas-tu Did 0.1538462
vas-tu are 0.0232558
calmé down 0.3333333
Je Jack 0.2000000
Je I 0.4173442
Je Did 0.0769231
rectifier rectifying 0.2500000
Mme Ms. 0.5000000
Tout Everyone 0.3333333
Tout Any 1.0000000
Tout Anything 0.5000000
Tout It 0.0119048
Tout All 0.3333333
agit comes 0.5000000
celles those 0.1428571
monastiques orders 1.0000000
Fais whatever 0.2500000
Fais Do 0.0833333
geste deed 0.5000000
comportement into 0.0714286
comportement outrageous 0.3333333
comportement behavior 0.2500000
répondu answer 0.4285714
aveugle blind 1.0000000
sous the 0.0035088
sous in 0.0114943
crâne headache 0.1250000
commencer begin 0.5000000
commencer to 0.0030581
découvrir found 0.1111111
Témoins Jehovah 1.0000000
Témoins &apos;s 0.0075758
énervant annoying 0.6666667
énervant Now 0.5000000
caractère mandatory 1.0000000
seigle Rye 0.5000000
consoler make 0.0555556
consoler feel 0.0909091
consoler better 0.1666667
fixant she 0.0666667
fixant stared 0.3333333
peut-on phone 0.3333333
peut-on one 0.0434783
peut-on can 0.0133333
peut-on make 0.0555556
peut-on a 0.0053191
sieste nap 0.5000000
disait NULL 0.0024570
disait telling 0.2500000
disait was 0.0181818
disait side 0.3333333
abord First 0.5000000
urbain sustainability 0.2000000
indique indicates 1.0000000
condamnèrent condemned 1.0000000
aimerait like 0.0238095
aimerait would 0.0277778
aimerait to 0.0030581
moyens ways 1.0000000
couper my 0.0151515
couper cut 0.5000000
serai back 0.0666667
serai grow 0.5000000
serai will 0.0227273
développent sometimes 1.0000000
père father 1.0000000
faiblesses weaknesses 0.5000000
vie lives 0.5000000
vie Life 0.4444444
vie NULL 0.0024570
vie life 0.7272727
vie problems 1.0000000
tests medical 0.5000000
tests extensive 0.5000000
gouvernement government 0.7500000
quoique said 0.0769231
autres blame 0.2500000
autres other 0.6363636
autres else 0.1250000
autres others 0.6666667
vaillants valiant 1.0000000
Théoriquement Theoretically 0.3333333
renieraient would 0.0277778
renieraient repudiate 1.0000000
proverbe proverb 1.0000000
battre fighting 0.2000000
crédible proof 0.3333333
théorie theory 0.7500000
théorie Theoretically 0.3333333
heureux happy 1.0000000
amis friends 0.6428571
j sow 0.2000000
j I 0.0027100
vint came 0.1250000
Confus Baffled 0.5000000
rencontré him 0.0370370
rencontré met 0.2500000
rencontré at 0.0217391
écrite written 0.3333333
sinistre &apos;s 0.0075758
sinistre grim 0.5000000
sinistre doctor 0.5000000
zoo zoo 0.5000000
trace trace 0.5000000
offrir to 0.0030581
offrir him 0.0370370
offrir give 0.1111111
acteurs for 0.0156250
acteurs actors 0.5000000
lorsqu&apos; when 0.0800000
lorsqu&apos; discordant 0.2500000
occupées occupied 1.0000000
Oui Yes 0.5000000
viens-tu you 0.0066890
viens-tu visit 0.5000000
viens-tu aren 0.1428571
viens-tu going 0.0434783
viens-tu come 0.1428571
gars strange 1.0000000
sujets from 0.0312500
sujets subjects 0.6666667
sujets rebellion 1.0000000
considère consider 0.2500000
autrui everything 0.0769231
autrui as 0.0833333
autrui possible 0.3333333
autrui make 0.0555556
autrui harmless 1.0000000
penseur profound 0.5000000
penseur thinker 0.5000000
justice Justice 0.3333333
rare rare 1.0000000
rare at 0.0217391
terme over 0.1333333
terme it 0.0192308
terme term 0.2500000
terme the 0.0070175
sur on 0.2195122
sur eyes 0.2500000
sur retract 0.5000000
sur to 0.0030581
sur in 0.0344828
sur about 0.1351351
sur account 0.3333333
sur insights 0.5000000
sur skeptical 0.3333333
dehors outside 1.0000000
prendrait would 0.0555556
prendrait take 0.1250000
correspond corresponds 1.0000000
Ah Ah 1.0000000
sauf except 0.2857143
sauf unless 0.3333333
sauf is 0.0056818
sauf trust 0.1250000
si whether 0.5000000
si if 0.7692308
si given 0.5000000
si NULL 0.0049140
si so 0.3448276
catholique church 0.3333333
ambivalence ambivalence 1.0000000
façon NULL 0.0049140
façon way 0.2500000
affamés hungry 0.5000000
affamés , 0.0044843
foutre foul 1.0000000
développer develop 0.3333333
paroles lyrics 1.0000000
paroles chatterbox 0.3333333
avons walked 0.5000000
avons have 0.0200000
avons won 0.1000000
avons made 0.0769231
Donnez-lui him 0.0370370
Donnez-lui Give 0.2500000
croyances religious 0.2000000
sévère tone 1.0000000
parles speak 0.1111111
parles referring 0.2500000
bouteilles bottles 0.6666667
sel salt 1.0000000
artiste artist 1.0000000
ordinateurs Computers 0.5000000
parlez-vous talking 0.3333333
parlez-vous you 0.0066890
parlez-vous about 0.0540541
communisme Communism 0.5000000
crime crime 1.0000000
pratique practical 0.3333333
pratique practice 0.6666667
bal NULL 0.0024570
effectivement actually 1.0000000
changer change 0.2000000
changer The 0.0161290
changer NULL 0.0024570
s&apos; speech 0.2000000
s&apos; please 0.1562500
s&apos; happened 0.2000000
s&apos; if 0.1538462
s&apos; teacher 0.2500000
s&apos; apologized 0.3333333
s&apos; noises 0.3333333
s&apos; though 0.1250000
s&apos; , 0.0134529
s&apos; breed 0.3333333
s&apos; calmed 1.0000000
s&apos; built 0.3333333
s&apos; NULL 0.0049140
s&apos; getting 0.2500000
s&apos; hundred 0.5000000
s&apos; pools 0.5000000
s&apos; exclaimed 0.5000000
s&apos; common 0.5000000
s&apos; to 0.0091743
s&apos; express 0.5000000
s&apos; surprised 0.2000000
s&apos; crashed 0.3333333
reprennent starting 0.5000000
reprennent again 0.3333333
: : 1.0000000
: ; 0.0384615
inutiles details 1.0000000
différences discrepancy 1.0000000
océan ocean 0.2500000
lui naturally 0.5000000
lui him 0.4444444
lui NULL 0.0024570
lui perfect 0.5000000
lui to 0.0091743
lui tell 0.2500000
lui pranking 0.2000000
lui prank 0.2500000
tarte banana 0.2857143
tarte a 0.0053191
moulin chatterbox 0.3333333
épée magic 0.5000000
irréguliers verbs 0.5000000
irréguliers irregular 0.5000000
perturber disturb 1.0000000
pourrais-je I 0.0027100
pourrais-je could 0.0714286
ambigu language 0.5000000
courrier email 0.1250000
essaya tried 0.2000000
cause because 0.0312500
cause of 0.0076923
débat political 1.0000000
sous-officier officer 1.0000000
proches many 0.0952381
proches close 0.4000000
proches do 0.0149254
composition composition 0.5000000
ouvrages works 1.0000000
gagner earn 1.0000000
gagner gain 1.0000000
gagner win 0.5000000
gagner make 0.0555556
répréhensible deed 0.5000000
multitude multitude 1.0000000
ronfle snoring 0.5000000
ronfle snore 0.5000000
ronfle &apos;s 0.0075758
courant must 0.1428571
courant known 0.1250000
courant have 0.0100000
demandait whether 0.2500000
Quelle What 0.0540541
provoquent players 0.3333333
Allen Allen 1.0000000
Japon Japan 0.5000000
technologie technology 0.3333333
technologie present-day 1.0000000
faire doing 0.1428571
faire scare 0.3333333
faire NULL 0.0147420
faire order 0.5000000
faire do 0.3880597
faire prank 0.2500000
faire making 0.2666667
faire to 0.0489297
faire math 0.1666667
faire able 0.2000000
faire make 0.1111111
faire trust 0.2500000
faire cook 0.5000000
faire study 0.1428571
faire it 0.0384615
faire shopping 0.2500000
faire done 0.1666667
aille go 0.0526316
part , 0.0044843
part nice 0.2000000
part except 0.1428571
part somewhere 0.5000000
50 1950 0.5000000
50 &apos;s 0.0075758
toutes scrutinizes 0.3333333
toutes except 0.1428571
toutes every 0.1111111
toutes him 0.0370370
toutes all 0.0454545
ci-dessus article 0.5000000
telle such 0.1428571
telle profusion 0.5000000
telle do 0.0149254
telle thing 0.1000000
valu him 0.0370370
valu earned 0.5000000
hockey players 0.3333333
gaspillage wasted 0.2500000
relisais was 0.0181818
relisais rereading 1.0000000
partenaire lovers 1.0000000
propres own 0.3333333
attend expecting 0.1428571
attend from 0.0312500
attend hundred 0.5000000
attend is 0.0056818
attend awaiting 0.3333333
attend are 0.0116279
possibilité possibility 1.0000000
prennent make 0.0555556
mélange mixture 1.0000000
prétendant which 0.0588235
prétendant suitor 0.5000000
envoie send 0.1250000
apprendre learn 0.8461538
apprendre learning 0.4000000
seulement one-way 1.0000000
seulement shows 0.5000000
seulement but 0.0322581
seulement only 0.2000000
tué killed 0.5000000
forêt fire 0.5000000
Déniant Denying 1.0000000
Ceux Those 1.0000000
orateur speaker 0.2500000
ta propose 0.3333333
ta you 0.0066890
ta your 0.2307692
ta nice 0.2000000
noms are 0.0116279
noms your 0.0384615
noms names 0.5000000
bord aboard 1.0000000
dépravation depravity 0.5000000
dépravation of 0.0076923
petit-déjeuner breakfast 0.5000000
égard sycophants 0.1428571
égard praising 0.3333333
égard always 0.0416667
égard him 0.0370370
fous kidding 0.5000000
fous crazies 1.0000000
fous from 0.0312500
Clinton Clinton 1.0000000
prenais ate 0.5000000
ait play 0.2500000
Smith Smith 1.0000000
Êtes-vous Are 0.3478261
petit small 0.5000000
petit little 0.6000000
petit boyfriend 0.5000000
chanté sung 1.0000000
comprendre NULL 0.0024570
comprendre understand 0.3000000
comprendre it 0.0096154
Non No 0.5000000
pouvais speak 0.1111111
pouvais could 0.2142857
personnes people 0.1219512
personnes Censorious 0.5000000
par 100 0.5000000
par a 0.0106383
par dentist 0.3333333
par times 0.5000000
par for 0.0312500
par fell 0.3333333
par sound 0.5000000
par by 0.5000000
par to 0.0030581
par the 0.0035088
par drawn 0.5000000
étaient was 0.0363636
étaient heard 0.5000000
étaient accident 0.3333333
étaient were 0.2352941
douée really 0.0625000
douée are 0.0116279
drastique drastically 0.2500000
ressembler beginning 0.2500000
ressembler &apos;re 0.0250000
ressembler like 0.0238095
ressembler look 0.1250000
sourcil eyebrow 1.0000000
traduisent it 0.0096154
traduisent into 0.0714286
traduisent translate 0.3333333
change changes 0.1666667
prolifique writer 1.0000000
analyse analysis 0.3333333
analyse superficial 1.0000000
constamment on 0.0243902
constamment knock 0.3333333
aiment love 0.0476190
étudier study 0.1428571
étudier studying 0.3333333
étudier at 0.0217391
douleur pain 1.0000000
passagers passengers 0.5000000
contre crashed 0.3333333
contre into 0.0714286
contre against 0.2000000
disiez tell 0.0625000
Vouloir Where 0.1111111
Vouloir there 0.0204082
réellement are 0.0116279
réellement really 0.0625000
objets items 0.3333333
objets objects 1.0000000
objets give 0.1111111
fiançailles engagement 0.5000000
sensibilité inner 1.0000000
apprendrai will 0.0227273
apprendrai learn 0.0769231
Se To 0.1250000
premier first 0.3333333
prendra will 0.0227273
prendra take 0.0625000
prendra &apos;ll 0.0833333
nom name 0.6666667
bien though 0.3750000
bien Well 0.5000000
bien fine 0.5000000
bien good 0.1666667
bien even 0.1818182
bien wish 0.2500000
bien right 0.3333333
bien So 0.1000000
bien candlelight 0.1250000
bien safe 0.5000000
bien NULL 0.0073710
bien lonely 0.2500000
bien well 0.5000000
; ; 0.2692308
€ € 1.0000000
loin it 0.0096154
loin from 0.0937500
loin away 0.2500000
loin far 0.3333333
sarcastiques sarcastic 0.5000000
sarcastiques &apos;s 0.0075758
eux them 0.1428571
eux house 1.0000000
eux books 0.5000000
eux fighting 0.2000000
eux were 0.0588235
changements changes 0.3333333
changements any 0.1428571
lits bed 0.1428571
linge laundry 0.1250000
juin 18th 0.4000000
malnutrition malnutrition 0.3333333
opinion opinion 0.8000000
osait dared 0.3333333
osait one 0.0434783
tyran tyrant 0.1250000
soif thirsty 1.0000000
appelé called 1.0000000
coûte is 0.0056818
coûte Justice 0.3333333
disposé willing 0.6666667
impôts taxes 0.5000000
Nous We 0.6428571
musicale composition 0.5000000
musicale , 0.0044843
réveiller wake 0.2500000
réveiller up 0.0400000
site layout 0.3333333
site website 0.8000000
site &apos;s 0.0075758
toi-même yourself 0.2000000
toi-même it 0.0096154
avaient them 0.0476190
avaient feelings 0.1666667
avaient had 0.1052632
futur future 1.0000000
futur changed 0.1000000
conviction conviction 0.6666667
conviction belief 0.5000000
touché touched 1.0000000
fournit proof 0.3333333
empêche keeps 0.1666667
autonomes autonomous 1.0000000
n&apos; no 0.2272727
n&apos; came 0.1250000
n&apos; haven 0.6666667
n&apos; were 0.0588235
n&apos; NULL 0.0245700
n&apos; mention 0.2500000
n&apos; weren 0.5000000
n&apos; truth 0.1000000
n&apos; &apos;re 0.1000000
n&apos; Nothing 0.5000000
n&apos; is 0.0113636
n&apos; don 0.1250000
n&apos; This 0.0909091
n&apos; trust 0.1250000
n&apos; not 0.0704225
n&apos; totally 0.3333333
n&apos; aren 0.2857143
n&apos; shouldn 0.5000000
n&apos; isn 0.5000000
n&apos; never 0.3181818
n&apos; music 0.2000000
n&apos; brain 0.2500000
n&apos; opinion 0.2000000
n&apos; Poor 0.3333333
n&apos; anyone 0.1111111
n&apos; question 0.1428571
n&apos; can 0.0533333
n&apos; keep 0.1428571
n&apos; couldn 0.5000000
n&apos; just 0.0800000
n&apos; wasn 0.2000000
n&apos; didn 0.0555556
n&apos; doesn 0.1363636
n&apos; then 0.0909091
n&apos; happen 0.1666667
n&apos; have 0.0400000
accusation blame 0.2500000
quelqu&apos; NULL 0.0049140
quelqu&apos; somebody 0.5000000
quelqu&apos; someone 0.4000000
quelqu&apos; Someone 1.0000000
voudrions want 0.0227273
voudrions would 0.0277778
Stéphane Spenser 0.1428571
allusion referring 0.5000000
allusion you 0.0033445
méprisé disdained 1.0000000
subtile fine 0.5000000
cadeau present 1.0000000
cerveau brain 0.7500000
ont fought 0.3333333
ont have 0.0400000
ont their 0.0952381
ont million 0.4000000
ont authorities 0.3333333
ont boys 0.3333333
ont an 0.0384615
ont earned 0.5000000
ont wasted 0.2500000
ont behavior 0.2500000
ont men 0.2500000
ont were 0.1764706
complaisant young 0.3333333
fur was 0.0181818
oreilles ears 1.0000000
impatiente impatient 1.0000000
essai essay 0.3333333
essai elected 0.1666667
cassé broken 1.0000000
intérieure sensitivity 1.0000000
aversion distaste 1.0000000
exprès intentionally 0.2000000
rien useless 0.2500000
rien welcome 0.2000000
rien NULL 0.0049140
rien nothing 0.8571429
rien &apos;t 0.0188679
rien anything 0.2142857
poser ask 0.4545455
Holmes remarks 0.2500000
Holmes Holmes 0.5000000
parle talk 0.3750000
parle talking 0.1666667
parle speak 0.4444444
parle Who 0.1111111
parle am 0.0400000
cesse will 0.0227273
cesse vilified 0.3333333
eu had 0.1052632
eu &apos;re 0.0250000
eu speaker 0.2500000
adopter adopt 0.5000000
idée idea 0.7692308
idée which 0.0588235
rendent make 0.1111111
inexpérimentés investors 1.0000000
Donne-moi Give 0.2500000
Donne-moi me 0.0125000
chocolat chocolate 0.5000000
chocolat some 0.1250000
cartes cards 0.5000000
avec served 0.5000000
avec with 0.5945946
avec which 0.1764706
avec austere 0.5000000
avec marry 0.2727273
avec gracefully 0.5000000
avec engagement 0.5000000
avec to 0.0122324
Un One 0.4000000
Un An 0.6666667
Un Half 0.5000000
Un Poor 0.3333333
Un A 0.8181818
Un Someday 0.5000000
détendu cool 0.3333333
étais nuts 0.5000000
étais must 0.1428571
étais &apos;ve 0.0833333
étais was 0.1272727
étais spent 0.1250000
durée optimum 0.5000000
vote voting 0.5000000
vote nationwide 1.0000000
noir hat 1.0000000
noir dark 1.0000000
où where 0.7500000
où Where 0.1111111
où eggs 0.5000000
où NULL 0.0024570
où shape 0.2500000
pensions thought 0.1428571
tondre mow 1.0000000
retéléphoner again 0.3333333
papillon butterfly 1.0000000
détendre relax 0.5000000
trouveraient would 0.0555556
vides senseless 0.3333333
levais up 0.0400000
levais 6 0.5000000
levais at 0.0217391
six six 0.5000000
reste stay 0.0769231
reste rest 0.6666667
reste for 0.0156250
reste will 0.0227273
diras will 0.0227273
diras say 0.0526316
avant until 0.5000000
avant for 0.0156250
avant before 0.8333333
leurs their 0.2857143
leurs NULL 0.0049140
leurs bed 0.1428571
force strength 0.5000000
Rachel Rachel 0.3333333
Rachel friend 0.5000000
manges eat 0.1428571
manges NULL 0.0024570
Laver Wash 1.0000000
frère brother 1.0000000
nos Nowadays 0.2500000
nos our 0.1428571
relégua relegated 0.5000000
sert &apos;s 0.0151515
sert is 0.0056818
sert useless 0.2500000
mathématiciens Mathematicians 0.5000000
mathématiciens mathematicians 0.5000000
demandez Don 0.0666667
demandez ask 0.0909091
précises definitions 0.2500000
soulage alleviate 1.0000000
capote condom 0.5000000
près near 0.6666667
terroristes terrorists 1.0000000
éveillé up 0.0400000
tenue dress 0.3333333
gâchis waste 1.0000000
auraient should 0.0588235
programme to 0.0030581
programme program 0.5000000
programme have 0.0100000
programme &apos;d 0.1111111
autorités authorities 0.6666667
vite fast 0.5000000
vite soon 0.0714286
boissons Food 0.5000000
eut was 0.0181818
amena &apos;s 0.0075758
amena deeds 1.0000000
amena lead 1.0000000
face Baffled 0.5000000
face face 0.6666667
face implausible 1.0000000
face face-to-face 0.3333333
même same 0.4166667
même even 0.6363636
même NULL 0.0024570
même thing 0.1000000
frappe is 0.0056818
frappe at 0.0217391
frappe knocking 1.0000000
appartement apartment 1.0000000
Une mathematical 0.3333333
Une An 0.3333333
Une Evening 1.0000000
Une Once 0.5000000
Une Life 0.0370370
Une A 0.0909091
Comme They 0.1666667
atteint reached 1.0000000
atteint in 0.0114943
étudiant student 1.0000000
sagesse wisdom 0.5000000
abaisserai myself 0.2500000
abaisserai lower 0.5000000
plaisanterie joking 0.5000000
plaisanterie remarks 0.2500000
6h 6 0.5000000
6h a.m. 0.5000000
es-tu you 0.0133779
es-tu are 0.0116279
es-tu did 0.1304348
habitent in 0.0114943
habitent live 0.0769231
ayant concise 1.0000000
ayant with 0.0270270
ayant having 0.2500000
posent raise 0.5000000
effacer to 0.0030581
effacer wishes 0.5000000
antisocial antisocial 0.2500000
reviens &apos;ll 0.0833333
reviens will 0.0681818
reviens be 0.0500000
reviens back 0.2666667
plie yields 0.5000000
Ne Haven 0.5000000
Ne Don 0.4666667
Ne Not 1.0000000
Ne Unsure 0.5000000
évident obvious 0.5000000
nature caring 0.5000000
abandonner abandon 0.5000000
abandonner to 0.0030581
Prends Take 1.0000000
fatiguée tired 0.1000000
naissance birth 1.0000000
revenir to 0.0030581
revenir retract 0.5000000
revenir be 0.0125000
revenir back 0.0666667
serve useful 0.3333333
serve has 0.0714286
serve for 0.0156250
serve got 0.1428571
serve be 0.0125000
poète poet 1.0000000
mauvais erase 1.0000000
ne came 0.2500000
ne only 0.2000000
ne gives 0.5000000
ne NULL 0.0196560
ne snoring 0.5000000
ne houses 0.3333333
ne cannot 0.4285714
ne won 0.4000000
ne know 0.0344828
ne don 0.7875000
ne aren 0.2857143
ne not 0.0985915
ne technology 0.3333333
ne perfect 0.5000000
ne best 0.2500000
ne never 0.1136364
ne roommate 0.3333333
ne did 0.0869565
ne breakthroughs 0.5000000
ne one 0.0869565
ne can 0.2400000
ne am 0.1600000
ne leave 0.2500000
ne doubt 0.2500000
ne would 0.0833333
ne quandary 0.3333333
ne just 0.0400000
ne understands 0.5000000
ne useless 0.2500000
ne wouldn 0.3333333
ne didn 0.4444444
ne matter 0.2000000
ne wasn 0.2000000
ne &apos;m 0.0925926
ne doesn 0.4545455
ne past 0.3333333
Eichler Eichler 0.5000000
droit allowed 0.2500000
tiré sound 0.5000000
sortie they 0.0294118
sortie released 0.5000000
sortie &apos;re 0.0250000
plafond at 0.0217391
plafond ceiling 1.0000000
Parlez Speak 1.0000000
géniales ideas 0.2500000
expliquer explain 0.5454545
expliquer it 0.0192308
expliquer everything 0.0769231
expliquer to 0.0152905
semaines ago 1.0000000
semaines weeks 1.0000000
personnel profit 1.0000000
allée went 0.2222222
allée to 0.0030581
forums forums 1.0000000
sortant you 0.0033445
sortant when 0.0400000
sortant leave 0.2500000
air looks 0.2000000
air stupid 0.1428571
air of 0.0076923
air innocent 0.2500000
proviseur principal 1.0000000
faite made 0.0769231
faite built 0.3333333
pire worst 0.6666667
douches showers 1.0000000
transforment turn 0.5000000
transforment into 0.0714286
transforment it 0.0096154
austère austere 0.5000000
risques risks 0.5000000
filles both 0.3333333
sol floor 0.5000000
sèche skip 1.0000000
Oh Oh 1.0000000
examen cursory 1.0000000
Genève Geneva 0.5000000
chœur NULL 0.0024570
elle they 0.0294118
elle she 0.4666667
elle expecting 0.1428571
elle it 0.0192308
elle her 0.2857143
envoyées letters 0.2000000
donne am 0.0400000
donne kicking 0.2500000
donne giving 1.0000000
donne give 0.2222222
donne &apos;s 0.0075758
donne me 0.0125000
lire go 0.0526316
lire reading 0.5000000
amour love 0.2857143
amour Love 0.5000000
crème on 0.0243902
pingouin penguin 1.0000000
sembler might 0.5000000
réforme by 0.0714286
réforme reform 0.5000000
profusion at 0.0217391
profusion profusion 0.5000000
envoyer send 0.3750000
sains in 0.0114943
sains diets 0.5000000
sains healthy 1.0000000
courrai run 1.0000000
courrai &apos;ll 0.0833333
messages messages 0.3333333
puissance power 0.5000000
de arrive 0.2500000
de somber 0.5000000
de trying 0.4000000
de altruistic 0.5000000
de freedom 0.5000000
de laughing 0.5000000
de stones 0.5000000
de vegetables 0.5000000
de poor 0.5000000
de criticizing 0.5000000
de to 0.1529052
de asking 0.2500000
de kidding 0.5000000
de first 0.3333333
de hostel 0.5000000
de human 0.3333333
de wife 0.5000000
de Maury 0.3333333
de many 0.5238095
de actors 0.5000000
de &apos;s 0.0227273
de sustainability 0.2000000
de belts 0.5000000
de new 0.1818182
de diminution 0.6666667
de than 0.0625000
de about 0.0540541
de dress 0.3333333
de filled 0.3333333
de poetry 0.5000000
de leader 0.2500000
de soon 0.1428571
de requires 0.3333333
de of 0.5000000
de solution 0.2500000
de around 0.2857143
de potatoes 0.2500000
de much 0.2272727
de in 0.0689655
de NULL 0.1646192
de nothing 0.1428571
de password 0.3333333
de remarks 0.2500000
de back 0.2000000
de for 0.0312500
de math 0.1666667
de any 0.1428571
de houses 0.3333333
de difference 0.5000000
de long 0.3333333
de news 0.3333333
de lesser 0.5000000
de myself 0.2500000
de forest 0.5000000
de &apos; 0.3333333
de thrive 0.3333333
de trace 0.5000000
de reading 0.5000000
de get 0.1176471
de hoards 0.3333333
de redundant 0.3333333
de me 0.0125000
de food 0.3333333
de suffering 0.3333333
de from 0.2500000
de starving 0.5000000
de senseless 0.3333333
de selling 0.3333333
de physics 0.3333333
de guests 0.5000000
de eaten 0.3333333
de doubt 0.2500000
de Many 0.5000000
de pun 0.3333333
de surprised 0.2000000
de people 0.0487805
de joking 0.5000000
de allow 0.3333333
de drastically 0.2500000
de red 0.5000000
de table 0.3333333
de seeing 0.5000000
de account 0.3333333
de your 0.0384615
cinq five 0.3333333
sexuelle sex 0.7500000
démocratie Democracy 0.5000000
restées stay 0.0769231
60 60 1.0000000
Passez-moi me 0.0125000
Passez-moi Pass 1.0000000
mêmes same 0.2500000
audience audience 0.2500000
complexe complex 1.0000000
complexe than 0.0625000
convenance on 0.0243902
convenance decorum 0.2500000
curieux curious 0.5000000
signifier mean 0.0909091
Monsieur Sir 1.0000000
savais know 0.0689655
savais knew 0.5000000
savais didn 0.1111111
En In 0.2000000
En Theoretically 0.3333333
En When 0.0526316
En Despite 0.5000000
qu&apos; going 0.0869565
qu&apos; prove 0.2000000
qu&apos; what 0.0937500
qu&apos; happened 0.2000000
qu&apos; laundry 0.2500000
qu&apos; someday 0.1111111
qu&apos; which 0.1176471
qu&apos; freeze 0.3333333
qu&apos; because 0.1562500
qu&apos; he 0.0800000
qu&apos; science 0.5000000
qu&apos; eating 0.2500000
qu&apos; Can 0.5000000
qu&apos; one 0.0434783
qu&apos; hear 0.2500000
qu&apos; than 0.0625000
qu&apos; she 0.2666667
qu&apos; weather 0.2222222
qu&apos; NULL 0.0098280
qu&apos; felt 0.3333333
qu&apos; say 0.0526316
qu&apos; told 0.1176471
qu&apos; that 0.0952381
qu&apos; they 0.2352941
qu&apos; clear 0.5000000
qu&apos; wait 0.2000000
qu&apos; just 0.1200000
qu&apos; would 0.0277778
2 2 1.0000000
2 or 0.0909091
2 two 0.1428571
irrésistible irresistible 1.0000000
équilibrer balance 0.5000000
utiles answers 1.0000000
essayez &apos;re 0.0250000
essayez trying 0.1000000
sourire smile 0.2000000
trouves-tu do 0.0149254
trouves-tu find 0.0909091
trouves-tu you 0.0033445
faisais gave 0.1666667
physique physics 0.3333333
physique &apos;t 0.0062893
physique doesn 0.0454545
coopérer comply 1.0000000
Sont-ils they 0.0588235
Sont-ils Are 0.0869565
famille royal 0.5000000
famille family 1.0000000
politique debate 1.0000000
politique politics 0.5000000
jeune young 0.3333333
jeune wealthy 0.5000000
jeune self-indulgent 0.3333333
jeune , 0.0044843
sac backpack 1.0000000
sac at 0.0217391
sûrs sure 0.1666667
sûrs you 0.0066890
devenir get 0.0588235
devenir become 1.0000000
devenir come 0.1428571
utiliser get 0.0588235
acheter buy 0.2000000
loterie selection 0.2500000
fatigué tired 0.4000000
erreurs errors 1.0000000
erreurs mistakes 0.5000000
erreurs mistake 0.3333333
Minute Minute 1.0000000
puisse can 0.0266667
renoncer renounce 0.5000000
renoncer her 0.1428571
renoncer refused 0.3333333
archer archer 0.6666667
prolifération proliferation 1.0000000
éducation Education 0.5000000
éducation education 0.5000000
biologie biology 0.3333333
derrière behind 1.0000000
royale poisoned 0.5000000
comme that 0.0119048
comme like 0.1904762
comme kind 0.3333333
comme of 0.0076923
comme as 0.3750000
altruiste player 1.0000000
verre houses 0.3333333
aspects aspect 1.0000000
roi king 0.7500000
roi heirless 0.2500000
roi a 0.0053191
critère criterion 1.0000000
coercition coercion 0.5000000
mordu you 0.0066890
mordu bite 0.5000000
pouvoir be 0.0125000
pouvoir will 0.0227273
pouvoir , 0.0044843
pouvoir power 0.5000000
pouvoir way 0.0833333
pouvoir able 0.4000000
pouvoir could 0.0714286
pouvoir wish 0.2500000
pouvoir a 0.0106383
schéma outline 1.0000000
récolte harvest 0.3333333
demie until 0.5000000
demie eight-thirty 0.2500000
petites small 0.5000000
Le Rye 0.5000000
Le Creationism 0.5000000
Le Communism 0.5000000
Le Wine 0.3333333
Le The 0.4838710
patient patient 1.0000000
écrivain prolific 1.0000000
cinglé nuts 0.5000000
rêvé about 0.0540541
rêvé dreamt 0.5000000
proposée proposed 1.0000000
guilde relegated 0.5000000
guilde leader 0.2500000
Internet usage 0.5000000
cube meter 1.0000000
demain tomorrow 0.8000000
demain up 0.0800000
parties parties 1.0000000
parties parts 1.0000000
ouragans hurricanes 1.0000000
satirique comedy 1.0000000
sentir sense 1.0000000
aspirine aspirin 0.5000000
simplement just 0.0400000
lieu instead 0.2857143
feu forest 0.5000000
feu fire 0.5000000
emprisonnement in 0.0114943
recours resorted 0.2500000
recours resort 0.3333333
bateau boat 0.3333333
bateau take 0.1250000
bateau will 0.0454545
bateau that 0.0238095
rue street 1.0000000
Jack Jack 0.4000000
décida decided 0.3333333
prêt willing 0.3333333
prêt ready 0.2500000
Tenez Here 1.0000000
Tenez are 0.0116279
tombée got 0.1428571
septembre 11th 1.0000000
relation relationship 1.0000000
gentil nice 0.4000000
comprends understand 0.4000000
États-Unis States 1.0000000
États-Unis United 0.6666667
comédie satirical 1.0000000
concise terse 1.0000000
époque high 0.2000000
époque Back 0.2500000
époque in 0.0114943
tantôt one 0.0434783
tantôt now 0.1666667
mal a 0.0159574
mal misunderstood 0.3333333
mal misinterpreted 0.5000000
mal headache 0.1250000
mal NULL 0.0024570
mal bad 0.2500000
mouvement movement 0.5000000
regardes at 0.0217391
regardes look 0.1250000
trois three 0.5000000
trois three-headed 0.3333333
plutôt rather 0.5000000
plutôt pretty 0.2500000
plutôt , 0.0044843
émotions emotions 1.0000000
dévêts undressing 0.2500000
dévêts &apos;m 0.0185185
queue tail 1.0000000
rapport paper 1.0000000
laissent through 0.2500000
laissent drift 0.1428571
aussi wait 0.2000000
aussi that 0.0119048
aussi an 0.0384615
aussi also 1.0000000
aussi contrary 0.2500000
aussi I. 0.5000000
fiche care 0.2222222
fiche don 0.0125000
fiche &apos;t 0.0062893
notre our 0.8571429
notre host 0.5000000
aimer him 0.0370370
allemand German 0.5000000
anonymes sources 0.3333333
ce weigh 0.5000000
ce then 0.0909091
ce fifty 0.2500000
ce harvest 0.3333333
ce it 0.0096154
ce Maybe 0.3333333
ce anything 0.1428571
ce what 0.4375000
ce &apos;m 0.0185185
ce this 0.4500000
ce everything 0.0769231
ce whatever 0.2500000
ce that 0.1071429
ce do 0.0149254
ce somewhat 0.5000000
ce Anything 0.5000000
ce NULL 0.0122850
ce hated 0.5000000
bonheur happiness 0.6666667
bonheur awaiting 0.3333333
idiot idiotic 1.0000000
examens exams 0.6666667
machine typewriter 0.3333333
machine complicated 0.3333333
machine cotton 1.0000000
symbolique leader 0.2500000
vase for 0.0156250
vase vessel 1.0000000
essayaient were 0.0588235
essayaient trying 0.1000000
éviter avoid 0.5000000
éviter them 0.0476190
répandre spread 0.5000000
maîtriser master 0.5000000
éclater spark 1.0000000
maintenant NULL 0.0049140
maintenant now 0.6666667
plaît it 0.0096154
plaît please 0.2500000
plaît like 0.0238095
plaît NULL 0.0024570
Italie Italy 0.5000000
salsa Salsa 1.0000000
entendait heard 0.5000000
entendait from 0.0312500
Wikipedia Wikipedia 1.0000000
boire a 0.0053191
boire drink 0.5000000
cherchais ! 0.0103093
cherchais looking 0.2500000
cherchais was 0.0181818
cherchais for 0.0156250
cru thought 0.1428571
faites made 0.0769231
faites you 0.0033445
joie happiness 0.3333333
joie with 0.0540541
joie joy 1.0000000
bonbon piece 1.0000000
bonbon of 0.0076923
bonbon candy 0.5000000
monde world 1.0000000
monde Everyone 0.3333333
monde NULL 0.0024570
présumer assume 1.0000000
retour soon 0.1428571
retour back 0.0666667
retour be 0.0125000
ajouter adding 0.3333333
tribunal court 1.0000000
celui the 0.0070175
celui one 0.0869565
lumière candlelight 0.1875000
heures five 0.1666667
heures eight-thirty 0.2500000
heures eleven 0.5000000
heures hours 1.0000000
heures in 0.0114943
cuire an 0.0384615
cuire cook 0.5000000
citoyen free 0.5000000
merde things 0.0400000
sûre you 0.0066890
sûre sure 0.1666667
passer happen 0.1666667
passer spend 0.5000000
belles form 0.3333333
belles beautiful 0.1428571
raison reason 1.0000000
restez Don 0.0666667
restez stay 0.0769231
opposés opposed 1.0000000
concernant about 0.0270270
concernant high 0.2000000
je NULL 0.0024570
je some 0.1250000
je always 0.0416667
je I 0.2493225
je program 0.5000000
je antisocial 0.2500000
Combien How 0.5357143
national poll 0.5000000
national budget 1.0000000
national in 0.0114943
clairement articulate 0.5000000
clairement about 0.0270270
quoi whatever 0.2500000
quoi NULL 0.0024570
quoi what 0.1093750
quoi are 0.0465116
quoi do 0.0149254
quoi anything 0.0714286
âge learn 0.0769231
plupart Most 0.3333333
honoré honored 1.0000000
honoré him 0.0370370
honoré being 0.0909091
bonnes right 0.3333333
chercher ! 0.0103093
chercher up 0.0400000
chercher for 0.0156250
défaut defect 0.2000000
forte belied 0.5000000
tenir in 0.0114943
tenir it 0.0096154
tenir keeping 1.0000000
Soviétique Union 1.0000000
doutent doubt 0.5000000
vient from 0.0312500
vient comes 0.5000000
impossible impossible 0.6666667
plaisait like 0.0238095
plaisait didn 0.0555556
plaisait it 0.0096154
gay gay 0.6666667
triste sad 0.6666667
affirmations claims 0.5000000
affirmations order 0.5000000
affirmations in 0.0114943
puissiez can 0.0133333
puissiez cannot 0.0714286
déçoit disappoints 0.5000000
auras a 0.0053191
auras get 0.0588235
Allez-vous Are 0.0434783
Allez-vous you 0.0033445
Salut Hi 1.0000000
célèbres famous 0.3333333
cherche searches 1.0000000
Grâce Thanks 0.2500000
pantalon white 0.3333333
église Catholic 1.0000000
église church 0.3333333
peux could 0.0714286
peux NULL 0.0024570
peux can 0.2933333
récepteurs receptors 0.5000000
élire elected 0.1666667
Supporter Bearing 1.0000000
expression doctor 0.5000000
hui today 0.5000000
hui is 0.0056818
hui Today 0.4000000
matin morning 0.5000000
ravi be 0.0125000
ravi glad 0.5000000
ils they 0.4411765
ils NULL 0.0024570
ils translate 0.3333333
performance performance 1.0000000
scandaleux outrageous 0.3333333
dormi slept 0.3333333
dormi during 0.2500000
prétentieuses claims 0.5000000
toute stand 0.2000000
toute all 0.0909091
toute for 0.0156250
toute online 0.2500000
la reproduce 0.5000000
la migraines 0.5000000
la prodigal 0.2500000
la laundry 0.1250000
la biology 0.3333333
la music 0.2000000
la ready 0.2500000
la malnutrition 0.3333333
la my 0.0303030
la brevity 0.5000000
la instead 0.1428571
la wearing 0.2000000
la wisdom 0.5000000
la food 0.3333333
la coercion 0.5000000
la inch 0.3333333
la royal 0.5000000
la through 0.5000000
la theory 0.2500000
la changed 0.2000000
la candlelight 0.1875000
la practice 0.3333333
la NULL 0.0147420
la during 0.2500000
la stupidest 0.2500000
la gingivitis 0.5000000
la poverty 0.5000000
la the 0.2947368
la next 0.3333333
la communication 0.1666667
la last 0.2857143
la transform 0.5000000
la schooling 0.5000000
la correct 0.3333333
la headache 0.1250000
la lucky 0.2500000
la stand 0.2000000
la lightning 0.5000000
la banana 0.4285714
la at 0.0217391
la lives 0.2500000
la chemistry 0.5000000
la freak 0.5000000
la your 0.1153846
la life 0.1818182
la memory 0.5000000
la TV 0.4000000
la socially 1.0000000
la suffering 0.1666667
la notorious 0.3333333
la use 0.2500000
la urban 1.0000000
la most 0.2000000
la home 0.2500000
la poetry 0.5000000
la hunger 0.5000000
la politics 0.5000000
la leader 0.2500000
vont go 0.0526316
vont will 0.0227273
police police 1.0000000
tire out 0.0833333
tire &apos;re 0.0250000
tire getting 0.2500000
Jéhovah witnesses 0.5000000
inviter invited 1.0000000
terminé &apos;s 0.0075758
terminé over 0.0666667
terminé job 0.3333333
mariée married 0.3333333
regrettent regret 1.0000000
musique music 0.4000000
certaine some 0.1250000
vieille old 0.3333333
envers for 0.0156250
envers feelings 0.1666667
occupée making 0.0666667
occupée busy 0.2500000
responsable for 0.0156250
responsable responsible 0.5000000
techniques using 0.5000000
communs ideals 0.1428571
vais go 0.0526316
vais NULL 0.0049140
vais out 0.0833333
vais &apos;m 0.1481481
vais gonna 0.8000000
vais going 0.1304348
parles-tu talking 0.3333333
parles-tu you 0.0066890
parles-tu about 0.0540541
livres home 0.2500000
dîner dinner 1.0000000
affaires mine 0.3333333
infini infinite 1.0000000
problème there 0.0204082
problème matter 0.2000000
problème ? 0.0058824
problème problem 1.0000000
pages pages 1.0000000
Au On 1.0000000
Au NULL 0.0024570
Douter doubts 1.0000000
Douter have 0.0100000
Douter To 0.1250000
hiver Winter 0.3333333
hiver is 0.0056818
bougies candlelight 0.1875000
fatigués tired 0.1000000
indiqua indicated 1.0000000
acceptable masturbate 0.2500000
extrêmement plays 0.3333333
pause lunch 0.2500000
pause during 0.2500000
malgré despite 1.0000000
soleil sunburn 0.3333333
soleil sunset 0.2500000
soleil sunny 0.5000000
Merci Thank 1.0000000
Merci you 0.0234114
Merci very 0.1250000
Merci Thanks 0.7500000
quelque something 0.5000000
quelque somewhere 0.5000000
vues thoughts 1.0000000
21 21 0.5000000
21 made 0.0769231
pretty pretty 0.5000000
Ton Your 0.5000000
maman mom 1.0000000
maman doesn 0.0454545
souffrance suffering 0.5000000
songe you 0.0033445
songe think 0.0312500
songe Don 0.0666667
songe of 0.0076923
planté stand 0.1000000
cher expensive 1.0000000
promettre promise 0.5000000
promettre a 0.0053191
promettre make 0.0555556
trouvée found 0.2222222
trouvée it 0.0096154
savoir Let 0.2500000
savoir luck 0.5000000
savoir know 0.1034483
savoir me 0.0250000
savoir helps 0.5000000
combattu fought 0.3333333
compte account 0.3333333
compte realize 0.3333333
compte bone 0.3333333
compte notice 0.5000000
compte realized 0.3333333
compte have 0.0100000
compte an 0.0384615
fenêtre window 1.0000000
improbable unlikely 1.0000000
difficile difficult 0.5714286
devenant going 0.0434783
devenant heirless 0.2500000
devenant king 0.1250000
Monica Monica 1.0000000
C&apos; Therein 1.0000000
C&apos; He 0.1000000
C&apos; That 0.5263158
C&apos; This 0.2272727
C&apos; It 0.3571429
C&apos; You 0.0338983
C&apos; Is 0.2000000
inutile unnecessary 0.5000000
profond a 0.0053191
profond profound 0.5000000
Lorsque When 0.1052632
sexy sexy 1.0000000
écriture formal 0.5000000
maths math 0.2500000
maths Math 0.3333333
duquel whose 0.3333333
duquel side 0.3333333
vidéo video 0.5000000
vidéo game 0.2500000
avortement abortions 0.5000000
Allô Hello 0.5000000
Allô Are 0.0434783
furieux mad 0.3333333
vérifier check 0.5714286
connectée online 0.2500000
joueurs hockey 0.5000000
dit-il he 0.0200000
dit-il said 0.0769231
été designed 0.3333333
été NULL 0.0024570
été struck 0.5000000
été been 0.3333333
été written 0.3333333
été meant 0.5000000
été the 0.0035088
été breaks 0.2500000
signe sign 1.0000000
signe any 0.1428571
procureurs Prosecutors 0.5000000
perdu wasted 0.2500000
perdu lost 0.8333333
cerf deer 1.0000000
fut murderer 0.3333333
fut Europe 0.5000000
fut once 0.3333333
fut was 0.0727273
découverte discovery 0.3333333
désirer wanting 0.3333333
dure hard 0.6666667
dure harder 0.1250000
Attends on 0.0243902
Attends Hold 1.0000000
endroit lovely 0.3333333
désagréable unpleasant 1.0000000
Sven Sven 1.0000000
Europe Europe 0.5000000
disputer arguing 0.3333333
corroborer corroborate 1.0000000
corroborer Gary 0.5000000
semé sown 1.0000000
hésitait vacillated 1.0000000
bras yard 0.5000000
bras a 0.0053191
désirons want 0.0227273
désirons Nowadays 0.2500000
plausibles face-to-face 0.1666667
lycée high 0.2000000
lycée school 0.2727273
lycée , 0.0044843
cours class 0.4000000
cours lecture 0.3333333
cours classes 0.5000000
cours starting 0.5000000
cours are 0.0116279
cours communication 0.1666667
seuls alone 0.1250000
identiques same 0.0833333
identiques the 0.0035088
crêpes pancakes 0.3333333
séjourné stay 0.1538462
souhaitée desired 1.0000000
concept abstract 1.0000000
mousse moss 1.0000000
radicalement drastically 0.2500000
absolument despise 1.0000000
absolument totally 0.3333333
absolument just 0.0400000
absolument pointless 0.2500000
fameuse notorious 0.3333333
fameuse a 0.0053191
réfléchir more 0.0625000
réfléchir any 0.1428571
réfléchir it 0.0096154
réfléchir think 0.0312500
réfléchir thinking 0.5000000
rentrent read 0.2000000
Notre Our 1.0000000
quand woman 0.5000000
quand if 0.0384615
quand when 0.6800000
quand NULL 0.0024570
chapeau black 1.0000000
vivant alive 1.0000000
vivant at 0.0217391
vivant lifetime 1.0000000
retournions go 0.0526316
retournions &apos;t 0.0062893
retournions don 0.0125000
John John 0.3333333
lentement slowly 1.0000000
pleurer while 0.0909091
pleurer cry 0.2500000
avare miser 1.0000000
... big 0.5000000
... say 0.0526316
... sneeze 0.3333333
... snore 0.5000000
... ... 1.0000000
... . 0.0049140
aurais should 0.1176471
aurais would 0.0833333
aurais wouldn 0.3333333
aurais shouldn 0.5000000
aurais have 0.0600000
aurais couldn 0.5000000
avis your 0.0384615
avis mind 0.1666667
argent charges 1.0000000
argent money 0.4444444
ascétique , 0.0044843
sexuellement transmitted 1.0000000
aptitude compensatory 1.0000000
ville city 0.2500000
ville most 0.1000000
ville in 0.0114943
individu taciturn 1.0000000
Eh So 0.1000000
Eh Hey 1.0000000
Arc Arc 0.5000000
convertir force 1.0000000
convertir their 0.0476190
convertir on 0.0243902
convertir beliefs 0.2500000
Russes Russians 1.0000000
Avez-vous you 0.0066890
Avez-vous have 0.0100000
Avez-vous Do 0.0833333
demanderai ask 0.0909091
demanderai won 0.1000000
gros fat 1.0000000
dentiste dentist 0.3333333
condition condition 1.0000000
condition under 0.3333333
condition one 0.0434783
condition only 0.0500000
prudent prudent 1.0000000
vacances vacation 0.3333333
vacances holiday 0.5000000
vacances breaks 0.2500000
fille girl 1.0000000
maison home 0.2500000
danser dance 1.0000000
danser to 0.0030581
danser one 0.0434783
abrupte abrupt 1.0000000
avouer admit 0.5000000
rends-moi back 0.0666667
rends-moi me 0.0125000
rends-moi Give 0.2500000
avion plane 1.0000000
déclaration previous 1.0000000
professeurs Professors 0.5000000
professeurs must 0.1428571
voitures a 0.0053191
voitures car 0.3333333
passé spent 0.3750000
passé past 0.3333333
passé known 0.1250000
passé happened 0.2000000
aider helping 0.5000000
arrivera happen 0.1666667
arrivera won 0.1000000
pauvreté poverty 0.5000000
Pressez-vous up 0.0400000
Pressez-vous Hurry 0.2000000
un wasted 0.2500000
un step 0.5000000
un someday 0.4444444
un send 0.1250000
un desire 0.5000000
un prison 1.0000000
un someone 0.5000000
un somebody 0.5000000
un poem 0.5000000
un wrong 1.0000000
un one 0.1304348
un an 0.5000000
un either 0.2000000
un innocent 0.2500000
un NULL 0.0098280
un a 0.4680851
un tools 0.5000000
un ambiguous 0.5000000
scientifiques breakthroughs 0.5000000
se are 0.0116279
se man 0.1666667
se fighting 0.2000000
se delight 0.3333333
se to 0.0030581
se advocating 0.5000000
se use 0.2500000
se up 0.0400000
se masturbate 0.2500000
se NULL 0.0098280
se breed 0.3333333
se realize 0.3333333
se err 0.5000000
se meeting 0.5000000
se happen 0.1666667
se arguing 0.3333333
se spread 0.5000000
se may 0.3076923
se ocean 0.2500000
se wake 0.2500000
se behaving 0.5000000
se began 0.5000000
se players 0.3333333
se happens 0.2727273
se drift 0.1428571
se volunteered 1.0000000
se wondered 0.3333333
se marry 0.3636364
se yields 0.5000000
voulez to 0.0122324
voulez want 0.0909091
exclama-t-il exclaimed 0.2500000
arrive from 0.0312500
arrive can 0.0266667
arrive happen 0.1666667
arrive happens 0.0909091
but point 0.2000000
but a 0.0106383
but purpose 0.3333333
Sudoku then 0.0909091
Sudoku play 0.2500000
Sudoku Sudoku 1.0000000
pronounce pronounce 0.5000000
courroux wrath 1.0000000
Réfléchissons Let 0.1250000
Réfléchissons consider 0.2500000
Réfléchissons &apos;s 0.0075758
augmenté increased 0.5000000
réfuter refute 1.0000000
réfuter to 0.0030581
équivaut is 0.0056818
équivaut the 0.0035088
équivaut wanting 0.3333333
usurper usurp 1.0000000
fragile fragile 1.0000000
nouvelle new 0.1818182
trouvé found 0.1111111
dû should 0.1176471
dû logged 1.0000000
dû have 0.0200000
rédaction essay 0.6666667
Beaucoup Many 0.5000000
sérieux seriously 0.5000000
qualités qualities 1.0000000
viens come 0.1428571
viens said 0.0769231
viens Just 0.5000000
viens just 0.0400000
important important 0.5000000
important anymore 0.1250000
10 10 1.0000000
10 Ten 1.0000000
dormir sleep 0.5384615
dormir bed 0.1428571
dormir to 0.0061162
partout all 0.0909091
partout politicians 0.3333333
partout over 0.1333333
est came 0.1250000
est died 0.5000000
est somewhat 0.5000000
est do 0.0149254
est down 0.3333333
est can 0.0133333
est welcome 0.2000000
est NULL 0.0122850
est built 0.3333333
est &apos;re 0.0250000
est got 0.1428571
est are 0.0697674
est ; 0.0769231
est lies 0.2500000
est because 0.0312500
est Is 0.3000000
est is 0.7500000
est &apos;s 0.4393939
est isn 0.1666667
est apologized 0.3333333
est impossible 0.1666667
univers universe 1.0000000
réprouvait severely 1.0000000
pourrais call 0.2500000
pourrais could 0.1428571
Faites-moi Let 0.1250000
apprises learned 0.1000000
crève &apos;m 0.0185185
abandonne give 0.1111111
abandonne up 0.0400000
vivent live 0.0769231
lancer throw 1.0000000
acclamé acclaimed 1.0000000
années years 0.2222222
années 1950 0.5000000
différents no 0.0454545
différents different 0.2500000
voyons see 0.0833333
restent-ils left 0.1111111
vos names 0.5000000
vos what 0.0156250
suffisamment enough 0.3333333
suffisamment simple 0.1666667
Ouvre Open 0.5000000
décrivait painted 1.0000000
lunettes glasses 1.0000000
consacre spend 0.5000000
magique magic 0.5000000
magique sword 1.0000000
ça takes 0.5000000
ça why 0.1666667
ça that 0.0595238
ça life 0.0303030
ça it 0.1538462
ça how 0.1000000
ça phrased 0.1666667
ça do 0.0149254
ça mean 0.0909091
ça this 0.1500000
ça kind 0.3333333
ça NULL 0.0073710
alors praising 0.3333333
alors what 0.0156250
alors so 0.0689655
alors then 0.2727273
alors , 0.0044843
courriels email 0.1250000
internet Internet 0.3333333
internet the 0.0035088
internet website 0.2000000
traverser across 1.0000000
crédulité credulity 0.5000000
marschmallow marshmallow 0.5000000
manges-tu you 0.0033445
manges-tu eat 0.1428571
tombées fell 0.3333333
tombées on 0.0243902
divulguer telling 0.2500000
divulguer everybody 0.5000000
vieux late 0.3636364
vieux dude 0.3333333
vieux old 0.3333333
ruinent ruining 1.0000000
ruinent are 0.0116279
prête ready 0.2500000
souriant a 0.0106383
souriant with 0.0540541
souriant smile 0.4000000
autant many 0.0476190
autant so 0.0344828
autant With 0.3333333
connaissez know 0.0344828
Pierre A 0.0909091
Pierre rolling 1.0000000
Pierre stone 0.5000000
Après After 1.0000000
sais &apos;t 0.0062893
sais knew 0.5000000
sais know 0.3103448
sais cannot 0.0714286
influencé influenced 0.5000000
étayer substantiate 1.0000000
nourriture drink 0.2500000
nourriture food 0.3333333
fidèles fans 1.0000000
orange juice 0.5000000
veulent want 0.0227273
veulent only 0.0500000
veulent to 0.0030581
faudrait be 0.0250000
faudrait should 0.0588235
facilement easily 0.6666667
santé health 1.0000000
Toute Every 0.3333333
disparu gone 0.3333333
disparu disappeared 0.5000000
fallait overthrown 0.5000000
Voudrais-tu like 0.0238095
Voudrais-tu you 0.0033445
Voudrais-tu Would 0.5000000
web &apos;s 0.0151515
web layout 0.6666667
surpris ; 0.0384615
surpris guard 1.0000000
surpris surprised 0.2000000
intriguant intriguing 1.0000000
. I. 0.5000000
. ! 0.0412371
. . 0.9570025
. Eichler 0.5000000
guimauve marshmallow 0.5000000
prendre to 0.0061162
prendre take 0.1250000
Avec With 0.6666667
Avec You 0.0169492
intérêt interest 0.3333333
intérêt personal 0.5000000
intérêt purpose 0.3333333
Quel What 0.0540541
forme form 0.6666667
forme shape 0.5000000
devait anyone 0.1111111
remarques by 0.0714286
remarques Spenser 0.1428571
remarques Sherlock 0.3333333
remarques sarcastic 0.5000000
aujourd&apos; today 0.3333333
aujourd&apos; that 0.0119048
aujourd&apos; up 0.0400000
aujourd&apos; else 0.1250000
particulier especially 0.5000000
attends expect 0.1250000
attends Don 0.0666667
comprend understands 0.5000000
Rome Rome 1.0000000
Rome wasn 0.2000000
peut phrased 0.1666667
peut appear 0.5000000
peut may 0.3076923
peut NULL 0.0049140
peut can 0.2266667
peut cannot 0.2857143
peut be 0.0375000
classe class 0.6000000
classe NULL 0.0024570
arrêt train 0.1428571
arrêt stops 0.5000000
Puis-je I 0.0054201
Puis-je May 1.0000000
autrefois once 0.3333333
lent slowest 0.5000000
lent one 0.0434783
ceintures seat 1.0000000
» &quot; 0.1556886
voulait should 0.0588235
voulait with 0.0270270
voulait wanted 0.1250000
montrer showing 0.5000000
peu bit 1.0000000
peu little 0.4000000
phrases sentences 0.8333333
plein full 0.3333333
plein ran 0.3333333
plein plenty 1.0000000
sentence death 0.5000000
sentence sentence 0.5000000
dites via 0.3333333
porter first 0.3333333
voir stagnant 0.5000000
voir visit 0.5000000
voir see 0.3333333
voir death 0.5000000
voir have 0.0100000
intriguent intrigue 0.3333333
ai-je do 0.0149254
ai-je have 0.0100000
ai-je you 0.0100334
ai-je options 0.5000000
appellerai call 0.2500000
appellerai them 0.0476190
Vince Vince 1.0000000
Parles-tu speak 0.1111111
Parles-tu Do 0.0833333
paraît seems 0.3333333
paraît to 0.0030581
acte reprehensible 1.0000000
pied school 0.0909091
pied me 0.0125000
regarde look 0.2500000
regarde roommate 0.3333333
regarde watching 1.0000000
regarde is 0.0113636
regarde , 0.0044843
m&apos; NULL 0.0024570
m&apos; took 0.3333333
m&apos; sorry 0.2500000
m&apos; told 0.0588235
m&apos; having 0.2500000
m&apos; care 0.2222222
m&apos; opened 0.3333333
m&apos; abandon 0.5000000
m&apos; almost 0.1250000
m&apos; made 0.1538462
m&apos; Jack 0.2000000
m&apos; help 0.5000000
m&apos; found 0.1111111
m&apos; listened 0.5000000
m&apos; helping 0.5000000
m&apos; intrigue 0.3333333
m&apos; me 0.2125000
m&apos; letters 0.2000000
m&apos; boat 0.3333333
m&apos; lower 0.5000000
m&apos; &apos;ll 0.1666667
m&apos; caught 1.0000000
copains friends 0.0714286
bataille battle 1.0000000
marie marry 0.1818182
fuir away 0.1250000
fuir running 0.3333333
cool cool 0.6666667
Irak Iraq 1.0000000
genre sort 1.0000000
aura will 0.0227273
aura via 0.3333333
école school 0.2727273
Willie answered 1.0000000
retard late 0.0909091
leur Their 1.0000000
leur proof 0.3333333
leur them 0.3333333
leur their 0.3809524
leur released 0.5000000
leur outrageous 0.3333333
leur daily 0.5000000
litres liters 1.0000000
tard late 0.2727273
tard later 0.5000000
étrangères languages 0.5000000
Excusez-moi Excuse 1.0000000
montre shows 0.5000000
Regarde-moi at 0.0217391
Regarde-moi Look 0.5000000
Regarde-moi me 0.0125000
, rich 0.2000000
, sick 0.2000000
, hot 0.1428571
, ; 0.3461538
, now 0.0833333
, or 0.0909091
, math 0.0833333
, like 0.0476190
, 18th 0.2000000
, NULL 0.0319410
, inch 0.3333333
, far-fetched 0.2000000
, Sadly 0.5000000
, Rachel 0.3333333
, spiders 0.2500000
, conviction 0.3333333
, shopping 0.2500000
, , 0.8878924
, meet 0.2857143
, even 0.0909091
, he 0.0800000
, So 0.1000000
, . 0.0159705
là-bas not 0.0140845
là-bas there 0.0204082
feras do 0.0149254
anarchiste anarchist 1.0000000
rempli filled 0.3333333
va matter 0.2000000
va NULL 0.0024570
va land 0.5000000
va going 0.1739130
va is 0.0113636
va how 0.1000000
va will 0.1136364
va are 0.0116279
va the 0.0035088
va &apos;s 0.0227273
va &apos;re 0.0250000
vu demonstrate 0.3333333
vu saw 0.5000000
carte credit 1.0000000
carte card 0.2000000
carte identity 1.0000000
clé question 0.1428571
clé key 0.5000000
possédait owned 1.0000000
possédait &apos;s 0.0075758
orchestre orchestra 1.0000000
pensent think 0.1250000
escrocs Con 0.5000000
escrocs artists 0.2500000
Katja Katja 1.0000000
rapide enough 0.1666667
foi faith 0.5000000
trop lot 0.1250000
trop redundant 0.3333333
trop much 0.0909091
trop bored 0.5000000
trop NULL 0.0024570
trop so 0.1034483
trop too 0.9333333
détesté hated 0.5000000
détesté who 0.0344828
devant before 0.1666667
travail work 0.5000000
travail job 0.6666667
travail very 0.0625000
commet makes 0.5000000
homme wealthy 0.5000000
homme man 0.6666667
! Good 0.2500000
! ! 0.9381443
! . 0.0159705
Appelez Call 0.5000000
sème sow 0.2000000
semble looks 0.2000000
semble seems 0.1666667
grand-chose much 0.0454545
grand-chose mean 0.0909091
sensation feeling 1.0000000
calme calm 1.0000000
renvoyés away 0.1250000
renvoyés them 0.0476190
enflammée argument 1.0000000
chambre room 0.5000000
déjeuner lunch 0.2500000
déjeuner break 0.5000000
connu known 0.2500000
n did 0.0434783
n haven 0.3333333
n don 0.0125000
n do 0.0149254
n child 0.3333333
n NULL 0.0024570
n ’ 0.3333333
n was 0.0181818
n gave 0.1666667
n rich 0.2000000
n are 0.0116279
Amérique America 0.5000000
déshabille undressing 0.2500000
déshabille &apos;m 0.0185185
S&apos; If 0.0434783
S&apos; Please 0.5000000
S&apos; Where 0.1111111
en needed 0.5000000
en NULL 0.0221130
en doing 0.2857143
en oaken 0.5000000
en saying 0.0769231
en looking 0.2500000
en the 0.0035088
en to 0.0122324
en elected 0.1666667
en while 0.0909091
en adopt 0.5000000
en won 0.1000000
en country 0.2500000
en into 0.1428571
en been 0.1666667
en going 0.0434783
en late 0.0909091
en king 0.1250000
en smile 0.4000000
en by 0.1428571
en blame 0.2500000
en care 0.2222222
en did 0.0434783
en from 0.0312500
en furious 0.5000000
en leave 0.2500000
en resorted 0.2500000
en holiday 0.5000000
en talk 0.1250000
en especially 0.5000000
en face-to-face 0.1666667
en game 0.2500000
en as 0.0833333
en in 0.2183908
en &apos;t 0.0062893
en on 0.0243902
en take 0.0625000
en you 0.0100334
en at 0.0652174
croiront believe 0.0833333
croiront will 0.0227273
lettres letters 0.2000000
sélectionnés will 0.0227273
étonner wonder 0.1111111
manquait she 0.0666667
manquait lacked 1.0000000
fétiches numbers 0.3333333
voix voice 1.0000000
affecte affects 0.3333333
donc sea 0.5000000
donc NULL 0.0024570
donc so 0.1034483
donc what 0.0156250
donc therefore 1.0000000
entier worldwide 1.0000000
table oaken 0.5000000
étude study 0.1428571
artistes artists 0.2500000
artistes Pop 0.5000000
sécurité belts 0.5000000
analysé analyzed 1.0000000
gouvernementaux officials 1.0000000
évidence the 0.0035088
évidence obvious 0.5000000
politicien politician 0.5000000
soutenait maintained 1.0000000
qu John 0.3333333
qu expecting 0.1428571
qu tyrant 0.2500000
qu that 0.0238095
qu techniques 0.3333333
qu teacher 0.2500000
qu what 0.0312500
qu NULL 0.0073710
amie friend 0.5000000
ainsi been 0.1666667
ainsi it 0.0096154
ainsi has 0.0714286
ainsi way 0.0833333
retient keeps 0.1666667
ménage cleaning 0.5000000
article news 0.3333333
article above 1.0000000
contraire contrary 0.7500000
contraire the 0.0070175
coûtera cost 0.3333333
coûtera will 0.0227273
magistral lecture 0.3333333
magistral may 0.0769231
pleuvoir rain 1.0000000
d&apos; door 0.2000000
d&apos; else 0.2500000
d&apos; have 0.0100000
d&apos; your 0.0384615
d&apos; money 0.1111111
d&apos; responsible 0.5000000
d&apos; close 0.4000000
d&apos; of 0.1461538
d&apos; making 0.2000000
d&apos; according 0.5000000
d&apos; intend 0.2500000
d&apos; equality 0.5000000
d&apos; from 0.0937500
d&apos; children 0.2500000
d&apos; difficult 0.4285714
d&apos; educated 0.2500000
d&apos; discovery 0.3333333
d&apos; glad 0.5000000
d&apos; usage 0.5000000
d&apos; where 0.2500000
d&apos; ideals 0.1428571
d&apos; mistakes 0.1666667
d&apos; planning 0.3333333
d&apos; to 0.0519878
d&apos; practical 0.3333333
d&apos; fasten 0.5000000
d&apos; near 0.3333333
d&apos; phrased 0.1666667
d&apos; juice 0.2500000
d&apos; card 0.2000000
d&apos; Revolutionary 0.5000000
d&apos; NULL 0.0049140
d&apos; balance 0.5000000
décide decide 0.5000000
études study 0.1428571
études like 0.0238095
compliquée machine 0.5000000
compliquée complicated 0.3333333
compliquée ; 0.0384615
donner give 0.1111111
devines can 0.0133333
devines guess 1.0000000
mathématique mathematical 0.3333333
J I 0.0243902
sources sources 0.3333333
acheté bought 0.5000000
Pourriez-vous Could 0.5000000
consacrés dedicated 1.0000000
Qu&apos; What 0.4054054
sois be 0.0250000
sois worry 0.5000000
sois antisocial 0.2500000
détruire it 0.0096154
détruire destroy 0.5000000
envoient skin 0.5000000
envoient send 0.1250000
produire produce 1.0000000
grâce gracefully 0.5000000
données data 1.0000000
mariage wedding 1.0000000
venus resorted 0.2500000
sujet about 0.0270270
sujet volatile 1.0000000
sonne ringing 1.0000000
sonne is 0.0113636
désordre a 0.0053191
désordre mess 0.3333333
seul only 0.0500000
seul alone 0.2500000
seul defect 0.2000000
formation formation 1.0000000
scrute scrutinizes 0.3333333
virtuose virtuoso 0.5000000
virtuose skills 0.2500000
Londres London 0.5000000
rire laughing 0.5000000
folle idea 0.0769231
manques you 0.0033445
manques miss 0.1000000
commencèrent began 0.5000000
tirent advantage 0.5000000
tirent artists 0.2500000
heure hour 0.6666667
fais dream 0.2500000
fais &apos;re 0.0250000
fais referring 0.2500000
fais &apos;m 0.0555556
fais doing 0.1428571
fais just 0.0800000
As-tu Did 0.2307692
As-tu have 0.0300000
As-tu you 0.0334448
As-tu Have 0.7500000
As-tu Do 0.3333333
vaut Better 0.3333333
vaut whole 0.2000000
coupable guilty 1.0000000
coupable convicted 0.2000000
coupable man 0.1666667
devrait be 0.0125000
devrait should 0.2352941
cela does 0.2500000
cela it 0.0288462
cela NULL 0.0024570
cela that 0.0119048
binaire binary 0.2500000
binaire , 0.0044843
régimes one 0.0434783
arrivons-nous arrive 0.2500000
arrivons-nous we 0.0400000
anniversaire &apos;s 0.0151515
anniversaire birthday 0.4285714
signes signs 1.0000000
écrit written 0.3333333
douze twelve 1.0000000
bibliothèque library 1.0000000
tuer kill 0.2500000
transformer transform 0.5000000
Regardez-moi me 0.0125000
Regardez-moi Look 0.5000000
Regardez-moi at 0.0217391
demandais wondering 0.5000000
demandais was 0.0181818
trouille out 0.0833333
depuis the 0.0035088
depuis anything 0.0714286
depuis in 0.0114943
depuis sunset 0.2500000
depuis since 0.4000000
garer park 1.0000000
prochaine week 0.2000000
chaud hot 0.5714286
chaud today 0.0833333
chaud chocolate 0.5000000
fil over 0.0666667
deux both 0.3333333
deux two 0.8571429
durant in 0.0114943
durant lives 0.1250000
apprécié mysterious 0.2000000
mettaient made 0.0769231
ceux those 0.4285714
commencé yet 0.6666667
commencé even 0.0909091
commencé started 0.2000000
commencé begun 0.5000000
suggèrent suggest 1.0000000
fou crazy 0.6000000
fou mad 0.3333333
fou beside 1.0000000
reflètent reflected 1.0000000
reflètent are 0.0116279
propre own 0.6666667
tua killed 0.5000000
souhaite wishes 0.5000000
ans six 0.5000000
ans years 0.5555556
ans 20 0.5000000
répandue belief 0.5000000
1978 1978 1.0000000
aller drift 0.1428571
aller go 0.5789474
aller to 0.0336391
aller planning 0.3333333
aller walk 1.0000000
cette crazy 0.2000000
agencement changed 0.1000000
talents skills 0.2500000
compensatoire ability 0.5000000
lève raise 0.5000000
tourne revolve 1.0000000
Si If 0.9130435
niveau level 1.0000000
joue plays 0.6666667
joue play 0.2500000
statue of 0.0076923
statue statue 0.5000000
partent leave 0.2500000
appelle name 0.3333333
appelle is 0.0056818
appelle My 0.0500000
appelle Jack 0.2000000
appelle objective 0.3333333
écoles schools 1.0000000
écoles from 0.0312500
reproduisent breed 0.3333333
reproduisent don 0.0125000
encore rectifying 0.5000000
encore sandwiches 0.6666667
encore it 0.0096154
encore still 0.6153846
encore begun 0.5000000
encore harder 0.2500000
capricieux capricious 1.0000000
du sunny 0.5000000
du testimony 0.3333333
du NULL 0.0024570
du analysis 0.3333333
du city 0.5000000
du effects 0.5000000
du card 0.2000000
du grim 0.5000000
du subjects 0.3333333
du orange 0.2500000
du sunset 0.2500000
du Back 0.2500000
du time 0.1111111
du of 0.0230769
du the 0.0701754
du depravity 0.5000000
du piano 0.4000000
du importance 0.5000000
du sleep 0.0769231
du five 0.3333333
du decorum 0.2500000
du statue 0.5000000
du himself 0.5000000
du schedule 0.2857143
du at 0.0434783
du noise 0.2500000
du depends 0.3636364
du diets 0.5000000
rébellion NULL 0.0024570
apporté brought 0.3333333
rêver me 0.0125000
rêver dream 0.2500000
rêver make 0.0555556
renverser be 0.0125000
renverser overthrown 0.5000000
Bonjour Good 0.7500000
Bonjour day 0.0833333
Bonjour morning 0.3333333
attentionnée nature 1.0000000
voyageur traveller 0.5000000
écrasa crashed 0.3333333
comportaient NULL 0.0024570
trouillard coward 0.5000000
arbitraire selection 0.2500000
arbitraire arbitrary 0.5000000
intéressant interesting 0.6000000
tomber fall 0.5000000
dépendra depends 0.0909091
dépendra on 0.0243902
écria-t-il exclaimed 0.2500000
aveugles people 0.0243902
aveugles Blind 0.5000000
dents teeth 1.0000000
volé stole 0.5000000
tête NULL 0.0024570
tête mind 0.3333333
tête headache 0.1250000
lecteur reader 1.0000000
y going 0.0869565
y there 0.3265306
y mention 0.2500000
y about 0.0540541
y NULL 0.0049140
y There 0.4516129
y do 0.0298507
y are 0.0930233
y gonna 0.2000000
y including 1.0000000
y &apos;s 0.1060606
y while 0.1818182
y long 0.1212121
mère mother 1.0000000
Euh Uh 1.0000000
grande great 0.3750000
grande greatest 0.5000000
via email 0.2500000
via via 0.3333333
déjà light 0.1666667
déjà already 1.0000000
déjà ever 0.4000000
dois must 0.1428571
dois to 0.0030581
dois have 0.0900000
las tired 0.1000000
Ils People 0.1428571
Ils They 0.5000000
colère furious 0.5000000
Français people 0.0243902
Français French 0.2500000
chinois Chinese 0.5000000
médicaux medical 0.5000000
afin mosquitoes 1.0000000
innocence Innocence 0.5000000
superficiels writing 0.5000000
beaucoup it 0.0192308
beaucoup a 0.0106383
beaucoup very 0.1250000
beaucoup lot 0.5000000
beaucoup many 0.1428571
beaucoup much 0.3636364
seront selected 0.5000000
plans plans 1.0000000
côtés side 0.3333333
côtés ; 0.0384615
pauvre Poor 0.3333333
génération generation 1.0000000
point foolish 1.0000000
environnement sustainability 0.2000000
pierres stones 0.5000000
Joyeux Merry 1.0000000
continue doesn 0.0454545
continue keep 0.1428571
emails email 0.1250000
pseudo-science pseudo-science 1.0000000
perspicace enough 0.1666667
T&apos; Did 0.1538462
T&apos; Hello 0.5000000
T&apos; You 0.1355932
doivent to 0.0091743
doivent get 0.0588235
doivent have 0.0300000
trône throne 1.0000000
stupide thing 0.1000000
stupide stupid 0.2857143
stupide stupidest 0.2500000
tel way 0.0833333
tel the 0.0035088
créationnisme Creationism 0.5000000
Malheureusement Sadly 0.5000000
Finnois cited 1.0000000
barbe-à-papa machine 0.5000000
portefeuille wallet 1.0000000
alunir the 0.0035088
alunir moon 0.5000000
alunir on 0.0243902
sommaire examination 1.0000000
Cela It 0.0476190
simple Only 0.5000000
simple simple 0.8333333
simple mere 1.0000000
emploi a 0.0053191
emploi schedule 0.2857143
avantage advantage 0.5000000
avantage take 0.0625000
délectent delight 0.3333333
délectent in 0.0114943
libération release 1.0000000
budget national 1.0000000
voisin door 0.2000000
voisin next 0.3333333
refuser refused 0.3333333
périrons will 0.0227273
périrons perish 1.0000000
meurt dies 1.0000000
meurt die 0.3333333
chimiques such 0.1428571
chimiques chemicals 0.5000000
détail detail 1.0000000
voyez see 0.0833333
eau water 0.6666667
qualité quality 1.0000000
lavage washing 1.0000000
optimale length 0.3333333
optimale optimum 0.5000000
histoires stories 0.5000000
que you 0.1070234
que consider 0.2500000
que what 0.2343750
que said 0.0769231
que want 0.0454545
que Maybe 0.3333333
que Because 0.2500000
que just 0.1600000
que lies 0.2500000
que Whenever 0.3333333
que that 0.4404762
que think 0.3437500
que endorphins 0.3333333
que than 0.6250000
que since 0.6000000
que anyone 0.1111111
que say 0.1578947
que mean 0.0909091
que antisocial 0.2500000
que thinker 0.5000000
que expect 0.3750000
que those 0.1428571
que letters 0.2000000
que winner 0.5000000
que fifty 0.2500000
que but 0.0322581
que though 0.1250000
que says 0.3076923
que understanding 1.0000000
que beliefs 0.2500000
que anything 0.1428571
que which 0.0588235
que into 0.0714286
que because 0.2812500
que suppose 0.4000000
que nobody 0.5000000
que regardless 0.3333333
que thing 0.3000000
que thought 0.2857143
que discovered 0.5000000
que existed 0.5000000
que NULL 0.0859951
que saying 0.3076923
que only 0.2000000
produit makes 0.5000000
trompant cheating 0.5000000
trompant them 0.0476190
trompant on 0.0243902
enlevant taking 0.5000000
gèle next 0.3333333
gèle freeze 0.3333333
regardé watched 0.5000000
têtes monkey 1.0000000
savez know 0.0344828
aimerais I 0.0027100
aimerais wish 0.5000000
aimerais could 0.0714286
aimerais &apos;d 0.3333333
aimerais like 0.0476190
poésie filled 0.3333333
l do 0.0298507
l the 0.0070175
l afternoon 0.5000000
l which 0.0588235
reproduire it 0.0096154
reproduire reproduce 0.5000000
personne person 0.5714286
personne nobody 0.5000000
personne whom 1.0000000
personne flawed 0.2500000
personne no 0.0909091
personne anyone 0.1111111
accorde tuning 1.0000000
accorde up 0.0400000
amassé up 0.0400000
amassé ran 0.3333333
déconnecter off 0.3333333
faisaient did 0.0434783
vieil old 0.3333333
vieil benevolent 1.0000000
pièce room 0.5000000
pièce most 0.1000000
Même Even 1.0000000
marche that 0.0119048
marche working 0.5000000
marche &apos;s 0.0075758
courtisans sycophants 0.2857143
téléphone telephone 0.5000000
téléphone phone 0.6666667
sait know 0.0344828
sait If 0.0434783
oublieras about 0.0270270
oublieras forget 0.5000000
oui Yes 0.5000000
Souris Smile 1.0000000
retenue constraint 1.0000000
Aujourd&apos; today 0.0833333
Aujourd&apos; Today 0.4000000
désir the 0.0035088
désir desire 0.5000000
bouteille bottles 0.3333333
mémorisation memorization 1.0000000
lis-le read 0.2000000
lis-le it 0.0096154
compris anonymous 1.0000000
compris misunderstood 0.3333333
compris understood 1.0000000
mares pools 0.5000000
achète buys 0.3333333
achète would 0.0277778
achète buy 0.2000000
éternellement forever 0.3333333
ferais would 0.0555556
incendie conflagration 1.0000000
pourrait might 0.5000000
pourrait could 0.2857143
regretter regretting 0.5000000
sérieusement though 0.1250000
sérieusement have 0.0100000
certain certain 0.5000000
couples couples 1.0000000
ferai do 0.0149254
ferai &apos;ll 0.0833333
ligne game 0.2500000
ligne challenges 0.5000000
peluche plushy 1.0000000
pouvait could 0.0714286
bagarres fights 0.5000000
turbulences turbulence 1.0000000
Ca depends 0.0909091
Ca all 0.0454545
Ca It 0.0119048
Ca This 0.0454545
rencontrés met 0.2500000
est-elle is 0.0056818
venant train 0.1428571
venant from 0.0312500
tellement so 0.2413793
tellement much 0.1363636
tellement sad 0.3333333
tellement of 0.0076923
épelles-tu spell 0.5000000
épelles-tu do 0.0149254
épelles-tu you 0.0033445
télé a 0.0053191
télé TV 0.6000000
célèbre famous 0.3333333
obtint got 0.1428571
éternité forever 0.3333333
éternité eternity 0.5000000
nerfs nerves 0.5000000
nerfs my 0.0151515
élèves the 0.0035088
élèves students 0.6666667
élèves papers 0.5000000
élèves &apos; 0.3333333
avez-vous did 0.1304348
avez-vous have 0.0100000
avez-vous close 0.2000000
avez-vous you 0.0133779
genoux my 0.0151515
genoux knees 1.0000000
cinquante fifty 0.2500000
cinquante and 0.0178571
frères brothers 0.5000000
frères siblings 0.2500000
L&apos; lonely 0.2500000
L&apos; Imagination 0.5000000
L&apos; The 0.0967742
L&apos; Education 0.5000000
L&apos; Love 0.5000000
L&apos; Innocence 0.5000000
L&apos; America 0.5000000
L&apos; Italy 0.5000000
normal person 0.1428571
normal normal 1.0000000
après-midi chatting 0.2500000
après-midi whole 0.2000000
après-midi afternoon 0.5000000
Que What 0.1081081
Dépêche-toi up 0.0800000
Dépêche-toi Hurry 0.4000000
pensé thought 0.1428571
sortir out 0.0833333
sortir get 0.0588235
sortir with 0.0270270
sortir should 0.0588235
intéressante interesting 0.2000000
amené led 0.5000000
espérez expect 0.1250000
espérez Don 0.0666667
repassage ironing 1.0000000
repassage at 0.0217391
liés linked 0.5000000
font making 0.0666667
font do 0.0149254
font &apos;re 0.0250000
font show 0.3333333
font children 0.1250000
partir go 0.0526316
partir a 0.0053191
partir on 0.0243902
prof teacher 0.2500000
prof physics 0.3333333
train saying 0.2307692
train doing 0.4285714
train train 0.4285714
train looking 0.2500000
train stops 0.5000000
seules useful 0.3333333
seules only 0.0500000
seules alone 0.1250000
James James 1.0000000
dite said 0.0769231
inspiration inspiration 1.0000000
nouvelles news 0.3333333
nouvelles ones 1.0000000
nouvelles new 0.1818182
craignant fearing 1.0000000
accepte accept 1.0000000
pars left 0.1111111
histoire such 0.1428571
histoire story 0.8333333
fait is 0.0113636
fait pancakes 0.3333333
fait Did 0.1538462
fait three 0.2500000
fait &apos;s 0.0303030
fait done 0.1666667
fait did 0.0869565
fait do 0.0149254
fait a 0.0106383
fait light 0.1666667
fait NULL 0.0073710
fait intentionally 0.2000000
fait pranking 0.2000000
fait made 0.0769231
fait almost 0.2500000
fait hot 0.1428571
fait logical 0.3333333
fait has 0.0714286
fait for 0.0156250
jours-ci days 0.2500000
lorsqu when 0.0400000
déranger bother 0.5000000
privées of 0.0076923
privées the 0.0035088
privées universities 0.3333333
mis except 0.1428571
pendant online 0.2500000
pendant lives 0.1250000
pendant fought 0.3333333
pendant train 0.1428571
pendant during 0.2500000
pendant while 0.2727273
pendant in 0.0229885
ni neither 1.0000000
ni nor 1.0000000
mains my 0.0151515
mains hands 1.0000000
autour around 0.4285714
pure absolute 1.0000000
signifient don 0.0125000
propos about 0.0540541
formelle writing 0.5000000
position lesser 0.5000000
interprétées misinterpreted 0.5000000
dissimulait was 0.0181818
responsables the 0.0035088
dingue crazy 0.2000000
dingue driving 0.2000000
dingue me 0.0125000
intéressantes interesting 0.2000000
rancoeur rancor 1.0000000
perdre lose 0.6000000
facultés colleges 1.0000000
facultés private 1.0000000
allumer light 0.1666667
liberté freedom 0.5000000
liberté consists 0.5000000
critiquer criticizing 0.5000000
partie part 0.5000000
Guerre Cold 1.0000000
chimie chemistry 0.5000000
parfois he 0.0200000
parfois develop 0.3333333
parfois difficulties 0.3333333
peau skin 0.5000000
vas going 0.0869565
oreille , 0.0044843
oreille ear 0.2500000
réponse answer 0.5714286
conçues designed 0.3333333
excuse &apos;m 0.0185185
excuse sorry 0.2500000
concentrer concentrate 0.3333333
plaisir welcome 0.2000000
plaisir &apos;re 0.0250000
dépit Trang 0.2500000
dépit &apos;s 0.0075758
dépit constant 1.0000000
guerre Revolutionary 0.5000000
guerre war 1.0000000
emmènera away 0.2500000
emmènera far 0.6666667
télégramme telegram 1.0000000
malheureusement unfortunately 1.0000000
critiques delight 0.3333333
êtes &apos;re 0.0500000
êtes famous 0.3333333
êtes are 0.0116279
êtes aren 0.1428571
nouvel new 0.0909091
expert expert 1.0000000
Est-ce Can 0.5000000
Est-ce Do 0.3333333
Est-ce Is 0.5000000
Est-ce Could 0.5000000
Est-ce Are 0.1739130
Moi So 0.2000000
Moi do 0.0298507
Moi candlelight 0.0625000
Moi sow 0.2000000
arrêtent keep 0.1428571
semaine week 0.6000000
forces strengths 0.5000000
intelligence intelligence 1.0000000
réalité true 0.1250000
Pourquoi Why 0.9230769
nombres Prime 0.5000000
nombres numbers 0.3333333
Warcraft Warcraft 1.0000000
commença started 0.2000000
après From 0.3333333
après according 0.5000000
après after 1.0000000
pris took 0.3333333
pris air 1.0000000
pris put 0.3333333
pris made 0.0769231
pris acted 0.5000000
fit politician 0.5000000
rencontrer meet 0.2857143
rencontrer to 0.0061162
rencontrer You 0.0338983
XXIe century 0.5000000
XXIe 21st 0.5000000
Spenser often 0.1250000
Spenser remarks 0.2500000
Spenser Spenser 0.4285714
religieux zealots 1.0000000
religieux religious 0.4000000
religieux boys 0.1666667
fierté pride 1.0000000
devront have 0.0100000
ces Madrid 1.0000000
ces those 0.2857143
ces these 1.0000000
Sherlock cryptic 1.0000000
Grouille up 0.0400000
Grouille Hurry 0.2000000
saison favorite 1.0000000
effet effects 0.5000000
farce her 0.1428571
farce pranking 0.2000000
farce him 0.0370370
farce prank 0.2500000
signaler point 0.2000000
signaler out 0.0833333
signaler allow 0.3333333
moyen way 0.0833333
plus easier 0.5000000
plus either 0.2000000
plus slowest 0.5000000
plus best 0.1250000
plus later 0.5000000
plus NULL 0.0122850
plus anymore 0.6250000
plus easiest 0.5000000
plus ask 0.0909091
plus greatest 0.5000000
plus stupidest 0.2500000
plus greater 1.0000000
plus more 0.6875000
plus harder 0.3750000
plus most 0.5000000
étudiants students 0.3333333
entretenir keep 0.2857143
entretenir up 0.0800000
difficultés being 0.0909091
difficultés with 0.0270270
difficultés difficulties 0.3333333
écouter listened 0.5000000
écouter to 0.0030581
caches intentionally 0.2000000
flics The 0.0161290
flics cops 0.3333333
bon NULL 0.0024570
bon good 0.5833333
ange angel 1.0000000
venger at 0.0217391
venger get 0.0588235
venger back 0.0666667
auberge youth 1.0000000
mètre cubic 1.0000000
rhétoriques rhetorical 1.0000000
rhétoriques techniques 0.3333333
société society 1.0000000
1000 1000 1.0000000
tempête storm 1.0000000
mariés and 0.0178571
mariés groom 1.0000000
réticence disinclinations 1.0000000
rester going 0.0434783
rester stay 0.1538462
rester stand 0.1000000
changent change 0.2000000
excusé apologized 0.3333333
Farmers Farmers 1.0000000
Trang Trang 0.7500000
Trang , 0.0044843
Trang me 0.0125000
Trang NULL 0.0024570
essayais was 0.0181818
essayais trying 0.1000000
pas unconvinced 0.3333333
pas face-to-face 0.1666667
pas not 0.7605634
pas prodigal 0.2500000
pas matter 0.2000000
pas step 0.5000000
pas loss 0.1428571
pas ’ 0.3333333
pas &apos;t 0.9119497
pas as 0.0416667
pas late 0.0909091
pas arguing 0.3333333
pas wanting 0.3333333
pas no 0.3181818
pas NULL 0.0171990
pas cannot 0.1428571
pas appear 0.5000000
&quot; means 0.6666667
&quot; &quot; 0.6766467
&quot; sow 0.2000000
&quot; harvest 0.3333333
90 over 0.0666667
90 ninety 1.0000000
sûres you 0.0066890
sûres sure 0.1666667
raconterais would 0.0277778
18 18th 0.2000000
18 June 0.2500000
mois months 0.5000000
mois for 0.0156250
information information 0.5000000
entrer Geneva 0.5000000
entrer arrive 0.2500000
entrer at 0.0217391
pourtant yet 0.3333333
pourtant light 0.1666667
pourtant nevertheless 0.3333333
pourtant but 0.0322581
somme sum 1.0000000
persuader cajole 1.0000000
clair clear 0.5000000
lamentable lame 0.5000000
lamentable ; 0.0384615
jours days 0.5000000
jours day 0.0833333
jours Nowadays 0.2500000
commissaire commissioner 1.0000000
prépare make 0.0555556
voit &apos;re 0.0250000
voit meeting 0.5000000
chaussures shoes 1.0000000
raconta me 0.0125000
raconta told 0.0588235
portable laptop 0.5000000
cour yard 0.5000000
grotte cave 1.0000000
grave it 0.0096154
grave bad 0.2500000
rouge red 0.5000000
rouge fridge 0.2000000
sens feel 0.1818182
sens senseless 0.3333333
sens pointless 0.2500000
pensais thought 0.1428571
chef guild 1.0000000
chaise chair 1.0000000
Allemands Germans 1.0000000
rapidement quickly 1.0000000
a. . 0.0012285
a. is 0.0056818
a. has 0.0714286
qui awaiting 0.3333333
qui are 0.0116279
qui that 0.1071429
qui explained 0.2500000
qui made 0.0769231
qui NULL 0.0147420
qui stone 0.5000000
qui influenced 0.2500000
qui play 0.2500000
qui — 0.3333333
qui taxpayers 0.5000000
qui anyone 0.2222222
qui Who 0.1111111
qui person 0.2857143
qui who 0.8965517
qui selected 0.5000000
qui boat 0.3333333
qui keeps 0.3333333
qui matter 0.2000000
qui happens 0.3636364
qui which 0.1764706
qui changes 0.1666667
ton stern 1.0000000
ton your 0.0769231
tant laundry 0.2500000
tant as 0.0833333
tant while 0.1818182
psychologiques tests 1.0000000
psychologiques psychological 1.0000000
gare the 0.0035088
gare station 0.6666667
gare train 0.1428571
gardé with 0.0270270
gardé safe 0.5000000
gardé me 0.0125000
abréger abridge 1.0000000
marcher work 0.5000000
allez-vous you 0.0033445
allez-vous are 0.0116279
allez-vous Did 0.0769231
Maury Maury 0.3333333
Maury Povich 0.5000000
mathématiques Mathematics 0.4285714
sentiments feelings 0.1666667
décrire describe 1.0000000
taciturne individual 1.0000000
essayer trying 0.1000000
fête redundant 0.3333333
fête party 1.0000000
hommes men 0.5000000
mur wall 1.0000000
vérité mathematical 0.3333333
vérité truth 0.7000000
conquérir win 0.5000000
De What 0.1351351
De Nowadays 0.2500000
De welcome 0.2000000
D&apos; First 0.5000000
D&apos; From 0.3333333
accompli achieved 1.0000000
rédactions essays 1.0000000
certaines though 0.1250000
certaines some 0.1250000
Ça That 0.0526316
Ça This 0.2272727
Ça NULL 0.0024570
Ça It 0.1904762
Ça three 0.2500000
Ça I 0.0054201
pleut is 0.0056818
pleut raining 1.0000000
domaine field 1.0000000
Man Man 0.3333333
veux-tu want 0.0454545
veux-tu do 0.0298507
veux-tu you 0.0066890
mangeant eating 0.2500000
yeux eyes 0.5000000
yeux stared 0.3333333
yeux at 0.0217391
robot robot 1.0000000
peine NULL 0.0024570
peine pretending 1.0000000
il while 0.1818182
il rich 0.2000000
il hot 0.1428571
il light 0.1666667
il there 0.3469388
il needed 0.5000000
il weather 0.2222222
il NULL 0.0196560
il impossible 0.1666667
il noises 0.3333333
il it 0.0769231
il he 0.7800000
il freeze 0.3333333
il please 0.2812500
il happened 0.2000000
il Please 0.5000000
dilemme in 0.0114943
celui-ci this 0.1000000
celui-ci one 0.0869565
? ? 0.9941176
ordres monastic 1.0000000
Ferme Close 1.0000000
chanceux lucky 0.2500000
rend Man 0.3333333
rend &apos;s 0.0151515
rend driving 0.4000000
rend realize 0.1666667
sourd deaf 1.0000000
insensée was 0.0181818
corrige-la then 0.0909091
coût cost 0.6666667
disposition changed 0.2000000
occupé making 0.1333333
occupé busy 0.5000000
Dis-leur them 0.0476190
Dis-leur Tell 1.0000000
fans loyal 1.0000000
belle in 0.0114943
belle beautiful 0.5714286
belle city 0.2500000
pilote pilot 1.0000000
idéaux ideals 0.4285714
possible be 0.0125000
possible possible 0.3333333
commence beginning 0.2500000
commence starts 1.0000000
commence begin 0.5000000
commence begins 1.0000000
malade sick 0.4000000
cécité Blindness 0.5000000
journée day 0.3333333
à school 0.0909091
à NULL 0.0319410
à neighbor 0.5000000
à told 0.1176471
à typewriter 0.3333333
à being 0.1818182
à unless 0.3333333
à the 0.0035088
à drink 0.2500000
à to 0.2171254
à trust 0.1250000
à prodigal 0.2500000
à under 0.3333333
à studying 0.3333333
à except 0.1428571
à lottery 1.0000000
à faithful 0.5000000
à believe 0.0833333
à chatting 0.2500000
à filling 0.5000000
à by 0.1428571
à regretting 0.5000000
à idea 0.0769231
à thinking 0.5000000
à malnutrition 0.3333333
à fifty 0.2500000
à instead 0.1428571
à term 0.2500000
à reduced 0.5000000
à sentenced 0.5000000
à about 0.0810811
à concentrate 0.3333333
à charged 1.0000000
à against 0.4000000
à sycophants 0.1428571
à logical 0.3333333
à home 0.2500000
à useless 0.2500000
à candy 0.5000000
à chatterbox 0.3333333
à started 0.4000000
à up 0.0400000
à of 0.0307692
à making 0.2666667
à face-to-face 0.1666667
à ear 0.2500000
à drug 1.0000000
à drift 0.1428571
à around 0.1428571
à headache 0.2500000
à how 0.1000000
à study 0.1428571
à last 0.2857143
à at 0.1956522
à on 0.0731707
à three-headed 0.3333333
à beginning 0.5000000
à as 0.0833333
à banana 0.2857143
migraine migraines 0.5000000
araignées &apos;re 0.0250000
araignées spiders 0.2500000
araignées They 0.1666667
Pendant During 1.0000000
Pendant For 0.2000000
souvenir souvenir 1.0000000
préférée season 1.0000000
rêve dream 0.2500000
Tentons Let 0.1250000
Tentons &apos;s 0.0075758
Tentons try 0.2500000
défie challenges 0.5000000
jouer will 0.0227273
jouer like 0.0238095
jouer cards 0.2500000
jouer playing 1.0000000
fin end 0.3333333
fin astute 1.0000000
fin prom 0.5000000
tes your 0.1153846
sombres somber 0.5000000
racontes about 0.0810811
racontes talking 0.1666667
scolarité schooling 0.5000000
courriel email 0.1250000
courriel which 0.0588235
moi me 0.1750000
moi I 0.0054201
moi am 0.0400000
moi ; 0.0384615
moi welcome 0.2000000
identité for 0.0156250
identité card 0.2000000
l&apos; met 0.2500000
l&apos; adversity 0.5000000
l&apos; college 0.5000000
l&apos; church 0.3333333
l&apos; Gary 0.5000000
l&apos; ear 0.2500000
l&apos; year 0.3333333
l&apos; calling 0.5000000
l&apos; money 0.2777778
l&apos; still 0.0769231
l&apos; Internet 0.3333333
l&apos; shoot 0.5000000
l&apos; Back 0.2500000
l&apos; episode 0.5000000
l&apos; endorphins 0.3333333
l&apos; behavior 0.2500000
l&apos; formal 0.5000000
l&apos; either 0.2000000
l&apos; uncomfortable 0.5000000
l&apos; aspirin 0.5000000
l&apos; explain 0.1818182
l&apos; like 0.0476190
l&apos; stupid 0.1428571
l&apos; love 0.1904762
l&apos; forever 0.3333333
l&apos; outer 1.0000000
l&apos; looks 0.2000000
l&apos; did 0.0434783
l&apos; get 0.0588235
l&apos; feelings 0.1666667
l&apos; sustainability 0.2000000
l&apos; &apos;s 0.0075758
l&apos; education 0.5000000
l&apos; learning 0.2000000
l&apos; information 0.5000000
