does est-ce 0.0882353
do est-ce 0.1470588
did est-ce 0.0294118
NULL est-ce 0.0882353
she est-ce 0.0294118
made est-ce 0.0294118
are est-ce 0.1176471
is est-ce 0.0294118
it est-ce 0.0588235
happened est-ce 0.0294118
eat est-ce 0.0294118
keeps est-ce 0.0294118
What est-ce 0.0882353
isn est-ce 0.0588235
&apos;s est-ce 0.0882353
Who est-ce 0.0588235
verbose bavard 1.0000000
the pertinente 1.0000000
&apos;d veuille 1.0000000
passport passeport 1.0000000
altruistic joueur 1.0000000
which quelle 1.0000000
please vous 0.1621622
trust vous 0.0270270
NULL vous 0.0270270
meet vous 0.0270270
love vous 0.0270270
talk vous 0.0270270
you vous 0.6486486
tell vous 0.0270270
admit vous 0.0270270
new neuf 0.2500000
were neuf 0.2500000
And neuf 0.2500000
they neuf 0.2500000
Open Ouvrez 1.0000000
universities universités 1.0000000
complaining plaindre 0.3333333
your plaindre 0.1666667
any plaindre 0.1666667
of plaindre 0.1666667
more plaindre 0.1666667
spoken parlé 1.0000000
views opinions 1.0000000
out soutirent 0.3333333
their soutirent 0.3333333
swindle soutirent 0.3333333
floor terre 0.5000000
potatoes terre 0.5000000
Lewinsky Lewinsky 1.0000000
continue continuer 0.1666667
keep continuer 0.3333333
on continuer 0.1666667
continuing continuer 0.1666667
strength continuer 0.1666667
station station 1.0000000
papers journaux 1.0000000
unbearable insupportable 1.0000000
heirless héritier 1.0000000
believe croire 1.0000000
miss manquez 0.5000000
you manquez 0.5000000
heights vertige 0.2500000
scared vertige 0.2500000
am vertige 0.2500000
of vertige 0.2500000
just fasse 0.3333333
Whatever fasse 0.3333333
do fasse 0.3333333
one confiance 0.1666667
trust confiance 0.3333333
Trust confiance 0.1666667
me confiance 0.1666667
another confiance 0.1666667
tomorrow réveillait 0.5000000
woke réveillait 0.5000000
acted manière 0.3333333
way manière 0.3333333
drastically manière 0.3333333
secret passage 1.0000000
transient éphémère 1.0000000
The La 0.3333333
Liberty La 0.0277778
Democracy La 0.0277778
Class La 0.0277778
Blindness La 0.0277778
Spenser La 0.0277778
Passion La 0.0277778
Life La 0.3055556
Most La 0.1666667
Justice La 0.0277778
girls annoncèrent 1.0000000
renounce sa 0.0833333
his sa 0.6666667
beliefs sa 0.0833333
caring sa 0.0833333
loud sa 0.0833333
&apos;t tenez 0.3333333
any tenez 0.3333333
take tenez 0.3333333
had avais 0.2000000
swore avais 0.2000000
gave avais 0.2000000
brought avais 0.2000000
was avais 0.2000000
Except Sauf 1.0000000
NULL temps 0.0294118
weather temps 0.0882353
schedule temps 0.0588235
arrive temps 0.0294118
time temps 0.5000000
long temps 0.2941176
dress soirée 1.0000000
to juste 0.3636364
just juste 0.6363636
behaving comporter 1.0000000
Just mais 0.0357143
but mais 0.9642857
Sherlock obscures 0.5000000
Holmes obscures 0.5000000
lame tendu 0.5000000
; tendu 0.5000000
be sera 0.4545455
exactly sera 0.0909091
will sera 0.4545455
girls dirent 0.5000000
told dirent 0.5000000
teacher maître 1.0000000
pie banane 1.0000000
experts musicaux 1.0000000
help empêcher 1.0000000
explained expliqué 0.5000000
at expliqué 0.5000000
my ma 0.9583333
MY ma 0.0416667
dreams peuvent 0.1666667
that peuvent 0.1666667
can peuvent 0.5000000
easily peuvent 0.1666667
solution solution 0.6666667
no solution 0.3333333
know connait 1.0000000
for règles 0.5000000
rules règles 0.5000000
worst pires 0.5000000
the pires 0.5000000
worry inquiet 1.0000000
here ici 1.0000000
about tiens 0.5000000
care tiens 0.5000000
Call Appelle 1.0000000
Viagra viagra 1.0000000
launched lancé 1.0000000
visions réelles 0.5000000
real réelles 0.5000000
it vivre 0.0666667
live vivre 0.6666667
place vivre 0.0666667
kind vivre 0.0666667
be vivre 0.0666667
that vivre 0.0666667
country pays 1.0000000
testimony faux 0.5000000
false faux 0.5000000
way chemin 1.0000000
the machines 0.5000000
selection machines 0.5000000
NULL pelouse 1.0000000
speechless bée 1.0000000
inappropriate déplacé 1.0000000
statement précédente 1.0000000
reduced réduite 1.0000000
among experts 1.0000000
When Dans 0.2500000
In Dans 0.7500000
essential essentielle 1.0000000
do prononces 0.5000000
pronounce prononces 0.5000000
phrase phrase 1.0000000
rectifying et 0.0178571
light et 0.0178571
eight-thirty et 0.0178571
NULL et 0.0178571
self-indulgent et 0.0178571
siblings et 0.0178571
and et 0.8928571
you sûr 0.4444444
sure sûr 0.5555556
Joan Jeanne 1.0000000
always toujours 0.8461538
promise toujours 0.0384615
still toujours 0.1153846
Let Soyons 1.0000000
convicted vendeur 1.0000000
NULL On 0.0588235
past On 0.0588235
Being On 0.0588235
One On 0.1764706
It On 0.2352941
They On 0.0588235
We On 0.2352941
bone On 0.0588235
You On 0.0588235
creates passion 0.5000000
Passion passion 0.5000000
miracles miracles 1.0000000
soldiers soldats 1.0000000
Come Allez 0.5000000
on Allez 0.5000000
is ressemble 0.5000000
like ressemble 0.5000000
ring bague 1.0000000
studying révisions 1.0000000
eleven 11 0.5000000
September 11 0.5000000
just parfaite 0.3333333
defect parfaite 0.3333333
one parfaite 0.3333333
venerate vénèrent 1.0000000
Paris Paris 0.6000000
in Paris 0.2000000
study Paris 0.2000000
find trouver 1.0000000
fridge mot 0.1428571
word mot 0.4285714
consent mot 0.1428571
password mot 0.2857143
asked demanda 1.0000000
often souvent 1.0000000
us écoutez 0.3333333
listen écoutez 0.3333333
to écoutez 0.3333333
noise bruit 1.0000000
keen vif 1.0000000
boyfriend ami 1.0000000
rarely rarement 1.0000000
show allais 0.5000000
were allais 0.5000000
creates crée 1.0000000
heart cœur 1.0000000
monarchs monarques 1.0000000
contentious uns 0.3333333
with uns 0.3333333
each uns 0.3333333
right bonne 0.3333333
solution bonne 0.3333333
good bonne 0.3333333
be malheureux 0.5000000
unhappy malheureux 0.5000000
takes prend 0.3333333
requires prend 0.3333333
NULL prend 0.3333333
aesthetics esthétique 0.5000000
in esthétique 0.5000000
be avoir 0.1176471
have avoir 0.4705882
practical avoir 0.0588235
whenever avoir 0.0588235
pranking avoir 0.0588235
resort avoir 0.0588235
educated avoir 0.0588235
having avoir 0.0588235
should avoir 0.0588235
are a 0.0919540
speaker a 0.0114943
bone a 0.0114943
increased a 0.0229885
influenced a 0.0114943
took a 0.0114943
ran a 0.0114943
NULL a 0.0919540
there a 0.0459770
mention a 0.0114943
told a 0.0114943
sent a 0.0114943
bought a 0.0114943
stole a 0.0229885
&apos;s a 0.1264368
tried a 0.0114943
bite a 0.0229885
is a 0.1034483
disappeared a 0.0114943
has a 0.1149425
almost a 0.0229885
pointless a 0.0114943
audience a 0.0114943
archer a 0.0114943
off a 0.0114943
a a 0.0229885
change a 0.0114943
flawed a 0.0114943
looks a 0.0114943
few a 0.0114943
water a 0.0114943
doesn a 0.0459770
asked a 0.0344828
finally enfin 1.0000000
thrive pop 0.5000000
artists pop 0.5000000
apathy apathie 1.0000000
happen arriver 0.1428571
get arriver 0.1428571
make arriver 0.1428571
it arriver 0.4285714
though arriver 0.1428571
crafty ingénieux 1.0000000
did as-tu 0.4000000
you as-tu 0.6000000
inexperienced investisseurs 1.0000000
high haut 1.0000000
types sortes 1.0000000
said dit-elle 0.5000000
she dit-elle 0.5000000
place charmant 0.5000000
lovely charmant 0.5000000
inquired demanda-t-il 1.0000000
brewery brasserie 1.0000000
intentionally intentionnellement 0.5000000
concealing intentionnellement 0.2500000
hide intentionnellement 0.2500000
interest pour 0.0128205
defect pour 0.0128205
for pour 0.4743590
enough pour 0.0128205
else pour 0.0128205
wearing pour 0.0128205
to pour 0.3974359
why pour 0.0128205
elected pour 0.0128205
best pour 0.0128205
grades pour 0.0128205
lovely pour 0.0128205
wearing première 1.0000000
fun marrant 0.5000000
be marrant 0.5000000
out levé 1.0000000
to conviennent 0.3333333
please conviennent 0.3333333
us conviennent 0.3333333
invented inventé 0.5000000
, inventé 0.5000000
realize rendre 1.0000000
far-fetched cheveux 1.0000000
speech discours 1.0000000
up réveillerai 0.3333333
will réveillerai 0.3333333
wake réveillerai 0.3333333
prefers préfère 1.0000000
except apparaître 1.0000000
there là 0.3333333
here là 0.2222222
lies là 0.1111111
now là 0.1111111
stand là 0.2222222
have imaginé 0.5000000
thought imaginé 0.5000000
hit frapper 0.5000000
knock frapper 0.5000000
appetite appétit 1.0000000
notorious réputation 0.3333333
for réputation 0.3333333
reputation réputation 0.3333333
real réel 1.0000000
or ou 1.0000000
disease transmissible 1.0000000
wished souhaitait 1.0000000
marry marier 0.5000000
would marier 0.2500000
you marier 0.2500000
morning matins 1.0000000
NULL envie 0.1666667
want envie 0.8333333
that fonctionne 0.3333333
&apos;s fonctionne 0.3333333
working fonctionne 0.3333333
depends dépend 0.4444444
all dépend 0.2222222
on dépend 0.3333333
Christmas Noël 1.0000000
Robots robots 1.0000000
brevity brièveté 1.0000000
den cage 0.5000000
of cage 0.5000000
a traduire 0.3333333
translating traduire 0.3333333
translate traduire 0.3333333
on passe 0.2000000
happens passe 0.3000000
you passe 0.3000000
password passe 0.2000000
pay paie 1.0000000
you mangez-vous 0.5000000
eat mangez-vous 0.5000000
science sciences 1.0000000
sleep suite 0.3333333
soon suite 0.6666667
naturally devint 1.0000000
taxpayers contribuables 1.0000000
contributors contributeurs 1.0000000
fatal maladie 1.0000000
Despite Malgré 1.0000000
seems semblerait 1.0000000
email électronique 1.0000000
winner gagnant 0.5000000
the gagnant 0.5000000
said disaient 1.0000000
harder dur 1.0000000
English anglais 1.0000000
your son 0.1538462
sycophants son 0.0769231
his son 0.6153846
its son 0.1538462
face réalistes 0.3333333
it réalistes 0.3333333
&apos;s réalistes 0.3333333
Jimmy Jimmy 1.0000000
ten dix 1.0000000
recluse reclus 1.0000000
&apos;ll seras 0.5000000
be seras 0.5000000
being consiste 0.3333333
of consiste 0.3333333
consists consiste 0.3333333
tissue mouchoir 1.0000000
NULL était 0.0357143
wasn était 0.0714286
pants était 0.0357143
was était 0.7500000
unconvinced était 0.0357143
gone était 0.0357143
weren était 0.0357143
hit draguer 0.5000000
on draguer 0.5000000
should devraient 1.0000000
politicians politiciens 0.5000000
Politicians politiciens 0.5000000
much NULL 0.0048077
take NULL 0.0048077
be NULL 0.0432692
have NULL 0.0144231
, NULL 0.0144231
then NULL 0.0048077
&apos;t NULL 0.0096154
in NULL 0.0048077
That NULL 0.0048077
over NULL 0.0048077
money NULL 0.0048077
computer NULL 0.0048077
There NULL 0.0048077
wanted NULL 0.0048077
ask NULL 0.0048077
of NULL 0.0048077
use NULL 0.0048077
find NULL 0.0096154
about NULL 0.0048077
behavior NULL 0.0048077
than NULL 0.0048077
care NULL 0.0048077
a NULL 0.0048077
anyone NULL 0.0048077
go NULL 0.0048077
&apos;ve NULL 0.0048077
sent NULL 0.0048077
who NULL 0.0048077
when NULL 0.0048077
machines NULL 0.0048077
&apos;s NULL 0.0192308
hard NULL 0.0048077
The NULL 0.0048077
. NULL 0.0192308
lot NULL 0.0048077
don NULL 0.0048077
anything NULL 0.0048077
been NULL 0.0048077
out NULL 0.0048077
need NULL 0.0048077
them NULL 0.0048077
are NULL 0.0096154
and NULL 0.0144231
the NULL 0.0144231
to NULL 0.2644231
time NULL 0.0096154
You NULL 0.0096154
fall NULL 0.0048077
there NULL 0.0048077
changed NULL 0.0048077
Don NULL 0.0048077
you NULL 0.0673077
good NULL 0.0048077
on NULL 0.0096154
at NULL 0.0048077
tell NULL 0.0096154
what NULL 0.0048077
single NULL 0.0048077
up NULL 0.0096154
was NULL 0.0048077
think NULL 0.0096154
Muiriel NULL 0.0096154
one NULL 0.0048077
way NULL 0.0048077
get NULL 0.0096154
&quot; NULL 0.0096154
more NULL 0.0048077
things NULL 0.0048077
I NULL 0.0240385
me NULL 0.0192308
all NULL 0.0048077
read NULL 0.0048077
point NULL 0.0096154
never NULL 0.0048077
with NULL 0.0048077
this NULL 0.0096154
is NULL 0.0096154
it NULL 0.0336538
know NULL 0.0048077
for NULL 0.0048077
here NULL 0.0048077
will NULL 0.0096154
her NULL 0.0048077
It NULL 0.0096154
&apos;re NULL 0.0096154
only NULL 0.0096154
spending NULL 0.0048077
NULL mots 0.1111111
for mots 0.1111111
words mots 0.6666667
pun mots 0.1111111
remember retenir 1.0000000
trip Aller-retour 0.5000000
Round Aller-retour 0.5000000
article journal 1.0000000
then moment 0.2000000
point moment 0.2000000
certain moment 0.2000000
there moment 0.2000000
moment moment 0.2000000
discordant notes 0.5000000
grades notes 0.5000000
mysterious personnages 0.6666667
characters personnages 0.3333333
struck frappé 1.0000000
like Veux-tu 0.3333333
Would Veux-tu 0.3333333
you Veux-tu 0.3333333
pretty très 0.0714286
very très 0.6428571
away très 0.0714286
quite très 0.1428571
NULL très 0.0714286
time période 1.0000000
Internet utilisation 1.0000000
host hôte 1.0000000
silly question 0.1666667
question question 0.6666667
key question 0.1666667
into Remettre 0.5000000
Pull Remettre 0.5000000
knows connaît 0.5000000
know connaît 0.5000000
Be Sois 1.0000000
diminution diminution 1.0000000
cute mignon 1.0000000
From Depuis 0.3333333
moment Depuis 0.3333333
the Depuis 0.3333333
last dernière 0.5000000
week dernière 0.2500000
year dernière 0.2500000
Mike Mike 1.0000000
expect voulons 1.0000000
will achèterai 0.5000000
buy achèterai 0.5000000
various divers 1.0000000
Church églises 1.0000000
poets poètes 1.0000000
of quel 0.2000000
how quel 0.2000000
suitor quel 0.2000000
NULL quel 0.2000000
regardless quel 0.2000000
have doit 1.0000000
- - 0.5000000
— - 0.5000000
commemorates hommage 0.5000000
Man hommage 0.5000000
check addition 1.0000000
hostel jeunesse 1.0000000
accident accident 1.0000000
get servir 0.3333333
yourself servir 0.3333333
age servir 0.3333333
running problèmes 0.5000000
poor problèmes 0.5000000
full remplie 1.0000000
This C 0.3333333
That C 0.5000000
It C 0.1666667
wonder demander 0.3333333
propose demander 0.1666667
for demander 0.1666667
to demander 0.3333333
source source 1.0000000
Hiroshi Hiroshi 0.6666667
says Hiroshi 0.3333333
hunger faim 0.2500000
starving faim 0.5000000
hungry faim 0.2500000
because parce 1.0000000
Because Parce 1.0000000
There Il 0.2580645
pants Il 0.0161290
NULL Il 0.0483871
Better Il 0.0161290
This Il 0.0161290
Sometimes Il 0.0161290
mention Il 0.0161290
I Il 0.0322581
It Il 0.2419355
He Il 0.2741935
may Il 0.0322581
To Il 0.0322581
conversation conversation 1.0000000
no visions 0.5000000
real visions 0.5000000
short petite 1.0000000
&apos;t t&apos; 0.0800000
won t&apos; 0.0400000
you t&apos; 0.4400000
love t&apos; 0.1200000
change t&apos; 0.0400000
Did t&apos; 0.0400000
didn t&apos; 0.0800000
explain t&apos; 0.0800000
send t&apos; 0.0800000
meet affronter 1.0000000
Haven sommes-nous 1.0000000
long longues 1.0000000
potatoes pommes 1.0000000
cold froid 1.0000000
path secret 0.5000000
on secret 0.2500000
secret secret 0.2500000
Johnson Johnson 1.0000000
of flatteries 0.5000000
tired flatteries 0.5000000
to louper 0.5000000
fail louper 0.5000000
anymore inspirée 0.5000000
inspired inspirée 0.5000000
Arc refusa 0.5000000
refused refusa 0.5000000
unfair proposition 0.5000000
such proposition 0.5000000
there debout 0.5000000
stand debout 0.5000000
soon minute 1.0000000
Antigua Antigua 1.0000000
into avaler 0.5000000
buy avaler 0.5000000
grain grain 1.0000000
things importantes 1.0000000
care inquiéter 0.5000000
about inquiéter 0.5000000
them films 0.5000000
buys films 0.5000000
French français 0.6666667
enough français 0.3333333
again copies 0.5000000
over copies 0.5000000
drift vagabondent 1.0000000
utterly déteste 0.2500000
hate déteste 0.7500000
siblings sœurs 1.0000000
hospital hôpital 1.0000000
fools idiots 1.0000000
People gens 0.1200000
people gens 0.8800000
ambiguous langage 1.0000000
areas régions 1.0000000
if lorsque 0.2500000
shocking lorsque 0.2500000
when lorsque 0.5000000
undressing me 0.0363636
realized me 0.0181818
&apos;m me 0.0363636
cut me 0.0181818
kill me 0.0181818
miss me 0.0363636
disappoints me 0.0181818
take me 0.0363636
wake me 0.0181818
kicking me 0.0181818
me me 0.3636364
NULL me 0.0181818
relax me 0.0181818
feel me 0.0363636
woke me 0.0181818
like me 0.0545455
off me 0.0181818
getting me 0.0181818
concentrate me 0.0181818
&apos;ve me 0.0181818
driving me 0.0363636
wonder me 0.0545455
wondering me 0.0181818
got me 0.0363636
seems me 0.0181818
table bois 1.0000000
means objectif 0.2500000
Being objectif 0.2500000
not objectif 0.2500000
objective objectif 0.2500000
Sorry Désolée 1.0000000
sunscreen solaire 1.0000000
inevitable inévitable 1.0000000
adding d 0.0588235
prom d 0.0588235
tyrant d 0.0588235
of d 0.1764706
breaks d 0.0588235
being d 0.1176471
expecting d 0.0588235
NULL d 0.0588235
length d 0.0588235
full d 0.0588235
reputation d 0.0588235
age d 0.0588235
juice d 0.0588235
money d 0.0588235
So Mais 0.2857143
But Mais 0.5714286
Seriously Mais 0.1428571
mistakes erreur 0.5000000
mistake erreur 0.5000000
nails ongles 1.0000000
would donnait 0.5000000
gave donnait 0.5000000
army armée 1.0000000
difference différence 0.5000000
no différence 0.5000000
truth franc 0.3333333
the franc 0.3333333
you franc 0.3333333
grades mes 0.0769231
for mes 0.0769231
mine mes 0.0769231
my mes 0.6153846
loss mes 0.0769231
study mes 0.0769231
Muslims musulmans 1.0000000
stupid stupides 1.0000000
convicted drogue 1.0000000
June nous 0.0434783
seems nous 0.0434783
we nous 0.6086957
Rachel nous 0.0434783
NULL nous 0.0434783
us nous 0.2173913
insights Freud 0.5000000
&apos;s Freud 0.5000000
of témoignage 0.5000000
testimony témoignage 0.5000000
flaws défauts 0.5000000
flawed défauts 0.5000000
servile servile 1.0000000
loss perte 1.0000000
door porte 1.0000000
came venu 0.5000000
come venu 0.5000000
sanction approuvé 1.0000000
body corps 1.0000000
My Mon 1.0000000
see te 0.0232558
tells te 0.0232558
to te 0.0697674
freaking te 0.0232558
explain te 0.0232558
feel te 0.0465116
bother te 0.0232558
scare te 0.0232558
NULL te 0.0232558
you te 0.3953488
complaining te 0.0232558
tell te 0.0465116
keeps te 0.0232558
please te 0.0465116
meet te 0.0232558
yourself te 0.0465116
correct te 0.0232558
give te 0.0697674
talk te 0.0232558
strict stricte 1.0000000
been essayées 0.3333333
have essayées 0.3333333
tried essayées 0.3333333
be reviendras-tu 0.3333333
will reviendras-tu 0.3333333
back reviendras-tu 0.3333333
prevalent croyance 1.0000000
belied masquaient 1.0000000
be serais 0.2500000
will serais 0.2500000
&apos;d serais 0.5000000
die meurs 0.5000000
&apos;m meurs 0.5000000
eaten mangé 1.0000000
eating mange 0.5000000
eat mange 0.5000000
you toi 0.9166667
are toi 0.0833333
new nouveau 1.0000000
stay resté 1.0000000
speak Parlez-vous 0.5000000
Do Parlez-vous 0.5000000
spiders sont 0.0285714
Mathematics sont 0.0285714
definitions sont 0.0285714
mine sont 0.0285714
are sont 0.6285714
resorted sont 0.0285714
fell sont 0.0285714
is sont 0.1142857
Math sont 0.0285714
NULL sont 0.0285714
vacation sont 0.0285714
woke réveillé 0.3333333
, réveillé 0.3333333
up réveillé 0.3333333
&apos;s tape 0.5000000
getting tape 0.5000000
realized rends 1.0000000
rest reposer 1.0000000
change au 0.0256410
must au 0.0256410
skills au 0.0256410
NULL au 0.0256410
to au 0.1025641
the au 0.2564103
21st au 0.0256410
linked au 0.0256410
bed au 0.0256410
messages au 0.0256410
Japan au 0.0256410
dared au 0.0256410
seriously au 0.0256410
headache au 0.0256410
instead au 0.0512821
in au 0.1282051
at au 0.1025641
consider au 0.0256410
zoo au 0.0256410
Ray Ray 1.0000000
the aux 0.2500000
to aux 0.1666667
Sherlock aux 0.0833333
ask aux 0.0833333
passengers aux 0.0833333
cards aux 0.0833333
commemorates aux 0.0833333
poll aux 0.0833333
items aux 0.0833333
trying essayent 1.0000000
some quelques-uns 1.0000000
who bienveillant 1.0000000
me permettez-moi 0.5000000
; permettez-moi 0.2500000
allow permettez-moi 0.2500000
know connaître 0.6000000
known connaître 0.4000000
Too Trop 0.5000000
So Trop 0.5000000
mistake faute 0.5000000
fault faute 0.5000000
look as 0.0370370
really as 0.0740741
made as 0.0370370
NULL as 0.0370370
do as 0.0370370
opened as 0.0370370
&apos;ve as 0.0370370
did as 0.0740741
met as 0.0370370
you as 0.0370370
have as 0.3703704
done as 0.0370370
letters as 0.0370370
this as 0.0370370
found as 0.0370370
anything as 0.0370370
allowed le 0.0078740
cleaning le 0.0078740
&apos;m le 0.0078740
scrutinizes le 0.0078740
price le 0.0078740
lunch le 0.0078740
high le 0.0078740
turn le 0.0078740
&apos;ll le 0.0078740
sentences le 0.0078740
destroy le 0.0078740
breakfast le 0.0078740
Chinese le 0.0078740
nevertheless le 0.0078740
mess le 0.0078740
Japanese le 0.0078740
most le 0.0078740
would le 0.0236220
surely le 0.0078740
movement le 0.0078740
known le 0.0157480
see le 0.0078740
sycophants le 0.0078740
understand le 0.0078740
everybody le 0.0078740
into le 0.0236220
it le 0.0551181
Everyone le 0.0314961
laundry le 0.0078740
master le 0.0078740
kill le 0.0078740
done le 0.0078740
dial le 0.0078740
binary le 0.0157480
scared le 0.0157480
decorum le 0.0078740
voting le 0.0078740
June le 0.0157480
misunderstood le 0.0078740
NULL le 0.0787402
the le 0.4488189
time le 0.0157480
demonstrate le 0.0078740
they le 0.0078740
danger danger 1.0000000
minutes minutes 1.0000000
heated dispute 1.0000000
you Es-tu 0.1666667
Are Es-tu 0.8333333
saying nommant 1.0000000
palms paume 1.0000000
All Tous 1.0000000
equality égalité 1.0000000
Where Où 1.0000000
Tomorrow Demain 1.0000000
explanation explication 1.0000000
try essaie 0.3333333
trying essaie 0.3333333
&apos;m essaie 0.3333333
love adore 1.0000000
John Jean 1.0000000
decorum soir 0.5000000
Tonight soir 0.5000000
stay restée 1.0000000
Winter L 0.3333333
ascendancy L 0.3333333
The L 0.3333333
&apos;s demande 0.2222222
curious demande 0.1111111
asking demande 0.2222222
NULL demande 0.1111111
wonder demande 0.2222222
for demande 0.1111111
useful réponses 1.0000000
sculpture sculpture 1.0000000
massage massage 1.0000000
In Pour 0.1428571
For Pour 0.2857143
To Pour 0.5714286
bed lit 0.7500000
NULL lit 0.2500000
weird Madrilènes 1.0000000
NULL volontaire 1.0000000
huge énorme 1.0000000
Go Va 1.0000000
drawn attiré 1.0000000
eat légumes 0.2500000
vegetables légumes 0.7500000
once fois 0.1250000
times fois 0.1250000
went fois 0.1250000
NULL fois 0.1250000
wearing fois 0.1250000
time fois 0.1250000
Once fois 0.1250000
Whenever fois 0.1250000
Place Place 1.0000000
but beau 0.2500000
beautiful beau 0.5000000
best beau 0.2500000
late apprend 0.5000000
is apprend 0.5000000
life perpétuité 0.3333333
sentence perpétuité 0.3333333
a perpétuité 0.3333333
so j&apos; 0.0227273
living j&apos; 0.0227273
I j&apos; 0.9318182
married j&apos; 0.0227273
complicated compliqué 1.0000000
endorphins endorphine 1.0000000
as religieuses 0.3333333
beliefs religieuses 0.3333333
their religieuses 0.3333333
why vas-tu 0.1000000
you vas-tu 0.4000000
will vas-tu 0.1000000
Did vas-tu 0.2000000
are vas-tu 0.2000000
down calmé 1.0000000
Jack Je 0.0064103
I Je 0.9871795
Did Je 0.0064103
rectifying rectifier 1.0000000
Ms. Mme 1.0000000
Everyone Tout 0.4444444
Any Tout 0.1111111
Anything Tout 0.2222222
It Tout 0.1111111
All Tout 0.1111111
comes agit 1.0000000
those celles 1.0000000
orders monastiques 1.0000000
whatever Fais 0.5000000
Do Fais 0.5000000
deed geste 1.0000000
into comportement 0.3333333
outrageous comportement 0.3333333
behavior comportement 0.3333333
answer répondu 1.0000000
blind aveugle 1.0000000
the sous 0.5000000
in sous 0.5000000
headache crâne 1.0000000
begin commencer 0.5000000
to commencer 0.5000000
found découvrir 1.0000000
Jehovah Témoins 0.5000000
&apos;s Témoins 0.5000000
annoying énervant 0.6666667
Now énervant 0.3333333
mandatory caractère 1.0000000
Rye seigle 1.0000000
make consoler 0.3333333
feel consoler 0.3333333
better consoler 0.3333333
she fixant 0.5000000
stared fixant 0.5000000
phone peut-on 0.2000000
one peut-on 0.2000000
can peut-on 0.2000000
make peut-on 0.2000000
a peut-on 0.2000000
nap sieste 1.0000000
NULL disait 0.2500000
telling disait 0.2500000
was disait 0.2500000
side disait 0.2500000
First abord 1.0000000
sustainability urbain 1.0000000
indicates indique 1.0000000
condemned condamnèrent 1.0000000
like aimerait 0.3333333
would aimerait 0.3333333
to aimerait 0.3333333
ways moyens 1.0000000
my couper 0.5000000
cut couper 0.5000000
back serai 0.3333333
grow serai 0.3333333
will serai 0.3333333
sometimes développent 1.0000000
father père 1.0000000
weaknesses faiblesses 1.0000000
lives vie 0.0952381
Life vie 0.2857143
NULL vie 0.0238095
life vie 0.5714286
problems vie 0.0238095
medical tests 0.5000000
extensive tests 0.5000000
government gouvernement 1.0000000
said quoique 1.0000000
blame autres 0.0769231
other autres 0.5384615
else autres 0.0769231
others autres 0.3076923
valiant vaillants 1.0000000
Theoretically Théoriquement 1.0000000
would renieraient 0.5000000
repudiate renieraient 0.5000000
proverb proverbe 1.0000000
fighting battre 1.0000000
proof crédible 1.0000000
theory théorie 0.7500000
Theoretically théorie 0.2500000
happy heureux 1.0000000
friends amis 1.0000000
sow j 0.5000000
I j 0.5000000
came vint 1.0000000
Baffled Confus 1.0000000
him rencontré 0.3333333
met rencontré 0.3333333
at rencontré 0.3333333
written écrite 1.0000000
&apos;s sinistre 0.3333333
grim sinistre 0.3333333
doctor sinistre 0.3333333
zoo zoo 1.0000000
trace trace 1.0000000
to offrir 0.3333333
him offrir 0.3333333
give offrir 0.3333333
for acteurs 0.5000000
actors acteurs 0.5000000
when lorsqu&apos; 0.6666667
discordant lorsqu&apos; 0.3333333
occupied occupées 1.0000000
Yes Oui 1.0000000
you viens-tu 0.3333333
visit viens-tu 0.1666667
aren viens-tu 0.1666667
going viens-tu 0.1666667
come viens-tu 0.1666667
strange gars 1.0000000
from sujets 0.2500000
subjects sujets 0.5000000
rebellion sujets 0.2500000
consider considère 1.0000000
everything autrui 0.1666667
as autrui 0.3333333
possible autrui 0.1666667
make autrui 0.1666667
harmless autrui 0.1666667
profound penseur 0.5000000
thinker penseur 0.5000000
Justice justice 1.0000000
rare rare 0.5000000
at rare 0.5000000
over terme 0.2500000
it terme 0.2500000
term terme 0.2500000
the terme 0.2500000
on sur 0.3913043
eyes sur 0.0434783
retract sur 0.0434783
to sur 0.0434783
in sur 0.1304348
about sur 0.2173913
account sur 0.0434783
insights sur 0.0434783
skeptical sur 0.0434783
outside dehors 1.0000000
would prendrait 0.5000000
take prendrait 0.5000000
corresponds correspond 1.0000000
Ah Ah 1.0000000
except sauf 0.4000000
unless sauf 0.2000000
is sauf 0.2000000
trust sauf 0.2000000
whether si 0.0571429
if si 0.5714286
given si 0.0285714
NULL si 0.0571429
so si 0.2857143
church catholique 1.0000000
ambivalence ambivalence 1.0000000
NULL façon 0.4000000
way façon 0.6000000
hungry affamés 0.5000000
, affamés 0.5000000
foul foutre 1.0000000
develop développer 1.0000000
lyrics paroles 0.5000000
chatterbox paroles 0.5000000
walked avons 0.2000000
have avons 0.4000000
won avons 0.2000000
made avons 0.2000000
him Donnez-lui 0.5000000
Give Donnez-lui 0.5000000
religious croyances 1.0000000
tone sévère 1.0000000
speak parles 0.5000000
referring parles 0.5000000
bottles bouteilles 1.0000000
salt sel 1.0000000
artist artiste 1.0000000
Computers ordinateurs 1.0000000
talking parlez-vous 0.3333333
you parlez-vous 0.3333333
about parlez-vous 0.3333333
Communism communisme 1.0000000
crime crime 1.0000000
practical pratique 0.3333333
practice pratique 0.6666667
NULL bal 1.0000000
actually effectivement 1.0000000
change changer 0.3333333
The changer 0.3333333
NULL changer 0.3333333
speech s&apos; 0.0277778
please s&apos; 0.1388889
happened s&apos; 0.0277778
if s&apos; 0.1111111
teacher s&apos; 0.0277778
apologized s&apos; 0.0277778
noises s&apos; 0.0277778
though s&apos; 0.0277778
, s&apos; 0.0833333
breed s&apos; 0.0277778
calmed s&apos; 0.0555556
built s&apos; 0.0277778
NULL s&apos; 0.0555556
getting s&apos; 0.0277778
hundred s&apos; 0.0277778
pools s&apos; 0.0277778
exclaimed s&apos; 0.0555556
common s&apos; 0.0277778
to s&apos; 0.0833333
express s&apos; 0.0277778
surprised s&apos; 0.0277778
crashed s&apos; 0.0277778
starting reprennent 0.5000000
again reprennent 0.5000000
: : 0.8000000
; : 0.2000000
details inutiles 1.0000000
discrepancy différences 1.0000000
ocean océan 1.0000000
naturally lui 0.0416667
him lui 0.5000000
NULL lui 0.0416667
perfect lui 0.0416667
to lui 0.1250000
tell lui 0.1666667
pranking lui 0.0416667
prank lui 0.0416667
banana tarte 0.6666667
a tarte 0.3333333
chatterbox moulin 1.0000000
magic épée 1.0000000
verbs irréguliers 0.5000000
irregular irréguliers 0.5000000
disturb perturber 1.0000000
I pourrais-je 0.5000000
could pourrais-je 0.5000000
language ambigu 1.0000000
email courrier 1.0000000
tried essaya 1.0000000
because cause 0.5000000
of cause 0.5000000
political débat 1.0000000
officer sous-officier 1.0000000
many proches 0.4000000
close proches 0.4000000
do proches 0.2000000
composition composition 1.0000000
works ouvrages 1.0000000
earn gagner 0.2500000
gain gagner 0.2500000
win gagner 0.2500000
make gagner 0.2500000
deed répréhensible 1.0000000
multitude multitude 1.0000000
snoring ronfle 0.3333333
snore ronfle 0.3333333
&apos;s ronfle 0.3333333
must courant 0.3333333
known courant 0.3333333
have courant 0.3333333
whether demandait 1.0000000
What Quelle 1.0000000
players provoquent 1.0000000
Allen Allen 1.0000000
Japan Japon 1.0000000
technology technologie 0.5000000
present-day technologie 0.5000000
doing faire 0.0140845
scare faire 0.0140845
NULL faire 0.0845070
order faire 0.0140845
do faire 0.3661972
prank faire 0.0140845
making faire 0.0563380
to faire 0.2253521
math faire 0.0281690
able faire 0.0140845
make faire 0.0281690
trust faire 0.0281690
cook faire 0.0140845
study faire 0.0140845
it faire 0.0563380
shopping faire 0.0140845
done faire 0.0140845
go aille 1.0000000
, part 0.2500000
nice part 0.2500000
except part 0.2500000
somewhere part 0.2500000
1950 50 0.5000000
&apos;s 50 0.5000000
scrutinizes toutes 0.2000000
except toutes 0.2000000
every toutes 0.2000000
him toutes 0.2000000
all toutes 0.2000000
article ci-dessus 1.0000000
such telle 0.2500000
profusion telle 0.2500000
do telle 0.2500000
thing telle 0.2500000
him valu 0.5000000
earned valu 0.5000000
players hockey 1.0000000
wasted gaspillage 1.0000000
was relisais 0.5000000
rereading relisais 0.5000000
lovers partenaire 1.0000000
own propres 1.0000000
expecting attend 0.1666667
from attend 0.1666667
hundred attend 0.1666667
is attend 0.1666667
awaiting attend 0.1666667
are attend 0.1666667
possibility possibilité 1.0000000
make prennent 1.0000000
mixture mélange 1.0000000
which prétendant 0.5000000
suitor prétendant 0.5000000
send envoie 1.0000000
learn apprendre 0.8461538
learning apprendre 0.1538462
one-way seulement 0.1428571
shows seulement 0.1428571
but seulement 0.1428571
only seulement 0.5714286
killed tué 1.0000000
fire forêt 1.0000000
Denying Déniant 1.0000000
Those Ceux 1.0000000
speaker orateur 1.0000000
propose ta 0.1000000
you ta 0.2000000
your ta 0.6000000
nice ta 0.1000000
are noms 0.3333333
your noms 0.3333333
names noms 0.3333333
aboard bord 1.0000000
depravity dépravation 0.5000000
of dépravation 0.5000000
breakfast petit-déjeuner 1.0000000
sycophants égard 0.2500000
praising égard 0.2500000
always égard 0.2500000
him égard 0.2500000
kidding fous 0.3333333
crazies fous 0.3333333
from fous 0.3333333
Clinton Clinton 1.0000000
ate prenais 1.0000000
play ait 1.0000000
Smith Smith 1.0000000
Are Êtes-vous 1.0000000
small petit 0.3333333
little petit 0.5000000
boyfriend petit 0.1666667
sung chanté 1.0000000
NULL comprendre 0.2000000
understand comprendre 0.6000000
it comprendre 0.2000000
No Non 1.0000000
speak pouvais 0.2500000
could pouvais 0.7500000
people personnes 0.8333333
Censorious personnes 0.1666667
100 par 0.0526316
a par 0.1052632
dentist par 0.0526316
times par 0.0526316
for par 0.1052632
fell par 0.0526316
sound par 0.0526316
by par 0.3684211
to par 0.0526316
the par 0.0526316
drawn par 0.0526316
was étaient 0.2500000
heard étaient 0.1250000
accident étaient 0.1250000
were étaient 0.5000000
really douée 0.5000000
are douée 0.5000000
drastically drastique 1.0000000
beginning ressembler 0.2500000
&apos;re ressembler 0.2500000
like ressembler 0.2500000
look ressembler 0.2500000
eyebrow sourcil 1.0000000
it traduisent 0.3333333
into traduisent 0.3333333
translate traduisent 0.3333333
changes change 1.0000000
writer prolifique 1.0000000
analysis analyse 0.5000000
superficial analyse 0.5000000
on constamment 0.5000000
knock constamment 0.5000000
love aiment 1.0000000
study étudier 0.3333333
studying étudier 0.3333333
at étudier 0.3333333
pain douleur 1.0000000
passengers passagers 1.0000000
crashed contre 0.3333333
into contre 0.3333333
against contre 0.3333333
tell disiez 1.0000000
Where Vouloir 0.5000000
there Vouloir 0.5000000
are réellement 0.5000000
really réellement 0.5000000
items objets 0.3333333
objects objets 0.3333333
give objets 0.3333333
engagement fiançailles 1.0000000
inner sensibilité 1.0000000
will apprendrai 0.5000000
learn apprendrai 0.5000000
To Se 1.0000000
first premier 1.0000000
will prendra 0.3333333
take prendra 0.3333333
&apos;ll prendra 0.3333333
name nom 1.0000000
though bien 0.1363636
Well bien 0.0454545
fine bien 0.0454545
good bien 0.0909091
even bien 0.0909091
wish bien 0.0454545
right bien 0.0454545
So bien 0.0454545
candlelight bien 0.0909091
safe bien 0.0454545
NULL bien 0.1363636
lonely bien 0.0454545
well bien 0.1363636
; ; 1.0000000
€ € 1.0000000
it loin 0.1428571
from loin 0.4285714
away loin 0.2857143
far loin 0.1428571
sarcastic sarcastiques 0.5000000
&apos;s sarcastiques 0.5000000
them eux 0.4285714
house eux 0.1428571
books eux 0.1428571
fighting eux 0.1428571
were eux 0.1428571
changes changements 0.6666667
any changements 0.3333333
bed lits 1.0000000
laundry linge 1.0000000
18th juin 1.0000000
malnutrition malnutrition 1.0000000
opinion opinion 1.0000000
dared osait 0.5000000
one osait 0.5000000
tyrant tyran 1.0000000
thirsty soif 1.0000000
called appelé 1.0000000
is coûte 0.5000000
Justice coûte 0.5000000
willing disposé 1.0000000
taxes impôts 1.0000000
We Nous 1.0000000
composition musicale 0.5000000
, musicale 0.5000000
wake réveiller 0.5000000
up réveiller 0.5000000
layout site 0.1666667
website site 0.6666667
&apos;s site 0.1666667
yourself toi-même 0.5000000
it toi-même 0.5000000
them avaient 0.2500000
feelings avaient 0.2500000
had avaient 0.5000000
future futur 0.6666667
changed futur 0.3333333
conviction conviction 0.6666667
belief conviction 0.3333333
touched touché 1.0000000
proof fournit 1.0000000
keeps empêche 1.0000000
autonomous autonomes 1.0000000
no n&apos; 0.0531915
came n&apos; 0.0106383
haven n&apos; 0.0212766
were n&apos; 0.0106383
NULL n&apos; 0.1063830
mention n&apos; 0.0106383
weren n&apos; 0.0106383
truth n&apos; 0.0106383
&apos;re n&apos; 0.0425532
Nothing n&apos; 0.0212766
is n&apos; 0.0212766
don n&apos; 0.1063830
This n&apos; 0.0212766
trust n&apos; 0.0106383
not n&apos; 0.0531915
totally n&apos; 0.0106383
aren n&apos; 0.0212766
shouldn n&apos; 0.0106383
isn n&apos; 0.0319149
never n&apos; 0.1489362
music n&apos; 0.0106383
brain n&apos; 0.0106383
opinion n&apos; 0.0106383
Poor n&apos; 0.0106383
anyone n&apos; 0.0106383
question n&apos; 0.0106383
can n&apos; 0.0425532
keep n&apos; 0.0106383
couldn n&apos; 0.0106383
just n&apos; 0.0212766
wasn n&apos; 0.0106383
didn n&apos; 0.0106383
doesn n&apos; 0.0319149
then n&apos; 0.0106383
happen n&apos; 0.0106383
have n&apos; 0.0425532
blame accusation 1.0000000
NULL quelqu&apos; 0.2000000
somebody quelqu&apos; 0.2000000
someone quelqu&apos; 0.4000000
Someone quelqu&apos; 0.2000000
want voudrions 0.5000000
would voudrions 0.5000000
Spenser Stéphane 1.0000000
referring allusion 0.6666667
you allusion 0.3333333
disdained méprisé 1.0000000
fine subtile 1.0000000
present cadeau 1.0000000
brain cerveau 1.0000000
fought ont 0.0500000
have ont 0.2000000
their ont 0.1000000
million ont 0.1000000
authorities ont 0.0500000
boys ont 0.1000000
an ont 0.0500000
earned ont 0.0500000
wasted ont 0.0500000
behavior ont 0.0500000
men ont 0.0500000
were ont 0.1500000
young complaisant 1.0000000
was fur 1.0000000
ears oreilles 1.0000000
impatient impatiente 1.0000000
essay essai 0.5000000
elected essai 0.5000000
broken cassé 1.0000000
sensitivity intérieure 1.0000000
distaste aversion 1.0000000
intentionally exprès 1.0000000
useless rien 0.1176471
welcome rien 0.0588235
NULL rien 0.1176471
nothing rien 0.3529412
&apos;t rien 0.1764706
anything rien 0.1764706
ask poser 1.0000000
remarks Holmes 0.5000000
Holmes Holmes 0.5000000
talk parle 0.3000000
talking parle 0.1000000
speak parle 0.4000000
Who parle 0.1000000
am parle 0.1000000
will cesse 0.5000000
vilified cesse 0.5000000
had eu 0.5000000
&apos;re eu 0.2500000
speaker eu 0.2500000
adopt adopter 1.0000000
idea idée 0.9090909
which idée 0.0909091
make rendent 1.0000000
investors inexpérimentés 1.0000000
Give Donne-moi 0.5000000
me Donne-moi 0.5000000
chocolate chocolat 0.5000000
some chocolat 0.5000000
cards cartes 1.0000000
served avec 0.0277778
with avec 0.6111111
which avec 0.0833333
austere avec 0.0277778
marry avec 0.0833333
gracefully avec 0.0277778
engagement avec 0.0277778
to avec 0.1111111
One Un 0.1176471
An Un 0.1176471
Half Un 0.0588235
Poor Un 0.0588235
A Un 0.5294118
Someday Un 0.1176471
cool détendu 1.0000000
nuts étais 0.0909091
must étais 0.0909091
&apos;ve étais 0.0909091
was étais 0.6363636
spent étais 0.0909091
optimum durée 1.0000000
voting vote 0.5000000
nationwide vote 0.5000000
hat noir 0.5000000
dark noir 0.5000000
where où 0.4285714
Where où 0.1428571
eggs où 0.1428571
NULL où 0.1428571
shape où 0.1428571
thought pensions 1.0000000
mow tondre 1.0000000
again retéléphoner 1.0000000
butterfly papillon 1.0000000
relax détendre 1.0000000
would trouveraient 1.0000000
senseless vides 1.0000000
up levais 0.3333333
6 levais 0.3333333
at levais 0.3333333
six six 1.0000000
stay reste 0.2000000
rest reste 0.4000000
for reste 0.2000000
will reste 0.2000000
will diras 0.5000000
say diras 0.5000000
until avant 0.1428571
for avant 0.1428571
before avant 0.7142857
their leurs 0.6666667
NULL leurs 0.2222222
bed leurs 0.1111111
strength force 1.0000000
Rachel Rachel 0.5000000
friend Rachel 0.5000000
eat manges 0.5000000
NULL manges 0.5000000
Wash Laver 1.0000000
brother frère 1.0000000
Nowadays nos 0.5000000
our nos 0.5000000
relegated relégua 1.0000000
&apos;s sert 0.4000000
is sert 0.2000000
useless sert 0.4000000
Mathematicians mathématiciens 0.6666667
mathematicians mathématiciens 0.3333333
Don demandez 0.5000000
ask demandez 0.5000000
definitions précises 1.0000000
alleviate soulage 1.0000000
condom capote 1.0000000
near près 1.0000000
terrorists terroristes 1.0000000
up éveillé 1.0000000
dress tenue 1.0000000
waste gâchis 1.0000000
should auraient 1.0000000
to programme 0.2500000
program programme 0.2500000
have programme 0.2500000
&apos;d programme 0.2500000
authorities autorités 1.0000000
fast vite 0.5000000
soon vite 0.5000000
Food boissons 1.0000000
was eut 1.0000000
&apos;s amena 0.3333333
deeds amena 0.3333333
lead amena 0.3333333
Baffled face 0.1111111
face face 0.2222222
implausible face 0.2222222
face-to-face face 0.4444444
same même 0.3571429
even même 0.5000000
NULL même 0.0714286
thing même 0.0714286
is frappe 0.3333333
at frappe 0.3333333
knocking frappe 0.3333333
apartment appartement 1.0000000
mathematical Une 0.1666667
An Une 0.1666667
Evening Une 0.1666667
Once Une 0.1666667
Life Une 0.1666667
A Une 0.1666667
They Comme 1.0000000
reached atteint 0.5000000
in atteint 0.5000000
student étudiant 1.0000000
wisdom sagesse 1.0000000
myself abaisserai 0.5000000
lower abaisserai 0.5000000
joking plaisanterie 0.5000000
remarks plaisanterie 0.5000000
6 6h 0.5000000
a.m. 6h 0.5000000
you es-tu 0.5000000
are es-tu 0.1250000
did es-tu 0.3750000
in habitent 0.5000000
live habitent 0.5000000
concise ayant 0.3333333
with ayant 0.3333333
having ayant 0.3333333
raise posent 1.0000000
to effacer 0.5000000
wishes effacer 0.5000000
antisocial antisocial 1.0000000
&apos;ll reviens 0.0833333
will reviens 0.2500000
be reviens 0.3333333
back reviens 0.3333333
yields plie 1.0000000
Haven Ne 0.1000000
Don Ne 0.7000000
Not Ne 0.1000000
Unsure Ne 0.1000000
obvious évident 1.0000000
caring nature 1.0000000
abandon abandonner 0.5000000
to abandonner 0.5000000
Take Prends 1.0000000
tired fatiguée 1.0000000
birth naissance 1.0000000
to revenir 0.2500000
retract revenir 0.2500000
be revenir 0.2500000
back revenir 0.2500000
useful serve 0.2000000
has serve 0.2000000
for serve 0.2000000
got serve 0.2000000
be serve 0.2000000
poet poète 1.0000000
erase mauvais 1.0000000
came ne 0.0114286
only ne 0.0228571
gives ne 0.0057143
NULL ne 0.0457143
snoring ne 0.0057143
houses ne 0.0114286
cannot ne 0.0342857
won ne 0.0228571
know ne 0.0057143
don ne 0.3600000
aren ne 0.0114286
not ne 0.0400000
technology ne 0.0057143
perfect ne 0.0057143
best ne 0.0114286
never ne 0.0285714
roommate ne 0.0057143
did ne 0.0114286
breakthroughs ne 0.0057143
one ne 0.0114286
can ne 0.1028571
am ne 0.0228571
leave ne 0.0057143
doubt ne 0.0057143
would ne 0.0171429
quandary ne 0.0057143
just ne 0.0057143
understands ne 0.0057143
useless ne 0.0114286
wouldn ne 0.0057143
didn ne 0.0457143
matter ne 0.0057143
wasn ne 0.0057143
&apos;m ne 0.0285714
doesn ne 0.0571429
past ne 0.0057143
Eichler Eichler 1.0000000
allowed droit 1.0000000
sound tiré 1.0000000
they sortie 0.3333333
released sortie 0.3333333
&apos;re sortie 0.3333333
at plafond 0.5000000
ceiling plafond 0.5000000
Speak Parlez 1.0000000
ideas géniales 1.0000000
explain expliquer 0.4285714
it expliquer 0.1428571
everything expliquer 0.0714286
to expliquer 0.3571429
ago semaines 0.5000000
weeks semaines 0.5000000
profit personnel 1.0000000
went allée 0.6666667
to allée 0.3333333
forums forums 1.0000000
you sortant 0.3333333
when sortant 0.3333333
leave sortant 0.3333333
looks air 0.2500000
stupid air 0.2500000
of air 0.2500000
innocent air 0.2500000
principal proviseur 1.0000000
made faite 0.5000000
built faite 0.5000000
worst pire 1.0000000
showers douches 1.0000000
turn transforment 0.3333333
into transforment 0.3333333
it transforment 0.3333333
austere austère 1.0000000
risks risques 1.0000000
both filles 1.0000000
floor sol 1.0000000
skip sèche 1.0000000
Oh Oh 1.0000000
cursory examen 1.0000000
Geneva Genève 1.0000000
NULL chœur 1.0000000
they elle 0.0769231
she elle 0.5384615
expecting elle 0.0769231
it elle 0.1538462
her elle 0.1538462
letters envoyées 1.0000000
am donne 0.1428571
kicking donne 0.1428571
giving donne 0.1428571
give donne 0.2857143
&apos;s donne 0.1428571
me donne 0.1428571
go lire 0.5000000
reading lire 0.5000000
love amour 0.8571429
Love amour 0.1428571
on crème 1.0000000
penguin pingouin 1.0000000
might sembler 1.0000000
by réforme 0.5000000
reform réforme 0.5000000
at profusion 0.5000000
profusion profusion 0.5000000
send envoyer 1.0000000
in sains 0.3333333
diets sains 0.3333333
healthy sains 0.3333333
run courrai 0.5000000
&apos;ll courrai 0.5000000
messages messages 1.0000000
power puissance 1.0000000
arrive de 0.0030864
somber de 0.0030864
trying de 0.0123457
altruistic de 0.0030864
freedom de 0.0061728
laughing de 0.0030864
stones de 0.0061728
vegetables de 0.0092593
poor de 0.0030864
criticizing de 0.0030864
to de 0.1543210
asking de 0.0030864
kidding de 0.0030864
first de 0.0030864
hostel de 0.0030864
human de 0.0030864
wife de 0.0030864
Maury de 0.0030864
many de 0.0339506
actors de 0.0030864
&apos;s de 0.0092593
sustainability de 0.0030864
belts de 0.0030864
new de 0.0061728
diminution de 0.0061728
than de 0.0030864
about de 0.0061728
dress de 0.0030864
filled de 0.0030864
poetry de 0.0030864
leader de 0.0030864
soon de 0.0061728
requires de 0.0030864
of de 0.2006173
solution de 0.0030864
around de 0.0061728
potatoes de 0.0030864
much de 0.0154321
in de 0.0185185
NULL de 0.2067901
nothing de 0.0030864
password de 0.0061728
remarks de 0.0030864
back de 0.0092593
for de 0.0061728
math de 0.0061728
any de 0.0030864
houses de 0.0061728
difference de 0.0030864
long de 0.0339506
news de 0.0030864
lesser de 0.0030864
myself de 0.0030864
forest de 0.0030864
&apos; de 0.0030864
thrive de 0.0030864
trace de 0.0030864
reading de 0.0030864
get de 0.0061728
hoards de 0.0030864
redundant de 0.0030864
me de 0.0030864
food de 0.0030864
suffering de 0.0061728
from de 0.0246914
starving de 0.0061728
senseless de 0.0030864
selling de 0.0030864
physics de 0.0030864
guests de 0.0030864
eaten de 0.0030864
doubt de 0.0030864
Many de 0.0061728
pun de 0.0030864
surprised de 0.0030864
people de 0.0061728
joking de 0.0030864
allow de 0.0030864
drastically de 0.0030864
red de 0.0030864
table de 0.0030864
seeing de 0.0030864
account de 0.0030864
your de 0.0030864
five cinq 1.0000000
sex sexuelle 1.0000000
Democracy démocratie 1.0000000
stay restées 1.0000000
60 60 1.0000000
me Passez-moi 0.5000000
Pass Passez-moi 0.5000000
same mêmes 1.0000000
audience audience 1.0000000
complex complexe 0.5000000
than complexe 0.5000000
on convenance 0.5000000
decorum convenance 0.5000000
curious curieux 1.0000000
mean signifier 1.0000000
Sir Monsieur 1.0000000
know savais 0.4000000
knew savais 0.2000000
didn savais 0.4000000
In En 0.2500000
Theoretically En 0.2500000
When En 0.2500000
Despite En 0.2500000
going qu&apos; 0.0298507
prove qu&apos; 0.0149254
what qu&apos; 0.0895522
happened qu&apos; 0.0149254
laundry qu&apos; 0.0298507
someday qu&apos; 0.0149254
which qu&apos; 0.0298507
freeze qu&apos; 0.0149254
because qu&apos; 0.0746269
he qu&apos; 0.0597015
science qu&apos; 0.0149254
eating qu&apos; 0.0149254
Can qu&apos; 0.0149254
one qu&apos; 0.0149254
hear qu&apos; 0.0149254
than qu&apos; 0.0149254
she qu&apos; 0.0597015
weather qu&apos; 0.0298507
NULL qu&apos; 0.0597015
felt qu&apos; 0.0149254
say qu&apos; 0.0149254
told qu&apos; 0.0298507
that qu&apos; 0.1194030
they qu&apos; 0.1194030
clear qu&apos; 0.0149254
wait qu&apos; 0.0149254
just qu&apos; 0.0447761
would qu&apos; 0.0149254
2 2 0.3333333
or 2 0.3333333
two 2 0.3333333
irresistible irrésistible 1.0000000
balance équilibrer 1.0000000
answers utiles 1.0000000
&apos;re essayez 0.5000000
trying essayez 0.5000000
smile sourire 1.0000000
do trouves-tu 0.3333333
find trouves-tu 0.3333333
you trouves-tu 0.3333333
gave faisais 1.0000000
physics physique 0.3333333
&apos;t physique 0.3333333
doesn physique 0.3333333
comply coopérer 1.0000000
they Sont-ils 0.5000000
Are Sont-ils 0.5000000
royal famille 0.1666667
family famille 0.8333333
debate politique 0.5000000
politics politique 0.5000000
young jeune 0.2500000
wealthy jeune 0.2500000
self-indulgent jeune 0.2500000
, jeune 0.2500000
backpack sac 0.5000000
at sac 0.5000000
sure sûrs 0.5000000
you sûrs 0.5000000
get devenir 0.3333333
become devenir 0.3333333
come devenir 0.3333333
get utiliser 1.0000000
buy acheter 1.0000000
selection loterie 1.0000000
tired fatigué 1.0000000
errors erreurs 0.2000000
mistakes erreurs 0.6000000
mistake erreurs 0.2000000
Minute Minute 1.0000000
can puisse 1.0000000
renounce renoncer 0.3333333
her renoncer 0.3333333
refused renoncer 0.3333333
archer archer 1.0000000
proliferation prolifération 1.0000000
Education éducation 0.5000000
education éducation 0.5000000
biology biologie 1.0000000
behind derrière 1.0000000
poisoned royale 1.0000000
that comme 0.0500000
like comme 0.4000000
kind comme 0.0500000
of comme 0.0500000
as comme 0.4500000
player altruiste 1.0000000
houses verre 1.0000000
aspect aspects 1.0000000
king roi 0.7500000
heirless roi 0.1250000
a roi 0.1250000
criterion critère 1.0000000
coercion coercition 1.0000000
you mordu 0.5000000
bite mordu 0.5000000
be pouvoir 0.0909091
will pouvoir 0.0909091
, pouvoir 0.0909091
power pouvoir 0.0909091
way pouvoir 0.0909091
able pouvoir 0.1818182
could pouvoir 0.0909091
wish pouvoir 0.0909091
a pouvoir 0.1818182
outline schéma 1.0000000
harvest récolte 1.0000000
until demie 0.5000000
eight-thirty demie 0.5000000
small petites 1.0000000
Rye Le 0.0294118
Creationism Le 0.0294118
Communism Le 0.0294118
Wine Le 0.0294118
The Le 0.8823529
patient patient 1.0000000
prolific écrivain 1.0000000
nuts cinglé 1.0000000
about rêvé 0.5000000
dreamt rêvé 0.5000000
proposed proposée 1.0000000
relegated guilde 0.5000000
leader guilde 0.5000000
usage Internet 1.0000000
meter cube 1.0000000
tomorrow demain 0.6666667
up demain 0.3333333
parties parties 0.5000000
parts parties 0.5000000
hurricanes ouragans 1.0000000
comedy satirique 1.0000000
sense sentir 1.0000000
aspirin aspirine 1.0000000
just simplement 1.0000000
instead lieu 1.0000000
forest feu 0.5000000
fire feu 0.5000000
in emprisonnement 1.0000000
resorted recours 0.5000000
resort recours 0.5000000
boat bateau 0.2500000
take bateau 0.2500000
will bateau 0.2500000
that bateau 0.2500000
street rue 1.0000000
Jack Jack 1.0000000
decided décida 1.0000000
willing prêt 0.5000000
ready prêt 0.5000000
Here Tenez 0.5000000
are Tenez 0.5000000
got tombée 1.0000000
11th septembre 1.0000000
relationship relation 1.0000000
nice gentil 1.0000000
understand comprends 1.0000000
States États-Unis 0.6000000
United États-Unis 0.4000000
satirical comédie 1.0000000
terse concise 1.0000000
high époque 0.3333333
Back époque 0.3333333
in époque 0.3333333
one tantôt 0.3333333
now tantôt 0.6666667
a mal 0.3750000
misunderstood mal 0.1250000
misinterpreted mal 0.1250000
headache mal 0.1250000
NULL mal 0.1250000
bad mal 0.1250000
movement mouvement 1.0000000
at regardes 0.5000000
look regardes 0.5000000
three trois 0.6666667
three-headed trois 0.3333333
rather plutôt 0.3333333
pretty plutôt 0.3333333
, plutôt 0.3333333
emotions émotions 1.0000000
undressing dévêts 0.5000000
&apos;m dévêts 0.5000000
tail queue 1.0000000
paper rapport 1.0000000
through laissent 0.5000000
drift laissent 0.5000000
wait aussi 0.1428571
that aussi 0.1428571
an aussi 0.1428571
also aussi 0.1428571
contrary aussi 0.1428571
I. aussi 0.2857143
care fiche 0.5000000
don fiche 0.2500000
&apos;t fiche 0.2500000
our notre 0.8571429
host notre 0.1428571
him aimer 1.0000000
German allemand 1.0000000
sources anonymes 1.0000000
weigh ce 0.0149254
then ce 0.0149254
fifty ce 0.0149254
harvest ce 0.0149254
it ce 0.0149254
Maybe ce 0.0149254
anything ce 0.0298507
what ce 0.4179104
&apos;m ce 0.0149254
this ce 0.1343284
everything ce 0.0149254
whatever ce 0.0149254
that ce 0.1343284
do ce 0.0149254
somewhat ce 0.0149254
Anything ce 0.0298507
NULL ce 0.0746269
hated ce 0.0149254
happiness bonheur 0.6666667
awaiting bonheur 0.3333333
idiotic idiot 1.0000000
exams examens 1.0000000
typewriter machine 0.5000000
complicated machine 0.2500000
cotton machine 0.2500000
leader symbolique 1.0000000
for vase 0.5000000
vessel vase 0.5000000
were essayaient 0.5000000
trying essayaient 0.5000000
avoid éviter 0.5000000
them éviter 0.5000000
spread répandre 1.0000000
master maîtriser 1.0000000
spark éclater 1.0000000
NULL maintenant 0.2000000
now maintenant 0.8000000
it plaît 0.0909091
please plaît 0.7272727
like plaît 0.0909091
NULL plaît 0.0909091
Italy Italie 1.0000000
Salsa salsa 1.0000000
heard entendait 0.5000000
from entendait 0.5000000
Wikipedia Wikipedia 1.0000000
a boire 0.3333333
drink boire 0.6666667
! cherchais 0.2500000
looking cherchais 0.2500000
was cherchais 0.2500000
for cherchais 0.2500000
thought cru 1.0000000
made faites 0.5000000
you faites 0.5000000
happiness joie 0.2500000
with joie 0.5000000
joy joie 0.2500000
piece bonbon 0.3333333
of bonbon 0.3333333
candy bonbon 0.3333333
world monde 0.7727273
Everyone monde 0.1818182
NULL monde 0.0454545
assume présumer 1.0000000
soon retour 0.5000000
back retour 0.2500000
be retour 0.2500000
adding ajouter 1.0000000
court tribunal 1.0000000
the celui 0.5000000
one celui 0.5000000
candlelight lumière 1.0000000
five heures 0.1428571
eight-thirty heures 0.1428571
eleven heures 0.1428571
hours heures 0.4285714
in heures 0.1428571
an cuire 0.5000000
cook cuire 0.5000000
free citoyen 1.0000000
things merde 1.0000000
you sûre 0.5000000
sure sûre 0.5000000
happen passer 0.5000000
spend passer 0.5000000
form belles 0.5000000
beautiful belles 0.5000000
reason raison 1.0000000
Don restez 0.5000000
stay restez 0.5000000
opposed opposés 1.0000000
about concernant 0.5000000
high concernant 0.5000000
NULL je 0.0103093
some je 0.0103093
always je 0.0103093
I je 0.9484536
program je 0.0103093
antisocial je 0.0103093
How Combien 1.0000000
poll national 0.3333333
budget national 0.3333333
in national 0.3333333
articulate clairement 0.5000000
about clairement 0.5000000
whatever quoi 0.0666667
NULL quoi 0.0666667
what quoi 0.4666667
are quoi 0.2666667
do quoi 0.0666667
anything quoi 0.0666667
learn âge 1.0000000
Most plupart 1.0000000
honored honoré 0.3333333
him honoré 0.3333333
being honoré 0.3333333
right bonnes 1.0000000
! chercher 0.3333333
up chercher 0.3333333
for chercher 0.3333333
defect défaut 1.0000000
belied forte 1.0000000
in tenir 0.3333333
it tenir 0.3333333
keeping tenir 0.3333333
Union Soviétique 1.0000000
doubt doutent 1.0000000
from vient 0.5000000
comes vient 0.5000000
impossible impossible 1.0000000
like plaisait 0.3333333
didn plaisait 0.3333333
it plaisait 0.3333333
gay gay 1.0000000
sad triste 1.0000000
claims affirmations 0.3333333
order affirmations 0.3333333
in affirmations 0.3333333
can puissiez 0.5000000
cannot puissiez 0.5000000
disappoints déçoit 1.0000000
a auras 0.5000000
get auras 0.5000000
Are Allez-vous 0.5000000
you Allez-vous 0.5000000
Hi Salut 1.0000000
famous célèbres 1.0000000
searches cherche 1.0000000
Thanks Grâce 1.0000000
white pantalon 1.0000000
Catholic église 0.5000000
church église 0.5000000
could peux 0.0416667
NULL peux 0.0416667
can peux 0.9166667
receptors récepteurs 1.0000000
elected élire 1.0000000
Bearing Supporter 1.0000000
doctor expression 1.0000000
today hui 0.6666667
is hui 0.1111111
Today hui 0.2222222
morning matin 1.0000000
be ravi 0.5000000
glad ravi 0.5000000
they ils 0.8823529
NULL ils 0.0588235
translate ils 0.0588235
performance performance 1.0000000
outrageous scandaleux 1.0000000
slept dormi 0.5000000
during dormi 0.5000000
claims prétentieuses 1.0000000
stand toute 0.3333333
all toute 0.3333333
for toute 0.1666667
online toute 0.1666667
reproduce la 0.0060241
migraines la 0.0060241
prodigal la 0.0060241
laundry la 0.0060241
biology la 0.0060241
music la 0.0060241
ready la 0.0060241
malnutrition la 0.0060241
my la 0.0120482
brevity la 0.0060241
instead la 0.0060241
wearing la 0.0060241
wisdom la 0.0120482
food la 0.0060241
coercion la 0.0060241
inch la 0.0060241
royal la 0.0060241
through la 0.0120482
theory la 0.0060241
changed la 0.0120482
candlelight la 0.0180723
practice la 0.0060241
NULL la 0.0361446
during la 0.0060241
stupidest la 0.0060241
gingivitis la 0.0060241
poverty la 0.0060241
the la 0.5060241
next la 0.0060241
communication la 0.0060241
last la 0.0120482
transform la 0.0060241
schooling la 0.0060241
correct la 0.0060241
headache la 0.0060241
lucky la 0.0060241
stand la 0.0120482
lightning la 0.0060241
banana la 0.0180723
at la 0.0060241
lives la 0.0120482
chemistry la 0.0060241
freak la 0.0060241
your la 0.0180723
life la 0.0361446
memory la 0.0060241
TV la 0.0120482
socially la 0.0060241
suffering la 0.0060241
notorious la 0.0060241
use la 0.0060241
urban la 0.0060241
most la 0.0120482
home la 0.0060241
poetry la 0.0060241
hunger la 0.0060241
politics la 0.0060241
leader la 0.0060241
go vont 0.5000000
will vont 0.5000000
police police 1.0000000
out tire 0.3333333
&apos;re tire 0.3333333
getting tire 0.3333333
witnesses Jéhovah 1.0000000
invited inviter 1.0000000
&apos;s terminé 0.3333333
over terminé 0.3333333
job terminé 0.3333333
married mariée 1.0000000
regret regrettent 1.0000000
music musique 1.0000000
some certaine 1.0000000
old vieille 1.0000000
for envers 0.5000000
feelings envers 0.5000000
making occupée 0.5000000
busy occupée 0.5000000
for responsable 0.5000000
responsible responsable 0.5000000
using techniques 1.0000000
ideals communs 1.0000000
go vais 0.0526316
NULL vais 0.1052632
out vais 0.0526316
&apos;m vais 0.4210526
gonna vais 0.2105263
going vais 0.1578947
talking parles-tu 0.3333333
you parles-tu 0.3333333
about parles-tu 0.3333333
home livres 1.0000000
dinner dîner 1.0000000
mine affaires 1.0000000
infinite infini 1.0000000
there problème 0.0769231
matter problème 0.0769231
? problème 0.0769231
problem problème 0.7692308
pages pages 1.0000000
On Au 0.6666667
NULL Au 0.3333333
doubts Douter 0.3333333
have Douter 0.3333333
To Douter 0.3333333
Winter hiver 0.5000000
is hiver 0.5000000
candlelight bougies 1.0000000
tired fatigués 1.0000000
indicated indiqua 1.0000000
masturbate acceptable 1.0000000
plays extrêmement 1.0000000
lunch pause 0.5000000
during pause 0.5000000
despite malgré 1.0000000
sunburn soleil 0.2500000
sunset soleil 0.2500000
sunny soleil 0.5000000
Thank Merci 0.3684211
you Merci 0.3684211
very Merci 0.1052632
Thanks Merci 0.1578947
something quelque 0.9285714
somewhere quelque 0.0714286
thoughts vues 1.0000000
21 21 0.5000000
made 21 0.5000000
pretty pretty 1.0000000
Your Ton 1.0000000
mom maman 0.5000000
doesn maman 0.5000000
suffering souffrance 1.0000000
you songe 0.2500000
think songe 0.2500000
Don songe 0.2500000
of songe 0.2500000
stand planté 1.0000000
expensive cher 1.0000000
promise promettre 0.3333333
a promettre 0.3333333
make promettre 0.3333333
found trouvée 0.6666667
it trouvée 0.3333333
Let savoir 0.2222222
luck savoir 0.1111111
know savoir 0.3333333
me savoir 0.2222222
helps savoir 0.1111111
fought combattu 1.0000000
account compte 0.1250000
realize compte 0.2500000
bone compte 0.1250000
notice compte 0.1250000
realized compte 0.1250000
have compte 0.1250000
an compte 0.1250000
window fenêtre 1.0000000
unlikely improbable 1.0000000
difficult difficile 1.0000000
going devenant 0.3333333
heirless devenant 0.3333333
king devenant 0.3333333
Monica Monica 1.0000000
Therein C&apos; 0.0192308
He C&apos; 0.0384615
That C&apos; 0.1923077
This C&apos; 0.0961538
It C&apos; 0.5769231
You C&apos; 0.0384615
Is C&apos; 0.0384615
unnecessary inutile 1.0000000
a profond 0.5000000
profound profond 0.5000000
When Lorsque 1.0000000
sexy sexy 1.0000000
formal écriture 1.0000000
math maths 0.7500000
Math maths 0.2500000
whose duquel 0.5000000
side duquel 0.5000000
video vidéo 0.5000000
game vidéo 0.5000000
abortions avortement 1.0000000
Hello Allô 0.5000000
Are Allô 0.5000000
mad furieux 1.0000000
check vérifier 1.0000000
online connectée 1.0000000
hockey joueurs 1.0000000
he dit-il 0.5000000
said dit-il 0.5000000
designed été 0.1111111
NULL été 0.1111111
struck été 0.1111111
been été 0.2222222
written été 0.1111111
meant été 0.1111111
the été 0.1111111
breaks été 0.1111111
sign signe 0.6666667
any signe 0.3333333
Prosecutors procureurs 1.0000000
wasted perdu 0.1666667
lost perdu 0.8333333
deer cerf 1.0000000
murderer fut 0.1428571
Europe fut 0.1428571
once fut 0.1428571
was fut 0.5714286
discovery découverte 1.0000000
wanting désirer 1.0000000
hard dure 0.6666667
harder dure 0.3333333
on Attends 0.5000000
Hold Attends 0.5000000
lovely endroit 1.0000000
unpleasant désagréable 1.0000000
Sven Sven 1.0000000
Europe Europe 1.0000000
arguing disputer 1.0000000
corroborate corroborer 0.5000000
Gary corroborer 0.5000000
sown semé 1.0000000
vacillated hésitait 1.0000000
yard bras 0.5000000
a bras 0.5000000
want désirons 0.5000000
Nowadays désirons 0.5000000
face-to-face plausibles 1.0000000
high lycée 0.2000000
school lycée 0.6000000
, lycée 0.2000000
class cours 0.2857143
lecture cours 0.1428571
classes cours 0.1428571
starting cours 0.1428571
are cours 0.1428571
communication cours 0.1428571
alone seuls 1.0000000
same identiques 0.5000000
the identiques 0.5000000
pancakes crêpes 1.0000000
stay séjourné 1.0000000
desired souhaitée 1.0000000
abstract concept 1.0000000
moss mousse 1.0000000
drastically radicalement 1.0000000
despise absolument 0.2500000
totally absolument 0.2500000
just absolument 0.2500000
pointless absolument 0.2500000
notorious fameuse 0.5000000
a fameuse 0.5000000
more réfléchir 0.1666667
any réfléchir 0.1666667
it réfléchir 0.1666667
think réfléchir 0.1666667
thinking réfléchir 0.3333333
read rentrent 1.0000000
Our Notre 1.0000000
woman quand 0.0500000
if quand 0.0500000
when quand 0.8500000
NULL quand 0.0500000
black chapeau 1.0000000
alive vivant 0.5000000
at vivant 0.2500000
lifetime vivant 0.2500000
go retournions 0.3333333
&apos;t retournions 0.3333333
don retournions 0.3333333
John John 1.0000000
slowly lentement 1.0000000
while pleurer 0.5000000
cry pleurer 0.5000000
miser avare 1.0000000
big ... 0.0555556
say ... 0.0555556
sneeze ... 0.0555556
snore ... 0.0555556
... ... 0.5555556
. ... 0.2222222
should aurais 0.1428571
would aurais 0.2142857
wouldn aurais 0.0714286
shouldn aurais 0.0714286
have aurais 0.4285714
couldn aurais 0.0714286
your avis 0.5000000
mind avis 0.5000000
charges argent 0.1111111
money argent 0.8888889
, ascétique 1.0000000
transmitted sexuellement 1.0000000
compensatory aptitude 1.0000000
city ville 0.3333333
most ville 0.3333333
in ville 0.3333333
taciturn individu 1.0000000
So Eh 0.3333333
Hey Eh 0.6666667
Arc Arc 1.0000000
force convertir 0.2500000
their convertir 0.2500000
on convertir 0.2500000
beliefs convertir 0.2500000
Russians Russes 1.0000000
you Avez-vous 0.5000000
have Avez-vous 0.2500000
Do Avez-vous 0.2500000
ask demanderai 0.5000000
won demanderai 0.5000000
fat gros 1.0000000
dentist dentiste 1.0000000
condition condition 0.2500000
under condition 0.2500000
one condition 0.2500000
only condition 0.2500000
prudent prudent 1.0000000
vacation vacances 0.3333333
holiday vacances 0.3333333
breaks vacances 0.3333333
girl fille 1.0000000
home maison 1.0000000
dance danser 0.5000000
to danser 0.2500000
one danser 0.2500000
abrupt abrupte 1.0000000
admit avouer 1.0000000
back rends-moi 0.3333333
me rends-moi 0.3333333
Give rends-moi 0.3333333
plane avion 1.0000000
previous déclaration 1.0000000
Professors professeurs 0.5000000
must professeurs 0.5000000
a voitures 0.5000000
car voitures 0.5000000
spent passé 0.5000000
past passé 0.1666667
known passé 0.1666667
happened passé 0.1666667
helping aider 1.0000000
happen arrivera 0.5000000
won arrivera 0.5000000
poverty pauvreté 1.0000000
up Pressez-vous 0.5000000
Hurry Pressez-vous 0.5000000
wasted un 0.0076923
step un 0.0076923
someday un 0.0307692
send un 0.0076923
desire un 0.0076923
prison un 0.0076923
someone un 0.0384615
somebody un 0.0153846
poem un 0.0076923
wrong un 0.0076923
one un 0.0230769
an un 0.1000000
either un 0.0076923
innocent un 0.0076923
NULL un 0.0307692
a un 0.6769231
tools un 0.0076923
ambiguous un 0.0076923
breakthroughs scientifiques 1.0000000
are se 0.0243902
man se 0.0243902
fighting se 0.0243902
delight se 0.0243902
to se 0.0243902
advocating se 0.0243902
use se 0.0243902
up se 0.0243902
masturbate se 0.0243902
NULL se 0.0975610
breed se 0.0243902
realize se 0.0487805
err se 0.0243902
meeting se 0.0243902
happen se 0.0243902
arguing se 0.0243902
spread se 0.0243902
may se 0.0975610
ocean se 0.0243902
wake se 0.0243902
behaving se 0.0243902
began se 0.0243902
players se 0.0243902
happens se 0.0731707
drift se 0.0243902
volunteered se 0.0243902
wondered se 0.0243902
marry se 0.0975610
yields se 0.0243902
to voulez 0.5000000
want voulez 0.5000000
exclaimed exclama-t-il 1.0000000
from arrive 0.2000000
can arrive 0.4000000
happen arrive 0.2000000
happens arrive 0.2000000
point but 0.2500000
a but 0.5000000
purpose but 0.2500000
then Sudoku 0.3333333
play Sudoku 0.3333333
Sudoku Sudoku 0.3333333
pronounce pronounce 1.0000000
wrath courroux 1.0000000
Let Réfléchissons 0.3333333
consider Réfléchissons 0.3333333
&apos;s Réfléchissons 0.3333333
increased augmenté 1.0000000
refute réfuter 0.5000000
to réfuter 0.5000000
is équivaut 0.3333333
the équivaut 0.3333333
wanting équivaut 0.3333333
usurp usurper 1.0000000
fragile fragile 1.0000000
new nouvelle 1.0000000
found trouvé 1.0000000
should dû 0.4000000
logged dû 0.2000000
have dû 0.4000000
essay rédaction 1.0000000
Many Beaucoup 1.0000000
seriously sérieux 1.0000000
qualities qualités 1.0000000
come viens 0.2500000
said viens 0.2500000
Just viens 0.2500000
just viens 0.2500000
important important 0.6666667
anymore important 0.3333333
10 10 0.6666667
Ten 10 0.3333333
sleep dormir 0.7000000
bed dormir 0.1000000
to dormir 0.2000000
all partout 0.4000000
politicians partout 0.2000000
over partout 0.4000000
came est 0.0045249
died est 0.0045249
somewhat est 0.0045249
do est 0.0045249
down est 0.0045249
can est 0.0045249
welcome est 0.0045249
NULL est 0.0226244
built est 0.0045249
&apos;re est 0.0045249
got est 0.0045249
are est 0.0271493
; est 0.0090498
lies est 0.0045249
because est 0.0045249
Is est 0.0135747
is est 0.5972851
&apos;s est 0.2624434
isn est 0.0045249
apologized est 0.0045249
impossible est 0.0045249
universe univers 1.0000000
severely réprouvait 1.0000000
call pourrais 0.3333333
could pourrais 0.6666667
Let Faites-moi 1.0000000
learned apprises 1.0000000
&apos;m crève 1.0000000
give abandonne 0.5000000
up abandonne 0.5000000
live vivent 1.0000000
throw lancer 1.0000000
acclaimed acclamé 1.0000000
years années 0.6666667
1950 années 0.3333333
no différents 0.5000000
different différents 0.5000000
see voyons 1.0000000
left restent-ils 1.0000000
names vos 0.5000000
what vos 0.5000000
enough suffisamment 0.6666667
simple suffisamment 0.3333333
Open Ouvre 1.0000000
painted décrivait 1.0000000
glasses lunettes 1.0000000
spend consacre 1.0000000
magic magique 0.5000000
sword magique 0.5000000
takes ça 0.0285714
why ça 0.0285714
that ça 0.1428571
life ça 0.0285714
it ça 0.4571429
how ça 0.0285714
phrased ça 0.0285714
do ça 0.0285714
mean ça 0.0285714
this ça 0.0857143
kind ça 0.0285714
NULL ça 0.0857143
praising alors 0.1250000
what alors 0.1250000
so alors 0.2500000
then alors 0.3750000
, alors 0.1250000
email courriels 1.0000000
Internet internet 0.3333333
the internet 0.3333333
website internet 0.3333333
across traverser 1.0000000
credulity crédulité 1.0000000
marshmallow marschmallow 1.0000000
you manges-tu 0.5000000
eat manges-tu 0.5000000
fell tombées 0.5000000
on tombées 0.5000000
telling divulguer 0.5000000
everybody divulguer 0.5000000
late vieux 0.6666667
dude vieux 0.1666667
old vieux 0.1666667
ruining ruinent 0.5000000
are ruinent 0.5000000
ready prête 1.0000000
a souriant 0.3333333
with souriant 0.3333333
smile souriant 0.3333333
many autant 0.3333333
so autant 0.3333333
With autant 0.3333333
know connaissez 1.0000000
A Pierre 0.3333333
rolling Pierre 0.3333333
stone Pierre 0.3333333
After Après 1.0000000
&apos;t sais 0.0833333
knew sais 0.0833333
know sais 0.7500000
cannot sais 0.0833333
influenced influencé 1.0000000
substantiate étayer 1.0000000
drink nourriture 0.5000000
food nourriture 0.5000000
fans fidèles 1.0000000
juice orange 1.0000000
want veulent 0.3333333
only veulent 0.3333333
to veulent 0.3333333
be faudrait 0.6666667
should faudrait 0.3333333
easily facilement 1.0000000
health santé 1.0000000
Every Toute 1.0000000
gone disparu 0.5000000
disappeared disparu 0.5000000
overthrown fallait 1.0000000
like Voudrais-tu 0.3333333
you Voudrais-tu 0.3333333
Would Voudrais-tu 0.3333333
&apos;s web 0.5000000
layout web 0.5000000
; surpris 0.3333333
guard surpris 0.3333333
surprised surpris 0.3333333
intriguing intriguant 1.0000000
I. . 0.0025445
! . 0.0050891
. . 0.9910941
Eichler . 0.0012723
marshmallow guimauve 1.0000000
to prendre 0.5000000
take prendre 0.5000000
With Avec 0.6666667
You Avec 0.3333333
interest intérêt 0.3333333
personal intérêt 0.3333333
purpose intérêt 0.3333333
What Quel 1.0000000
form forme 0.5000000
shape forme 0.5000000
anyone devait 1.0000000
by remarques 0.2500000
Spenser remarques 0.2500000
Sherlock remarques 0.2500000
sarcastic remarques 0.2500000
today aujourd&apos; 0.5714286
that aujourd&apos; 0.1428571
up aujourd&apos; 0.1428571
else aujourd&apos; 0.1428571
especially particulier 1.0000000
expect attends 0.5000000
Don attends 0.5000000
understands comprend 1.0000000
Rome Rome 0.5000000
wasn Rome 0.5000000
phrased peut 0.0312500
appear peut 0.0312500
may peut 0.1250000
NULL peut 0.0625000
can peut 0.5312500
cannot peut 0.1250000
be peut 0.0937500
class classe 0.7500000
NULL classe 0.2500000
train arrêt 0.5000000
stops arrêt 0.5000000
I Puis-je 0.5000000
May Puis-je 0.5000000
once autrefois 1.0000000
slowest lent 0.5000000
one lent 0.5000000
seat ceintures 1.0000000
&quot; » 1.0000000
should voulait 0.3333333
with voulait 0.3333333
wanted voulait 0.3333333
showing montrer 1.0000000
bit peu 0.5000000
little peu 0.5000000
sentences phrases 1.0000000
full plein 0.3333333
ran plein 0.3333333
plenty plein 0.3333333
death sentence 0.5000000
sentence sentence 0.5000000
via dites 1.0000000
first porter 1.0000000
stagnant voir 0.1250000
visit voir 0.1250000
see voir 0.5000000
death voir 0.1250000
have voir 0.1250000
intrigue intriguent 1.0000000
do ai-je 0.1666667
have ai-je 0.1666667
you ai-je 0.5000000
options ai-je 0.1666667
call appellerai 0.5000000
them appellerai 0.5000000
Vince Vince 1.0000000
speak Parles-tu 0.5000000
Do Parles-tu 0.5000000
seems paraît 0.6666667
to paraît 0.3333333
reprehensible acte 1.0000000
school pied 0.5000000
me pied 0.5000000
look regarde 0.2857143
roommate regarde 0.1428571
watching regarde 0.1428571
is regarde 0.2857143
, regarde 0.1428571
NULL m&apos; 0.0238095
took m&apos; 0.0238095
sorry m&apos; 0.0238095
told m&apos; 0.0238095
having m&apos; 0.0238095
care m&apos; 0.0476190
opened m&apos; 0.0238095
abandon m&apos; 0.0238095
almost m&apos; 0.0238095
made m&apos; 0.0476190
Jack m&apos; 0.0238095
help m&apos; 0.0238095
found m&apos; 0.0238095
listened m&apos; 0.0238095
helping m&apos; 0.0238095
intrigue m&apos; 0.0238095
me m&apos; 0.4047619
letters m&apos; 0.0238095
boat m&apos; 0.0476190
lower m&apos; 0.0238095
&apos;ll m&apos; 0.0476190
caught m&apos; 0.0238095
friends copains 1.0000000
battle bataille 1.0000000
marry marie 1.0000000
away fuir 0.5000000
running fuir 0.5000000
cool cool 1.0000000
Iraq Irak 1.0000000
sort genre 1.0000000
will aura 0.3333333
via aura 0.6666667
school école 1.0000000
answered Willie 1.0000000
late retard 1.0000000
Their leur 0.0500000
proof leur 0.0500000
them leur 0.3500000
their leur 0.4000000
released leur 0.0500000
outrageous leur 0.0500000
daily leur 0.0500000
liters litres 1.0000000
late tard 0.5000000
later tard 0.5000000
languages étrangères 1.0000000
Excuse Excusez-moi 1.0000000
shows montre 1.0000000
at Regarde-moi 0.3333333
Look Regarde-moi 0.3333333
me Regarde-moi 0.3333333
rich , 0.0038760
sick , 0.0038760
hot , 0.0038760
; , 0.0348837
now , 0.0038760
or , 0.0038760
math , 0.0038760
like , 0.0077519
18th , 0.0038760
NULL , 0.0503876
inch , 0.0038760
far-fetched , 0.0038760
Sadly , 0.0077519
Rachel , 0.0038760
spiders , 0.0038760
conviction , 0.0038760
shopping , 0.0038760
, , 0.7674419
meet , 0.0077519
even , 0.0038760
he , 0.0155039
So , 0.0038760
. , 0.0503876
not là-bas 0.5000000
there là-bas 0.5000000
do feras 1.0000000
anarchist anarchiste 1.0000000
filled rempli 1.0000000
matter va 0.0476190
NULL va 0.0476190
land va 0.0476190
going va 0.1904762
is va 0.0952381
how va 0.0476190
will va 0.2380952
are va 0.0476190
the va 0.0476190
&apos;s va 0.1428571
&apos;re va 0.0476190
demonstrate vu 0.3333333
saw vu 0.6666667
credit carte 0.3333333
card carte 0.3333333
identity carte 0.3333333
question clé 0.5000000
key clé 0.5000000
owned possédait 0.5000000
&apos;s possédait 0.5000000
orchestra orchestre 1.0000000
think pensent 1.0000000
Con escrocs 0.5000000
artists escrocs 0.5000000
Katja Katja 1.0000000
enough rapide 1.0000000
faith foi 1.0000000
lot trop 0.0270270
redundant trop 0.0270270
much trop 0.0540541
bored trop 0.0270270
NULL trop 0.0270270
so trop 0.0810811
too trop 0.7567568
hated détesté 0.5000000
who détesté 0.5000000
before devant 1.0000000
work travail 0.2500000
job travail 0.5000000
very travail 0.2500000
makes commet 1.0000000
wealthy homme 0.2000000
man homme 0.8000000
Good ! 0.0095238
! ! 0.8666667
. ! 0.1238095
Call Appelez 1.0000000
sow sème 1.0000000
looks semble 0.5000000
seems semble 0.5000000
much grand-chose 0.5000000
mean grand-chose 0.5000000
feeling sensation 1.0000000
calm calme 1.0000000
away renvoyés 0.5000000
them renvoyés 0.5000000
argument enflammée 1.0000000
room chambre 1.0000000
lunch déjeuner 0.5000000
break déjeuner 0.5000000
known connu 1.0000000
did n 0.0909091
haven n 0.0909091
don n 0.0909091
do n 0.0909091
child n 0.0909091
NULL n 0.0909091
’ n 0.0909091
was n 0.0909091
gave n 0.0909091
rich n 0.0909091
are n 0.0909091
America Amérique 1.0000000
undressing déshabille 0.5000000
&apos;m déshabille 0.5000000
If S&apos; 0.3333333
Please S&apos; 0.3333333
Where S&apos; 0.3333333
needed en 0.0126582
NULL en 0.1139241
doing en 0.0253165
oaken en 0.0126582
saying en 0.0126582
looking en 0.0126582
the en 0.0126582
to en 0.0506329
elected en 0.0126582
while en 0.0126582
adopt en 0.0126582
won en 0.0126582
country en 0.0126582
into en 0.0253165
been en 0.0126582
going en 0.0126582
late en 0.0126582
king en 0.0126582
smile en 0.0253165
by en 0.0253165
blame en 0.0126582
care en 0.0253165
did en 0.0126582
from en 0.0126582
furious en 0.0126582
leave en 0.0126582
resorted en 0.0126582
holiday en 0.0126582
talk en 0.0126582
especially en 0.0126582
face-to-face en 0.0253165
game en 0.0126582
as en 0.0253165
in en 0.2405063
&apos;t en 0.0126582
on en 0.0126582
take en 0.0126582
you en 0.0379747
at en 0.0379747
believe croiront 0.5000000
will croiront 0.5000000
letters lettres 1.0000000
will sélectionnés 1.0000000
wonder étonner 1.0000000
she manquait 0.5000000
lacked manquait 0.5000000
numbers fétiches 1.0000000
voice voix 1.0000000
affects affecte 1.0000000
sea donc 0.1428571
NULL donc 0.1428571
so donc 0.4285714
what donc 0.1428571
therefore donc 0.1428571
worldwide entier 1.0000000
oaken table 1.0000000
study étude 1.0000000
artists artistes 0.5000000
Pop artistes 0.5000000
belts sécurité 1.0000000
analyzed analysé 1.0000000
officials gouvernementaux 1.0000000
the évidence 0.5000000
obvious évidence 0.5000000
politician politicien 1.0000000
maintained soutenait 1.0000000
John qu 0.0769231
expecting qu 0.0769231
tyrant qu 0.1538462
that qu 0.1538462
techniques qu 0.0769231
teacher qu 0.0769231
what qu 0.1538462
NULL qu 0.2307692
friend amie 1.0000000
been ainsi 0.2500000
it ainsi 0.2500000
has ainsi 0.2500000
way ainsi 0.2500000
keeps retient 1.0000000
cleaning ménage 1.0000000
news article 0.5000000
above article 0.5000000
contrary contraire 0.6000000
the contraire 0.4000000
cost coûtera 0.5000000
will coûtera 0.5000000
lecture magistral 0.5000000
may magistral 0.5000000
rain pleuvoir 1.0000000
door d&apos; 0.0128205
else d&apos; 0.0256410
have d&apos; 0.0128205
your d&apos; 0.0128205
money d&apos; 0.0256410
responsible d&apos; 0.0128205
close d&apos; 0.0256410
of d&apos; 0.2435897
making d&apos; 0.0384615
according d&apos; 0.0128205
intend d&apos; 0.0128205
equality d&apos; 0.0128205
from d&apos; 0.0384615
children d&apos; 0.0256410
difficult d&apos; 0.0384615
educated d&apos; 0.0128205
discovery d&apos; 0.0128205
glad d&apos; 0.0128205
usage d&apos; 0.0128205
where d&apos; 0.0128205
ideals d&apos; 0.0128205
mistakes d&apos; 0.0128205
planning d&apos; 0.0128205
to d&apos; 0.2179487
practical d&apos; 0.0128205
fasten d&apos; 0.0128205
near d&apos; 0.0128205
phrased d&apos; 0.0128205
juice d&apos; 0.0128205
card d&apos; 0.0128205
Revolutionary d&apos; 0.0128205
NULL d&apos; 0.0256410
balance d&apos; 0.0128205
decide décide 1.0000000
study études 0.5000000
like études 0.5000000
machine compliquée 0.3333333
complicated compliquée 0.3333333
; compliquée 0.3333333
give donner 1.0000000
can devines 0.5000000
guess devines 0.5000000
mathematical mathématique 1.0000000
I J 1.0000000
sources sources 1.0000000
bought acheté 1.0000000
Could Pourriez-vous 1.0000000
dedicated consacrés 1.0000000
What Qu&apos; 1.0000000
be sois 0.5000000
worry sois 0.2500000
antisocial sois 0.2500000
it détruire 0.5000000
destroy détruire 0.5000000
skin envoient 0.5000000
send envoient 0.5000000
produce produire 1.0000000
gracefully grâce 1.0000000
data données 1.0000000
wedding mariage 1.0000000
resorted venus 1.0000000
about sujet 0.5000000
volatile sujet 0.5000000
ringing sonne 0.5000000
is sonne 0.5000000
a désordre 0.5000000
mess désordre 0.5000000
only seul 0.2500000
alone seul 0.5000000
defect seul 0.2500000
formation formation 1.0000000
scrutinizes scrute 1.0000000
virtuoso virtuose 0.5000000
skills virtuose 0.5000000
London Londres 1.0000000
laughing rire 1.0000000
idea folle 1.0000000
you manques 0.5000000
miss manques 0.5000000
began commencèrent 1.0000000
advantage tirent 0.5000000
artists tirent 0.5000000
hour heure 1.0000000
dream fais 0.1111111
&apos;re fais 0.1111111
referring fais 0.1111111
&apos;m fais 0.3333333
doing fais 0.1111111
just fais 0.2222222
Did As-tu 0.1304348
have As-tu 0.1304348
you As-tu 0.4347826
Have As-tu 0.1304348
Do As-tu 0.1739130
Better vaut 0.5000000
whole vaut 0.5000000
guilty coupable 0.5000000
convicted coupable 0.2500000
man coupable 0.2500000
be devrait 0.2000000
should devrait 0.8000000
does cela 0.1666667
it cela 0.5000000
NULL cela 0.1666667
that cela 0.1666667
binary binaire 0.5000000
, binaire 0.5000000
one régimes 1.0000000
arrive arrivons-nous 0.5000000
we arrivons-nous 0.5000000
&apos;s anniversaire 0.4000000
birthday anniversaire 0.6000000
signs signes 1.0000000
written écrit 1.0000000
twelve douze 1.0000000
library bibliothèque 1.0000000
kill tuer 1.0000000
transform transformer 1.0000000
me Regardez-moi 0.3333333
Look Regardez-moi 0.3333333
at Regardez-moi 0.3333333
wondering demandais 0.5000000
was demandais 0.5000000
out trouille 1.0000000
the depuis 0.1666667
anything depuis 0.1666667
in depuis 0.1666667
sunset depuis 0.1666667
since depuis 0.3333333
park garer 1.0000000
week prochaine 1.0000000
hot chaud 0.6666667
today chaud 0.1666667
chocolate chaud 0.1666667
over fil 1.0000000
both deux 0.2500000
two deux 0.7500000
in durant 0.5000000
lives durant 0.5000000
mysterious apprécié 1.0000000
made mettaient 1.0000000
those ceux 1.0000000
yet commencé 0.3333333
even commencé 0.1666667
started commencé 0.1666667
begun commencé 0.3333333
suggest suggèrent 1.0000000
crazy fou 0.6000000
mad fou 0.2000000
beside fou 0.2000000
reflected reflètent 0.5000000
are reflètent 0.5000000
own propre 1.0000000
killed tua 1.0000000
wishes souhaite 1.0000000
six ans 0.1428571
years ans 0.7142857
20 ans 0.1428571
belief répandue 1.0000000
1978 1978 1.0000000
drift aller 0.0400000
go aller 0.4400000
to aller 0.4400000
planning aller 0.0400000
walk aller 0.0400000
crazy cette 1.0000000
changed agencement 1.0000000
skills talents 1.0000000
ability compensatoire 1.0000000
raise lève 1.0000000
revolve tourne 1.0000000
If Si 1.0000000
level niveau 1.0000000
plays joue 0.6666667
play joue 0.3333333
of statue 0.5000000
statue statue 0.5000000
leave partent 1.0000000
name appelle 0.2000000
is appelle 0.2000000
My appelle 0.2000000
Jack appelle 0.2000000
objective appelle 0.2000000
schools écoles 0.6666667
from écoles 0.3333333
breed reproduisent 0.5000000
don reproduisent 0.5000000
rectifying encore 0.1176471
sandwiches encore 0.1176471
it encore 0.0588235
still encore 0.4705882
begun encore 0.1176471
harder encore 0.1176471
capricious capricieux 1.0000000
sunny du 0.0333333
testimony du 0.0166667
NULL du 0.0166667
analysis du 0.0166667
city du 0.0333333
effects du 0.0166667
card du 0.0166667
grim du 0.0166667
subjects du 0.0166667
orange du 0.0166667
sunset du 0.0166667
Back du 0.0166667
time du 0.0500000
of du 0.0500000
the du 0.3333333
depravity du 0.0166667
piano du 0.0333333
importance du 0.0166667
sleep du 0.0166667
five du 0.0333333
decorum du 0.0166667
statue du 0.0166667
himself du 0.0166667
schedule du 0.0333333
at du 0.0333333
noise du 0.0166667
depends du 0.0666667
diets du 0.0166667
NULL rébellion 1.0000000
brought apporté 1.0000000
me rêver 0.3333333
dream rêver 0.3333333
make rêver 0.3333333
be renverser 0.5000000
overthrown renverser 0.5000000
Good Bonjour 0.5000000
day Bonjour 0.1666667
morning Bonjour 0.3333333
nature attentionnée 1.0000000
traveller voyageur 1.0000000
crashed écrasa 1.0000000
NULL comportaient 1.0000000
coward trouillard 1.0000000
selection arbitraire 0.5000000
arbitrary arbitraire 0.5000000
interesting intéressant 1.0000000
fall tomber 1.0000000
depends dépendra 0.5000000
on dépendra 0.5000000
exclaimed écria-t-il 1.0000000
people aveugles 0.5000000
Blind aveugles 0.5000000
teeth dents 1.0000000
stole volé 1.0000000
NULL tête 0.2500000
mind tête 0.5000000
headache tête 0.2500000
reader lecteur 1.0000000
going y 0.0289855
there y 0.2318841
mention y 0.0144928
about y 0.0289855
NULL y 0.0289855
There y 0.2028986
do y 0.0289855
are y 0.1159420
gonna y 0.0144928
including y 0.0144928
&apos;s y 0.2028986
while y 0.0289855
long y 0.0579710
mother mère 1.0000000
Uh Euh 1.0000000
great grande 0.6000000
greatest grande 0.4000000
email via 0.5000000
via via 0.5000000
light déjà 0.2000000
already déjà 0.4000000
ever déjà 0.4000000
must dois 0.0909091
to dois 0.0909091
have dois 0.8181818
tired las 1.0000000
People Ils 0.2500000
They Ils 0.7500000
furious colère 1.0000000
people Français 0.5000000
French Français 0.5000000
Chinese chinois 1.0000000
medical médicaux 1.0000000
mosquitoes afin 1.0000000
Innocence innocence 1.0000000
writing superficiels 1.0000000
it beaucoup 0.0952381
a beaucoup 0.0952381
very beaucoup 0.0952381
lot beaucoup 0.1904762
many beaucoup 0.1428571
much beaucoup 0.3809524
selected seront 1.0000000
plans plans 1.0000000
side côtés 0.5000000
; côtés 0.5000000
Poor pauvre 1.0000000
generation génération 1.0000000
foolish point 1.0000000
sustainability environnement 1.0000000
stones pierres 1.0000000
Merry Joyeux 1.0000000
doesn continue 0.5000000
keep continue 0.5000000
email emails 1.0000000
pseudo-science pseudo-science 1.0000000
enough perspicace 1.0000000
Did T&apos; 0.1818182
Hello T&apos; 0.0909091
You T&apos; 0.7272727
to doivent 0.4285714
get doivent 0.1428571
have doivent 0.4285714
throne trône 1.0000000
thing stupide 0.2500000
stupid stupide 0.5000000
stupidest stupide 0.2500000
way tel 0.5000000
the tel 0.5000000
Creationism créationnisme 1.0000000
Sadly Malheureusement 1.0000000
cited Finnois 1.0000000
machine barbe-à-papa 1.0000000
wallet portefeuille 1.0000000
the alunir 0.3333333
moon alunir 0.3333333
on alunir 0.3333333
examination sommaire 1.0000000
It Cela 1.0000000
Only simple 0.1428571
simple simple 0.7142857
mere simple 0.1428571
a emploi 0.3333333
schedule emploi 0.6666667
advantage avantage 0.5000000
take avantage 0.5000000
delight délectent 0.5000000
in délectent 0.5000000
release libération 1.0000000
national budget 1.0000000
door voisin 0.5000000
next voisin 0.5000000
refused refuser 1.0000000
will périrons 0.5000000
perish périrons 0.5000000
dies meurt 0.5000000
die meurt 0.5000000
such chimiques 0.5000000
chemicals chimiques 0.5000000
detail détail 1.0000000
see voyez 1.0000000
water eau 1.0000000
quality qualité 1.0000000
washing lavage 1.0000000
length optimale 0.5000000
optimum optimale 0.5000000
stories histoires 1.0000000
you que 0.1523810
consider que 0.0047619
what que 0.0714286
said que 0.0047619
want que 0.0095238
Maybe que 0.0047619
Because que 0.0047619
just que 0.0190476
lies que 0.0047619
Whenever que 0.0047619
that que 0.1761905
think que 0.0523810
endorphins que 0.0047619
than que 0.0476190
since que 0.0142857
anyone que 0.0047619
say que 0.0142857
mean que 0.0047619
antisocial que 0.0047619
thinker que 0.0047619
expect que 0.0142857
those que 0.0047619
letters que 0.0047619
winner que 0.0047619
fifty que 0.0047619
but que 0.0047619
though que 0.0047619
says que 0.0190476
understanding que 0.0047619
beliefs que 0.0047619
anything que 0.0095238
which que 0.0047619
into que 0.0047619
because que 0.0428571
suppose que 0.0095238
nobody que 0.0047619
regardless que 0.0047619
thing que 0.0142857
thought que 0.0095238
discovered que 0.0047619
existed que 0.0047619
NULL que 0.1666667
saying que 0.0190476
only que 0.0190476
makes produit 1.0000000
cheating trompant 0.3333333
them trompant 0.3333333
on trompant 0.3333333
taking enlevant 1.0000000
next gèle 0.5000000
freeze gèle 0.5000000
watched regardé 1.0000000
monkey têtes 1.0000000
know savez 1.0000000
I aimerais 0.1111111
wish aimerais 0.2222222
could aimerais 0.1111111
&apos;d aimerais 0.3333333
like aimerais 0.2222222
filled poésie 1.0000000
do l 0.3333333
the l 0.3333333
afternoon l 0.1666667
which l 0.1666667
it reproduire 0.5000000
reproduce reproduire 0.5000000
person personne 0.4000000
nobody personne 0.1000000
whom personne 0.1000000
flawed personne 0.1000000
no personne 0.2000000
anyone personne 0.1000000
tuning accorde 0.5000000
up accorde 0.5000000
up amassé 0.5000000
ran amassé 0.5000000
off déconnecter 1.0000000
did faisaient 1.0000000
old vieil 0.5000000
benevolent vieil 0.5000000
room pièce 0.5000000
most pièce 0.5000000
Even Même 1.0000000
that marche 0.3333333
working marche 0.3333333
&apos;s marche 0.3333333
sycophants courtisans 1.0000000
telephone téléphone 0.3333333
phone téléphone 0.6666667
know sait 0.5000000
If sait 0.5000000
about oublieras 0.5000000
forget oublieras 0.5000000
Yes oui 1.0000000
Smile Souris 1.0000000
constraint retenue 1.0000000
today Aujourd&apos; 0.3333333
Today Aujourd&apos; 0.6666667
the désir 0.5000000
desire désir 0.5000000
bottles bouteille 1.0000000
memorization mémorisation 1.0000000
read lis-le 0.5000000
it lis-le 0.5000000
anonymous compris 0.3333333
misunderstood compris 0.3333333
understood compris 0.3333333
pools mares 1.0000000
buys achète 0.3333333
would achète 0.3333333
buy achète 0.3333333
forever éternellement 1.0000000
would ferais 1.0000000
conflagration incendie 1.0000000
might pourrait 0.2000000
could pourrait 0.8000000
regretting regretter 1.0000000
though sérieusement 0.5000000
have sérieusement 0.5000000
certain certain 1.0000000
couples couples 1.0000000
do ferai 0.5000000
&apos;ll ferai 0.5000000
game ligne 0.5000000
challenges ligne 0.5000000
plushy peluche 1.0000000
could pouvait 1.0000000
fights bagarres 1.0000000
turbulence turbulences 1.0000000
depends Ca 0.2500000
all Ca 0.2500000
It Ca 0.2500000
This Ca 0.2500000
met rencontrés 1.0000000
is est-elle 1.0000000
train venant 0.5000000
from venant 0.5000000
so tellement 0.5833333
much tellement 0.2500000
sad tellement 0.0833333
of tellement 0.0833333
spell épelles-tu 0.3333333
do épelles-tu 0.3333333
you épelles-tu 0.3333333
a télé 0.2500000
TV télé 0.7500000
famous célèbre 1.0000000
got obtint 1.0000000
forever éternité 0.5000000
eternity éternité 0.5000000
nerves nerfs 0.5000000
my nerfs 0.5000000
the élèves 0.1428571
students élèves 0.5714286
papers élèves 0.1428571
&apos; élèves 0.1428571
did avez-vous 0.3333333
have avez-vous 0.1111111
close avez-vous 0.1111111
you avez-vous 0.4444444
my genoux 0.5000000
knees genoux 0.5000000
fifty cinquante 0.5000000
and cinquante 0.5000000
brothers frères 0.5000000
siblings frères 0.5000000
lonely L&apos; 0.0769231
Imagination L&apos; 0.0769231
The L&apos; 0.4615385
Education L&apos; 0.0769231
Love L&apos; 0.0769231
Innocence L&apos; 0.0769231
America L&apos; 0.0769231
Italy L&apos; 0.0769231
person normal 0.5000000
normal normal 0.5000000
chatting après-midi 0.3333333
whole après-midi 0.3333333
afternoon après-midi 0.3333333
What Que 1.0000000
up Dépêche-toi 0.5000000
Hurry Dépêche-toi 0.5000000
thought pensé 1.0000000
out sortir 0.2500000
get sortir 0.2500000
with sortir 0.2500000
should sortir 0.2500000
interesting intéressante 1.0000000
led amené 1.0000000
expect espérez 0.5000000
Don espérez 0.5000000
ironing repassage 0.5000000
at repassage 0.5000000
linked liés 1.0000000
making font 0.2000000
do font 0.2000000
&apos;re font 0.2000000
show font 0.2000000
children font 0.2000000
go partir 0.3333333
a partir 0.3333333
on partir 0.3333333
teacher prof 0.5000000
physics prof 0.5000000
saying train 0.2727273
doing train 0.2727273
train train 0.2727273
looking train 0.0909091
stops train 0.0909091
useful seules 0.3333333
only seules 0.3333333
alone seules 0.3333333
James James 1.0000000
said dite 1.0000000
inspiration inspiration 1.0000000
news nouvelles 0.2500000
ones nouvelles 0.2500000
new nouvelles 0.5000000
fearing craignant 1.0000000
accept accepte 1.0000000
left pars 1.0000000
such histoire 0.1666667
story histoire 0.8333333
is fait 0.0689655
pancakes fait 0.0344828
Did fait 0.0689655
three fait 0.0344828
&apos;s fait 0.1379310
done fait 0.0344828
did fait 0.0689655
do fait 0.0344828
a fait 0.0689655
light fait 0.0344828
NULL fait 0.1034483
intentionally fait 0.0344828
pranking fait 0.0344828
made fait 0.0344828
almost fait 0.0689655
hot fait 0.0344828
logical fait 0.0344828
has fait 0.0344828
for fait 0.0344828
days jours-ci 1.0000000
when lorsqu 1.0000000
bother déranger 1.0000000
of privées 0.3333333
the privées 0.3333333
universities privées 0.3333333
except mis 1.0000000
online pendant 0.1000000
lives pendant 0.1000000
fought pendant 0.1000000
train pendant 0.1000000
during pendant 0.1000000
while pendant 0.3000000
in pendant 0.2000000
neither ni 0.5000000
nor ni 0.5000000
my mains 0.5000000
hands mains 0.5000000
around autour 1.0000000
absolute pure 1.0000000
don signifient 1.0000000
about propos 1.0000000
writing formelle 1.0000000
lesser position 1.0000000
misinterpreted interprétées 1.0000000
was dissimulait 1.0000000
the responsables 1.0000000
crazy dingue 0.3333333
driving dingue 0.3333333
me dingue 0.3333333
interesting intéressantes 1.0000000
rancor rancoeur 1.0000000
lose perdre 1.0000000
colleges facultés 0.5000000
private facultés 0.5000000
light allumer 1.0000000
freedom liberté 0.6666667
consists liberté 0.3333333
criticizing critiquer 1.0000000
part partie 1.0000000
Cold Guerre 1.0000000
chemistry chimie 1.0000000
he parfois 0.3333333
develop parfois 0.3333333
difficulties parfois 0.3333333
skin peau 1.0000000
going vas 1.0000000
, oreille 0.5000000
ear oreille 0.5000000
answer réponse 1.0000000
designed conçues 1.0000000
&apos;m excuse 0.5000000
sorry excuse 0.5000000
concentrate concentrer 1.0000000
welcome plaisir 0.5000000
&apos;re plaisir 0.5000000
Trang dépit 0.3333333
&apos;s dépit 0.3333333
constant dépit 0.3333333
Revolutionary guerre 0.2500000
war guerre 0.7500000
away emmènera 0.5000000
far emmènera 0.5000000
telegram télégramme 1.0000000
unfortunately malheureusement 1.0000000
delight critiques 1.0000000
&apos;re êtes 0.4000000
famous êtes 0.2000000
are êtes 0.2000000
aren êtes 0.2000000
new nouvel 1.0000000
expert expert 1.0000000
Can Est-ce 0.0666667
Do Est-ce 0.2666667
Is Est-ce 0.3333333
Could Est-ce 0.0666667
Are Est-ce 0.2666667
So Moi 0.3333333
do Moi 0.3333333
candlelight Moi 0.1666667
sow Moi 0.1666667
keep arrêtent 1.0000000
week semaine 1.0000000
strengths forces 1.0000000
intelligence intelligence 1.0000000
true réalité 1.0000000
Why Pourquoi 1.0000000
Prime nombres 0.5000000
numbers nombres 0.5000000
Warcraft Warcraft 1.0000000
started commença 1.0000000
From après 0.2500000
according après 0.2500000
after après 0.5000000
took pris 0.2000000
air pris 0.2000000
put pris 0.2000000
made pris 0.2000000
acted pris 0.2000000
politician fit 1.0000000
meet rencontrer 0.3333333
to rencontrer 0.3333333
You rencontrer 0.3333333
century XXIe 0.5000000
21st XXIe 0.5000000
often Spenser 0.2000000
remarks Spenser 0.2000000
Spenser Spenser 0.6000000
zealots religieux 0.2500000
religious religieux 0.5000000
boys religieux 0.2500000
pride fierté 1.0000000
have devront 1.0000000
Madrid ces 0.1666667
those ces 0.3333333
these ces 0.5000000
cryptic Sherlock 1.0000000
up Grouille 0.5000000
Hurry Grouille 0.5000000
favorite saison 1.0000000
effects effet 1.0000000
her farce 0.2500000
pranking farce 0.2500000
him farce 0.2500000
prank farce 0.2500000
point signaler 0.3333333
out signaler 0.3333333
allow signaler 0.3333333
way moyen 1.0000000
easier plus 0.0238095
either plus 0.0238095
slowest plus 0.0238095
best plus 0.0238095
later plus 0.0714286
NULL plus 0.1190476
anymore plus 0.1190476
easiest plus 0.0238095
ask plus 0.0238095
greatest plus 0.0476190
stupidest plus 0.0238095
greater plus 0.0238095
more plus 0.2619048
harder plus 0.0714286
most plus 0.1190476
students étudiants 1.0000000
keep entretenir 0.5000000
up entretenir 0.5000000
being difficultés 0.3333333
with difficultés 0.3333333
difficulties difficultés 0.3333333
listened écouter 0.5000000
to écouter 0.5000000
intentionally caches 1.0000000
The flics 0.5000000
cops flics 0.5000000
NULL bon 0.1250000
good bon 0.8750000
angel ange 1.0000000
at venger 0.3333333
get venger 0.3333333
back venger 0.3333333
youth auberge 1.0000000
cubic mètre 1.0000000
rhetorical rhétoriques 0.5000000
techniques rhétoriques 0.5000000
society société 1.0000000
1000 1000 1.0000000
storm tempête 1.0000000
and mariés 0.5000000
groom mariés 0.5000000
disinclinations réticence 1.0000000
going rester 0.2500000
stay rester 0.5000000
stand rester 0.2500000
change changent 1.0000000
apologized excusé 1.0000000
Farmers Farmers 1.0000000
Trang Trang 0.5000000
, Trang 0.1666667
me Trang 0.1666667
NULL Trang 0.1666667
was essayais 0.5000000
trying essayais 0.5000000
unconvinced pas 0.0043860
face-to-face pas 0.0087719
not pas 0.2368421
prodigal pas 0.0043860
matter pas 0.0043860
step pas 0.0043860
loss pas 0.0043860
’ pas 0.0043860
&apos;t pas 0.6359649
as pas 0.0043860
late pas 0.0043860
arguing pas 0.0043860
wanting pas 0.0043860
no pas 0.0307018
NULL pas 0.0307018
cannot pas 0.0087719
appear pas 0.0043860
means &quot; 0.0170940
&quot; &quot; 0.9658120
sow &quot; 0.0085470
harvest &quot; 0.0085470
over 90 0.5000000
ninety 90 0.5000000
you sûres 0.5000000
sure sûres 0.5000000
would raconterais 1.0000000
18th 18 0.5000000
June 18 0.5000000
months mois 0.5000000
for mois 0.5000000
information information 1.0000000
Geneva entrer 0.3333333
arrive entrer 0.3333333
at entrer 0.3333333
yet pourtant 0.2500000
light pourtant 0.2500000
nevertheless pourtant 0.2500000
but pourtant 0.2500000
sum somme 1.0000000
cajole persuader 1.0000000
clear clair 1.0000000
lame lamentable 0.5000000
; lamentable 0.5000000
days jours 0.5000000
day jours 0.2500000
Nowadays jours 0.2500000
commissioner commissaire 1.0000000
make prépare 1.0000000
&apos;re voit 0.5000000
meeting voit 0.5000000
shoes chaussures 1.0000000
me raconta 0.5000000
told raconta 0.5000000
laptop portable 1.0000000
yard cour 1.0000000
cave grotte 1.0000000
it grave 0.5000000
bad grave 0.5000000
red rouge 0.5000000
fridge rouge 0.5000000
feel sens 0.5000000
senseless sens 0.2500000
pointless sens 0.2500000
thought pensais 1.0000000
guild chef 1.0000000
chair chaise 1.0000000
Germans Allemands 1.0000000
quickly rapidement 1.0000000
. a. 0.3333333
is a. 0.3333333
has a. 0.3333333
awaiting qui 0.0144928
are qui 0.0144928
that qui 0.1304348
explained qui 0.0144928
made qui 0.0144928
NULL qui 0.0869565
stone qui 0.0144928
influenced qui 0.0144928
play qui 0.0144928
— qui 0.0144928
taxpayers qui 0.0144928
anyone qui 0.0289855
Who qui 0.0144928
person qui 0.0289855
who qui 0.3768116
selected qui 0.0144928
boat qui 0.0289855
keeps qui 0.0289855
matter qui 0.0144928
happens qui 0.0579710
which qui 0.0434783
changes qui 0.0144928
stern ton 0.3333333
your ton 0.6666667
laundry tant 0.3333333
as tant 0.3333333
while tant 0.3333333
tests psychologiques 0.5000000
psychological psychologiques 0.5000000
the gare 0.2500000
station gare 0.5000000
train gare 0.2500000
with gardé 0.3333333
safe gardé 0.3333333
me gardé 0.3333333
abridge abréger 1.0000000
work marcher 1.0000000
you allez-vous 0.3333333
are allez-vous 0.3333333
Did allez-vous 0.3333333
Maury Maury 0.5000000
Povich Maury 0.5000000
Mathematics mathématiques 1.0000000
feelings sentiments 1.0000000
describe décrire 1.0000000
individual taciturne 1.0000000
trying essayer 1.0000000
redundant fête 0.5000000
party fête 0.5000000
men hommes 1.0000000
wall mur 1.0000000
mathematical vérité 0.1250000
truth vérité 0.8750000
win conquérir 1.0000000
What De 0.7142857
Nowadays De 0.1428571
welcome De 0.1428571
First D&apos; 0.5000000
From D&apos; 0.5000000
achieved accompli 1.0000000
essays rédactions 1.0000000
though certaines 0.5000000
some certaines 0.5000000
That Ça 0.0384615
This Ça 0.1923077
NULL Ça 0.0384615
It Ça 0.6153846
three Ça 0.0384615
I Ça 0.0769231
is pleut 0.5000000
raining pleut 0.5000000
field domaine 1.0000000
Man Man 1.0000000
want veux-tu 0.3333333
do veux-tu 0.3333333
you veux-tu 0.3333333
eating mangeant 1.0000000
eyes yeux 0.5000000
stared yeux 0.2500000
at yeux 0.2500000
robot robot 1.0000000
NULL peine 0.5000000
pretending peine 0.5000000
while il 0.0212766
rich il 0.0106383
hot il 0.0106383
light il 0.0106383
there il 0.1808511
needed il 0.0106383
weather il 0.0212766
NULL il 0.0851064
impossible il 0.0106383
noises il 0.0106383
it il 0.0851064
he il 0.4148936
freeze il 0.0106383
please il 0.0957447
happened il 0.0106383
Please il 0.0106383
in dilemme 1.0000000
this celui-ci 0.5000000
one celui-ci 0.5000000
? ? 1.0000000
monastic ordres 1.0000000
Close Ferme 1.0000000
lucky chanceux 1.0000000
Man rend 0.1666667
&apos;s rend 0.3333333
driving rend 0.3333333
realize rend 0.1666667
deaf sourd 1.0000000
was insensée 1.0000000
then corrige-la 1.0000000
cost coût 1.0000000
changed disposition 1.0000000
making occupé 0.5000000
busy occupé 0.5000000
them Dis-leur 0.5000000
Tell Dis-leur 0.5000000
loyal fans 1.0000000
in belle 0.1666667
beautiful belle 0.6666667
city belle 0.1666667
pilot pilote 1.0000000
ideals idéaux 1.0000000
be possible 0.5000000
possible possible 0.5000000
beginning commence 0.1666667
starts commence 0.1666667
begin commence 0.1666667
begins commence 0.5000000
sick malade 1.0000000
Blindness cécité 1.0000000
day journée 1.0000000
school à 0.0057471
NULL à 0.0747126
neighbor à 0.0057471
told à 0.0114943
typewriter à 0.0114943
being à 0.0114943
unless à 0.0057471
the à 0.0057471
drink à 0.0057471
to à 0.4080460
trust à 0.0057471
prodigal à 0.0057471
under à 0.0057471
studying à 0.0057471
except à 0.0057471
lottery à 0.0057471
faithful à 0.0057471
believe à 0.0057471
chatting à 0.0057471
filling à 0.0057471
by à 0.0114943
regretting à 0.0057471
idea à 0.0057471
thinking à 0.0114943
malnutrition à 0.0057471
fifty à 0.0057471
instead à 0.0057471
term à 0.0114943
reduced à 0.0057471
sentenced à 0.0057471
about à 0.0172414
concentrate à 0.0057471
charged à 0.0057471
against à 0.0114943
sycophants à 0.0057471
logical à 0.0057471
home à 0.0057471
useless à 0.0114943
candy à 0.0057471
chatterbox à 0.0057471
started à 0.0114943
up à 0.0057471
of à 0.0229885
making à 0.0229885
face-to-face à 0.0114943
ear à 0.0057471
drug à 0.0057471
drift à 0.0057471
around à 0.0057471
headache à 0.0114943
how à 0.0057471
study à 0.0057471
last à 0.0114943
at à 0.0517241
on à 0.0172414
three-headed à 0.0057471
beginning à 0.0114943
as à 0.0114943
banana à 0.0114943
migraines migraine 1.0000000
&apos;re araignées 0.3333333
spiders araignées 0.3333333
They araignées 0.3333333
During Pendant 0.5000000
For Pendant 0.5000000
souvenir souvenir 1.0000000
season préférée 1.0000000
dream rêve 1.0000000
Let Tentons 0.3333333
&apos;s Tentons 0.3333333
try Tentons 0.3333333
challenges défie 1.0000000
will jouer 0.2500000
like jouer 0.2500000
cards jouer 0.2500000
playing jouer 0.2500000
end fin 0.3333333
astute fin 0.3333333
prom fin 0.3333333
your tes 1.0000000
somber sombres 1.0000000
about racontes 0.7500000
talking racontes 0.2500000
schooling scolarité 1.0000000
email courriel 0.5000000
which courriel 0.5000000
me moi 0.7368421
I moi 0.1052632
am moi 0.0526316
; moi 0.0526316
welcome moi 0.0526316
for identité 0.5000000
card identité 0.5000000
met l&apos; 0.0100000
adversity l&apos; 0.0100000
college l&apos; 0.0100000
church l&apos; 0.0100000
Gary l&apos; 0.0100000
ear l&apos; 0.0100000
year l&apos; 0.0100000
calling l&apos; 0.0100000
money l&apos; 0.0500000
still l&apos; 0.0100000
Internet l&apos; 0.0100000
shoot l&apos; 0.0100000
Back l&apos; 0.0100000
episode l&apos; 0.0100000
endorphins l&apos; 0.0100000
behavior l&apos; 0.0100000
formal l&apos; 0.0100000
either l&apos; 0.0100000
uncomfortable l&apos; 0.0100000
aspirin l&apos; 0.0100000
explain l&apos; 0.0200000
like l&apos; 0.0200000
stupid l&apos; 0.0100000
love l&apos; 0.0400000
forever l&apos; 0.0100000
outer l&apos; 0.0100000
looks l&apos; 0.0100000
did l&apos; 0.0100000
get l&apos; 0.0100000
feelings l&apos; 0.0100000
sustainability l&apos; 0.0100000
&apos;s l&apos; 0.0100000
education l&apos; 0.0100000
learning l&apos; 0.0100000
information l&apos; 0.0100000
